{"learner":{"attributes":{"best_iteration":"273","best_ntree_limit":"274","scikit_learn":"{\"use_label_encoder\": null, \"n_estimators\": 274, \"objective\": \"binary:logistic\", \"max_depth\": 6, \"max_leaves\": null, \"max_bin\": null, \"grow_policy\": null, \"learning_rate\": 0.04, \"verbosity\": null, \"booster\": null, \"tree_method\": \"hist\", \"gamma\": 0.0, \"min_child_weight\": 5, \"max_delta_step\": 1, \"subsample\": 0.9, \"sampling_method\": null, \"colsample_bytree\": 0.9, \"colsample_bylevel\": null, \"colsample_bynode\": null, \"reg_alpha\": 0.3, \"reg_lambda\": 3.0, \"scale_pos_weight\": 1.5577818587263068, \"base_score\": null, \"missing\": NaN, \"num_parallel_tree\": null, \"random_state\": 42, \"n_jobs\": -1, \"monotone_constraints\": null, \"interaction_constraints\": null, \"importance_type\": null, \"gpu_id\": null, \"validate_parameters\": null, \"predictor\": null, \"enable_categorical\": false, \"feature_types\": null, \"max_cat_to_onehot\": null, \"max_cat_threshold\": null, \"eval_metric\": \"aucpr\", \"early_stopping_rounds\": null, \"callbacks\": null, \"classes_\": [0, 1], \"n_classes_\": 2, \"_estimator_type\": \"classifier\"}"},"feature_names":["tai_start_score","tai_stop_score","orf_type","blast_pid","blast_offset","blast_percentage_aligned","rna_score","tai_mean_score","blast_match","log_orf_len","has_canonical_start","has_canonical_stop","netstart_atg_score","transaid_start_score","transaid_stop_score","transaid_integrated_score","is_missing_rna_score","is_missing_tai_start_score","is_missing_tai_stop_score","is_missing_tai_mean_score","is_missing_netstart_atg_score","is_missing_transaid_start_score","is_missing_transaid_stop_score","is_missing_transaid_mean_score","is_missing_transaid_integrated_score","is_nmd_target","start_ai_consensus","stop_ai_consensus","start_stop_symmetry","canonical_both","tool_coverage","is_sequence_flawed","orf_quality_score","is_high_quality_orf","length_nmd_interaction","ai_quality_interaction"],"feature_types":["float","float","float","float","float","float","float","float","float","float","float","float","float","float","float","float","float","float","float","float","float","float","float","float","float","float","float","float","float","float","float","float","float","float","float","float"],"gradient_booster":{"model":{"gbtree_model_param":{"num_parallel_tree":"1","num_trees":"274","size_leaf_vector":"0"},"tree_info":[0,0,0,0,0,0,0,0,0,0,0,0,0,0,0,0,0,0,0,0,0,0,0,0,0,0,0,0,0,0,0,0,0,0,0,0,0,0,0,0,0,0,0,0,0,0,0,0,0,0,0,0,0,0,0,0,0,0,0,0,0,0,0,0,0,0,0,0,0,0,0,0,0,0,0,0,0,0,0,0,0,0,0,0,0,0,0,0,0,0,0,0,0,0,0,0,0,0,0,0,0,0,0,0,0,0,0,0,0,0,0,0,0,0,0,0,0,0,0,0,0,0,0,0,0,0,0,0,0,0,0,0,0,0,0,0,0,0,0,0,0,0,0,0,0,0,0,0,0,0,0,0,0,0,0,0,0,0,0,0,0,0,0,0,0,0,0,0,0,0,0,0,0,0,0,0,0,0,0,0,0,0,0,0,0,0,0,0,0,0,0,0,0,0,0,0,0,0,0,0,0,0,0,0,0,0,0,0,0,0,0,0,0,0,0,0,0,0,0,0,0,0,0,0,0,0,0,0,0,0,0,0,0,0,0,0,0,0,0,0,0,0,0,0,0,0,0,0,0,0,0,0,0,0,0,0,0,0,0,0,0,0,0,0,0,0,0,0,0,0,0,0,0,0],"trees":[{"base_weights":[-3.1834614E-4,-1E0,1E0,-1E0,7.4287194E-1,-1E0,1E0,-1E0,5.5841786E-1,-4E-2,4E-2,-4E-2,6.031461E-1,-4.8208582E-1,4E-2,-1E0,-3.5929957E-1,-4E-2,4E-2,-2.4661383E-2,4E-2,-4E-2,3.5757676E-2,-4E-2,-9.244235E-3,-3.5841554E-2,1.0097161E-2],"categories":[],"categories_nodes":[],"categories_segments":[],"categories_sizes":[],"default_left":[0,0,0,0,0,0,0,0,0,0,0,0,0,0,0,0,0,0,0,0,0,0,0,0,0,0,0],"id":0,"left_children":[1,3,5,7,9,11,13,15,17,-1,-1,-1,19,21,-1,23,25,-1,-1,-1,-1,-1,-1,-1,-1,-1,-1],"loss_changes":[6.281901E4,1.509961E2,3.650703E2,5.066992E1,8.8478516E1,4.819127E1,4.983789E1,2.4765625E0,4.103117E1,0E0,0E0,0E0,1.8799656E1,3.199317E1,0E0,2.2910156E0,6.035101E0,0E0,0E0,0E0,0E0,0E0,0E0,0E0,0E0,0E0,0E0],"parents":[2147483647,0,0,1,1,2,2,3,3,4,4,5,5,6,6,7,7,8,8,12,12,13,13,15,15,16,16],"right_children":[2,4,6,8,10,12,14,16,18,-1,-1,-1,20,22,-1,24,26,-1,-1,-1,-1,-1,-1,-1,-1,-1,-1],"split_conditions":[5.627759E-1,7.79E-1,1E0,9.6433294E-1,3.68E1,9.82146E-1,3.8396937E-1,6.58E-1,8.24E1,-4E-2,4E-2,-4E-2,9.6066E-1,2.91E-1,4E-2,9.1886616E-1,4.3990475E-1,-4E-2,4E-2,-2.4661383E-2,4E-2,-4E-2,3.5757676E-2,-4E-2,-9.244235E-3,-3.5841554E-2,1.0097161E-2],"split_indices":[26,14,8,1,3,12,27,14,3,0,0,0,6,15,0,1,26,0,0,0,0,0,0,0,0,0,0],"split_type":[0,0,0,0,0,0,0,0,0,0,0,0,0,0,0,0,0,0,0,0,0,0,0,0,0,0,0],"sum_hessian":[2.1352951E4,1.06509795E4,1.0701971E4,1.0603627E4,4.7352867E1,7.249115E1,1.06294795E4,1.0584914E4,1.8712255E1,1.4168337E1,3.318453E1,5.5947227E1,1.6543919E1,2.0649464E1,1.060883E4,1.0573631E4,1.12839E1,6E0,1.27122555E1,6.057782E0,1.0486137E1,1.2528891E1,8.120573E0,1.0566904E4,6.7261186E0,5.528891E0,5.755009E0],"tree_param":{"num_deleted":"0","num_feature":"36","num_nodes":"27","size_leaf_vector":"0"}},{"base_weights":[5.5390927E-3,-1E0,1E0,-1E0,8.7144613E-1,-1E0,1E0,-1E0,4.3636677E-1,-4E-2,4E-2,-1E0,4.3878672E-1,-4E-2,1E0,-1E0,-3.16306E-1,-4E-2,4E-2,-1.02967145E-2,-4E-2,-2.585102E-2,3.7639353E-2,1.7447576E-1,4E-2,-4E-2,-1.4960742E-2,-3.4919545E-2,1.0322629E-2,-1.7232943E-2,2.9450258E-2],"categories":[],"categories_nodes":[],"categories_segments":[],"categories_sizes":[],"default_left":[0,0,0,0,0,0,0,0,0,0,0,0,0,0,0,0,0,0,0,0,0,0,0,0,0,0,0,0,0,0,0],"id":1,"left_children":[1,3,5,7,9,11,13,15,17,-1,-1,19,21,-1,23,25,27,-1,-1,-1,-1,-1,-1,29,-1,-1,-1,-1,-1,-1,-1],"loss_changes":[6.1243363E4,1.6925586E2,3.5094727E2,4.4708984E1,7.101625E1,4.089483E1,5.3470703E1,3.5664062E0,4.503622E1,0E0,0E0,1.0735931E0,1.3929118E1,0E0,5.59375E0,3.125E-2,6.120205E0,0E0,0E0,0E0,0E0,0E0,0E0,6.1743245E0,0E0,0E0,0E0,0E0,0E0,0E0,0E0],"parents":[2147483647,0,0,1,1,2,2,3,3,4,4,5,5,6,6,7,7,8,8,11,11,12,12,14,14,15,15,16,16,23,23],"right_children":[2,4,6,8,10,12,14,16,18,-1,-1,20,22,-1,24,26,28,-1,-1,-1,-1,-1,-1,30,-1,-1,-1,-1,-1,-1,-1],"split_conditions":[5.627759E-1,7.79E-1,1E0,9.5525E-1,3.68E1,9.4282E-1,2.9508802E-1,6.58E-1,8.24E1,-4E-2,4E-2,5.6664267E0,8.13E-1,-4E-2,3.8396937E-1,9.1886616E-1,4.3990475E-1,-4E-2,4E-2,-1.02967145E-2,-4E-2,-2.585102E-2,3.7639353E-2,2.65E-1,4E-2,-4E-2,-1.4960742E-2,-3.4919545E-2,1.0322629E-2,-1.7232943E-2,2.9450258E-2],"split_indices":[26,14,8,1,3,6,27,14,3,0,0,9,14,0,27,1,26,0,0,0,0,0,0,14,0,0,0,0,0,0,0],"split_type":[0,0,0,0,0,0,0,0,0,0,0,0,0,0,0,0,0,0,0,0,0,0,0,0,0,0,0,0,0,0,0],"sum_hessian":[2.1372752E4,1.0629064E4,1.07436875E4,1.0583201E4,4.5863407E1,7.324233E1,1.0670445E4,1.0563496E4,1.9704615E1,1.191357E1,3.3949837E1,5.5455215E1,1.778712E1,1.0303814E1,1.0660142E4,1.0551575E4,1.1921407E1,6.9972954E0,1.2707319E1,5.195342E0,5.0259872E1,5.1663938E0,1.2620727E1,1.0338045E1,1.0649803E4,1.0545878E4,5.697106E0,5.5271153E0,6.394292E0,5.0558534E0,5.2821918E0],"tree_param":{"num_deleted":"0","num_feature":"36","num_nodes":"31","size_leaf_vector":"0"}},{"base_weights":[1.3420235E-3,-1E0,1E0,-1E0,8.4470993E-1,-4E-2,1E0,-1E0,-2.2484338E-1,-4E-2,4E-2,1.8012552E-1,4E-2,-4E-2,-1.4360039E-2,-4E-2,4E-2,-3.4657374E-2,4E-2],"categories":[],"categories_nodes":[],"categories_segments":[],"categories_sizes":[],"default_left":[0,0,0,0,0,0,0,0,0,0,0,0,0,0,0,0,0,0,0],"id":2,"left_children":[1,3,5,7,9,-1,11,13,15,-1,-1,17,-1,-1,-1,-1,-1,-1,-1],"loss_changes":[5.981713E4,2.0521875E2,1.4141797E2,2.6388672E1,9.699609E1,0E0,1.3603516E1,1.875E-1,1.0972981E2,0E0,0E0,2.6577557E1,0E0,0E0,0E0,0E0,0E0,0E0,0E0],"parents":[2147483647,0,0,1,1,2,2,3,3,4,4,6,6,7,7,8,8,11,11],"right_children":[2,4,6,8,10,-1,12,14,16,-1,-1,18,-1,-1,-1,-1,-1,-1,-1],"split_conditions":[7.070661E-1,8.28E-1,4E0,4.37E-1,3.68E1,-4E-2,1E0,6.45E-1,6.0194176E1,-4E-2,4E-2,9.82146E-1,4E-2,-4E-2,-1.4360039E-2,-4E-2,4E-2,-3.4657374E-2,4E-2],"split_indices":[35,13,30,15,3,0,8,13,5,0,0,12,0,0,0,0,0,0,0],"split_type":[0,0,0,0,0,0,0,0,0,0,0,0,0,0,0,0,0,0,0],"sum_hessian":[2.1330043E4,1.0683304E4,1.0646739E4,1.0625442E4,5.7861332E1,2.0251587E1,1.0626488E4,1.0578755E4,4.6687634E1,1.4757579E1,4.3103756E1,2.2435492E1,1.0604053E4,1.0573065E4,5.6893497E0,2.5104101E1,2.1583532E1,9.935944E0,1.2499548E1],"tree_param":{"num_deleted":"0","num_feature":"36","num_nodes":"19","size_leaf_vector":"0"}},{"base_weights":[-1.3533788E-4,-1E0,1E0,-1E0,1.9534065E-1,-9.9928236E-1,1E0,-4E-2,-5.52083E-1,-4E-2,4E-2,-1E0,7.501818E-1,-1.5745604E-1,1E0,-4E-2,4E-2,-1.4312946E-2,-4E-2,-4.4228868E-3,4E-2,-4E-2,3.2433923E-2,8.086382E-3,4E-2],"categories":[],"categories_nodes":[],"categories_segments":[],"categories_sizes":[],"default_left":[0,0,0,0,0,0,0,0,0,0,0,0,0,0,0,0,0,0,0,0,0,0,0,0,0],"id":3,"left_children":[1,3,5,7,9,11,13,-1,15,-1,-1,17,19,21,23,-1,-1,-1,-1,-1,-1,-1,-1,-1,-1],"loss_changes":[5.8133082E4,5.6722656E1,2.8392773E2,2.0390625E0,8.519903E1,5.711499E1,1.9542969E1,0E0,4.80608E1,0E0,0E0,2.9782867E-1,6.883978E0,1.8792934E1,1.6796875E0,0E0,0E0,0E0,0E0,0E0,0E0,0E0,0E0,0E0,0E0],"parents":[2147483647,0,0,1,1,2,2,3,3,4,4,5,5,6,6,8,8,11,11,12,12,13,13,14,14],"right_children":[2,4,6,8,10,12,14,-1,16,-1,-1,18,20,22,24,-1,-1,-1,-1,-1,-1,-1,-1,-1,-1],"split_conditions":[6.366888E-1,7.49E-1,1E0,4.37E-1,8.056604E1,9.82146E-1,3.8396937E-1,-4E-2,6.4912285E1,-4E-2,4E-2,5.590987E0,6.42E-1,6.326853E-1,7.296E-2,-4E-2,4E-2,-1.4312946E-2,-4E-2,-4.4228868E-3,4E-2,-4E-2,3.2433923E-2,8.086382E-3,4E-2],"split_indices":[35,13,8,15,5,12,27,0,5,0,0,9,15,26,6,0,0,0,0,0,0,0,0,0,0],"split_type":[0,0,0,0,0,0,0,0,0,0,0,0,0,0,0,0,0,0,0,0,0,0,0,0,0],"sum_hessian":[2.1286807E4,1.0588235E4,1.0698571E4,1.0549939E4,3.829594E1,6.848345E1,1.0630088E4,1.0526464E4,2.3475513E1,1.6724031E1,2.157191E1,5.220109E1,1.628236E1,1.3311296E1,1.0616776E4,1.5204926E1,8.270588E0,5.9311614E0,4.626993E1,5.3276987E0,1.0954661E1,6.6198306E0,6.691466E0,5.1003833E0,1.0611677E4],"tree_param":{"num_deleted":"0","num_feature":"36","num_nodes":"25","size_leaf_vector":"0"}},{"base_weights":[-1.566309E-3,-1E0,1E0,-4E-2,1.8178445E-1,-9.8783726E-1,1E0,-4E-2,4E-2,-4E-2,8.354987E-1,7.444206E-1,4E-2,1.962284E-3,4E-2,-8.01431E-1,4E-2,-4E-2,1.49687175E-2,1.4711127E-2,-1.2362259E-2],"categories":[],"categories_nodes":[],"categories_segments":[],"categories_sizes":[],"default_left":[0,0,0,0,0,0,0,0,0,0,0,0,0,0,0,0,0,0,0,0,0],"id":4,"left_children":[1,3,5,-1,7,9,11,-1,-1,-1,13,15,-1,-1,-1,17,-1,-1,19,-1,-1],"loss_changes":[5.651834E4,5.648047E1,2.7558203E2,0E0,8.270113E1,6.046131E1,8.691406E-1,0E0,0E0,0E0,4.0361433E0,7.624812E1,0E0,0E0,0E0,1.056982E1,0E0,0E0,2.2914085E0,0E0,0E0],"parents":[2147483647,0,0,1,1,2,2,4,4,5,5,6,6,10,10,11,11,15,15,18,18],"right_children":[2,4,6,-1,8,10,12,-1,-1,-1,14,16,-1,-1,-1,18,-1,-1,20,-1,-1],"split_conditions":[6.366888E-1,7.49E-1,1E0,-4E-2,7.3333336E1,9.82146E-1,7.070661E-1,-4E-2,4E-2,-4E-2,7.37E-1,4.37E-1,4E-2,1.962284E-3,4E-2,4.8327193E-1,4E-2,-4E-2,7.537726E-1,1.4711127E-2,-1.2362259E-2],"split_indices":[35,13,8,0,5,12,35,0,0,0,15,15,0,0,0,7,0,0,28,0,0],"split_type":[0,0,0,0,0,0,0,0,0,0,0,0,0,0,0,0,0,0,0,0,0],"sum_hessian":[2.1225393E4,1.056703E4,1.0658362E4,1.0527949E4,3.9081097E1,6.719861E1,1.0591163E4,1.6928192E1,2.2152906E1,5.168805E1,1.5510561E1,5.8540546E1,1.0532623E4,5.8565555E0,9.654005E0,2.2278864E1,3.626168E1,1.1845598E1,1.0433267E1,5.2440906E0,5.1891756E0],"tree_param":{"num_deleted":"0","num_feature":"36","num_nodes":"21","size_leaf_vector":"0"}},{"base_weights":[4.258738E-3,-1E0,1E0,-1E0,3.169092E-1,-1E0,1E0,-4E-2,-5.2662987E-1,-4E-2,4E-2,-4E-2,8.2215434E-1,7.0612264E-1,4E-2,-1E0,1E0,6.0180775E-3,4E-2,-8.167097E-1,4E-2,-4E-2,-7.525012E-3,1.3000618E-2,4E-2,-4E-2,-7.0168816E-2,1.4614518E-2,-2.0551277E-2],"categories":[],"categories_nodes":[],"categories_segments":[],"categories_sizes":[],"default_left":[0,0,0,0,0,0,0,0,0,0,0,0,0,0,0,0,0,0,0,0,0,0,0,0,0,0,0,0,0],"id":5,"left_children":[1,3,5,7,9,11,13,-1,15,-1,-1,-1,17,19,-1,21,23,-1,-1,25,-1,-1,-1,-1,-1,-1,27,-1,-1],"loss_changes":[5.4963703E4,5.548242E1,2.7615234E2,6.5390625E0,5.8519894E1,4.715194E1,2.0253906E0,0E0,5.8466446E1,0E0,0E0,0E0,2.1508455E0,7.4301865E1,0E0,1.892456E0,4.584751E-1,0E0,0E0,7.4344673E0,0E0,0E0,0E0,0E0,0E0,0E0,3.7097225E0,0E0,0E0],"parents":[2147483647,0,0,1,1,2,2,3,3,4,4,5,5,6,6,8,8,12,12,13,13,15,15,16,16,19,19,26,26],"right_children":[2,4,6,8,10,12,14,-1,16,-1,-1,-1,18,20,-1,22,24,-1,-1,26,-1,-1,-1,-1,-1,-1,28,-1,-1],"split_conditions":[6.366888E-1,8.05E-1,1E0,5E0,8.056604E1,9.88799E-1,7.070661E-1,-4E-2,3.94E-1,-4E-2,4E-2,-4E-2,9.42E-1,4.37E-1,4E-2,4.9620324E-1,6.45E-1,6.0180775E-3,4E-2,4.8327193E-1,4E-2,-4E-2,-7.525012E-3,1.3000618E-2,4E-2,-4E-2,5.9893024E-1,1.4614518E-2,-2.0551277E-2],"split_indices":[35,13,8,30,5,12,35,0,15,0,0,0,14,15,0,1,13,0,0,7,0,0,0,0,0,0,7,0,0],"split_type":[0,0,0,0,0,0,0,0,0,0,0,0,0,0,0,0,0,0,0,0,0,0,0,0,0,0,0,0,0],"sum_hessian":[2.116862E4,1.050714E4,1.06614795E4,1.0476873E4,3.026596E1,6.407624E1,1.0597403E4,1.0436044E4,4.082959E1,1.2165599E1,1.810036E1,5.230064E1,1.17756E1,5.7230183E1,1.0540173E4,2.6705055E1,1.4124535E1,5.342718E0,6.4328823E0,2.1614101E1,3.561608E1,2.1543549E1,5.1615057E0,5.479871E0,8.644663E0,1.1070844E1,1.0543259E1,5.2458687E0,5.29739E0],"tree_param":{"num_deleted":"0","num_feature":"36","num_nodes":"29","size_leaf_vector":"0"}},{"base_weights":[-5.230444E-4,-1E0,1E0,-1E0,3.7764174E-1,-9.036318E-1,1E0,-4E-2,-5.499302E-1,-4E-2,4E-2,-1E0,9.007272E-1,7.376652E-1,4E-2,-1E0,4E-2,-8.273309E-3,-4E-2,6.019714E-3,4E-2,-8.165662E-1,4E-2,-4E-2,-8.243672E-3,-8.5463905E-4,-4E-2],"categories":[],"categories_nodes":[],"categories_segments":[],"categories_sizes":[],"default_left":[0,0,0,0,0,0,0,0,0,0,0,0,0,0,0,0,0,0,0,0,0,0,0,0,0,0,0],"id":6,"left_children":[1,3,5,7,9,11,13,-1,15,-1,-1,17,19,21,-1,23,-1,-1,-1,-1,-1,25,-1,-1,-1,-1,-1],"loss_changes":[5.332158E4,5.764258E1,2.460957E2,5.0996094E0,5.072117E1,5.6436207E1,1.2285156E0,0E0,5.0794212E1,0E0,0E0,1.8051147E0,2.4125948E0,7.581056E1,0E0,2.222374E0,0E0,0E0,0E0,0E0,0E0,6.1084404E0,0E0,0E0,0E0,0E0,0E0],"parents":[2147483647,0,0,1,1,2,2,3,3,4,4,5,5,6,6,8,8,11,11,12,12,13,13,15,15,21,21],"right_children":[2,4,6,8,10,12,14,-1,16,-1,-1,18,20,22,-1,24,-1,-1,-1,-1,-1,26,-1,-1,-1,-1,-1],"split_conditions":[6.366888E-1,8.05E-1,1E0,5E0,7.3333336E1,9.88799E-1,7.070661E-1,-4E-2,4.37E-1,-4E-2,4E-2,5.590987E0,9.24E-1,4.37E-1,4E-2,5.3764623E-1,4E-2,-8.273309E-3,-4E-2,6.019714E-3,4E-2,5.0988E-1,4E-2,-4E-2,-8.243672E-3,-8.5463905E-4,-4E-2],"split_indices":[35,13,8,30,5,12,35,0,15,0,0,9,14,15,0,26,0,0,0,0,0,6,0,0,0,0,0],"split_type":[0,0,0,0,0,0,0,0,0,0,0,0,0,0,0,0,0,0,0,0,0,0,0,0,0,0,0],"sum_hessian":[2.1047553E4,1.0472179E4,1.0575373E4,1.044366E4,2.8519217E1,6.5423645E1,1.050995E4,1.0405339E4,3.832136E1,1.0880042E1,1.7639174E1,5.21277E1,1.3295942E1,6.0754887E1,1.0449195E4,2.8025263E1,1.02961E1,5.3943567E0,4.6733345E1,5.346471E0,7.9494715E0,2.183423E1,3.892066E1,2.198383E1,6.0414333E0,7.881186E0,1.3953043E1],"tree_param":{"num_deleted":"0","num_feature":"36","num_nodes":"27","size_leaf_vector":"0"}},{"base_weights":[-1.1000872E-3,-1E0,1E0,-1E0,3.6157435E-1,-4E-2,1E0,-4E-2,-7.8678895E-3,-4E-2,4E-2,1.4192876E-1,4E-2,-3.0140275E-2,3.651605E-2],"categories":[],"categories_nodes":[],"categories_segments":[],"categories_sizes":[],"default_left":[0,0,0,0,0,0,0,0,0,0,0,0,0,0,0],"id":7,"left_children":[1,3,5,7,9,-1,11,-1,-1,-1,-1,13,-1,-1,-1],"loss_changes":[5.18543E4,1.924082E2,1.3033203E2,2.3398438E0,2.0641327E2,0E0,1.4912109E1,0E0,0E0,0E0,0E0,2.0305233E1,0E0,0E0,0E0],"parents":[2147483647,0,0,1,1,2,2,3,3,4,4,6,6,11,11],"right_children":[2,4,6,8,10,-1,12,-1,-1,-1,-1,14,-1,-1,-1],"split_conditions":[7.070661E-1,4.37E-1,4E0,6.45E-1,0E0,-4E-2,1E0,-4E-2,-7.8678895E-3,-4E-2,4E-2,9.82146E-1,4E-2,-3.0140275E-2,3.651605E-2],"split_indices":[35,15,30,13,4,0,8,0,0,0,0,12,0,0,0],"split_type":[0,0,0,0,0,0,0,0,0,0,0,0,0,0,0],"sum_hessian":[2.0980893E4,1.0521148E4,1.0459744E4,1.0419184E4,1.0196529E2,1.955129E1,1.0440193E4,1.0413162E4,6.0213695E0,3.9108997E1,6.285629E1,2.2029238E1,1.0418164E4,1.0043359E1,1.198588E1],"tree_param":{"num_deleted":"0","num_feature":"36","num_nodes":"15","size_leaf_vector":"0"}},{"base_weights":[9.734062E-4,-1E0,1E0,-1E0,-1.996362E-3,-9.3323606E-1,1E0,-1E0,2.7838275E-3,-1E0,1E0,-4E-2,7.334221E-1,-1.6119172E-1,1E0,-4E-2,-9.242079E-3,-4E-2,-0E0,4E-2,8.624321E-3,-0E0,4E-2,-3.629317E-2,3.5947334E-2,8.404355E-3,4E-2],"categories":[],"categories_nodes":[],"categories_segments":[],"categories_sizes":[],"default_left":[0,0,0,0,0,0,0,0,0,0,0,0,0,0,0,0,0,0,0,0,0,0,0,0,0,0,0],"id":8,"left_children":[1,3,5,7,9,11,13,15,-1,17,19,-1,21,23,25,-1,-1,-1,-1,-1,-1,-1,-1,-1,-1,-1,-1],"loss_changes":[5.03143E4,5.1478516E1,2.5288867E2,6.904297E0,8.371199E1,5.0644993E1,1.974414E1,1.4707031E0,0E0,5.558506E0,2.4816093E0,0E0,4.564577E0,1.6366808E1,2.1582031E0,0E0,0E0,0E0,0E0,0E0,0E0,0E0,0E0,0E0,0E0,0E0,0E0],"parents":[2147483647,0,0,1,1,2,2,3,3,4,4,5,5,6,6,7,7,9,9,10,10,12,12,13,13,14,14],"right_children":[2,4,6,8,10,12,14,16,-1,18,20,-1,22,24,26,-1,-1,-1,-1,-1,-1,-1,-1,-1,-1,-1,-1],"split_conditions":[6.366888E-1,5E0,1E0,9.8E-1,3.94E-1,9.82146E-1,3.8396937E-1,7.786896E-1,2.7838275E-3,3.8396937E-1,5.7365723E0,-4E-2,7.37E-1,5.46E-1,3.3883807E-1,-4E-2,-9.242079E-3,-4E-2,-0E0,4E-2,8.624321E-3,-0E0,4E-2,-3.629317E-2,3.5947334E-2,8.404355E-3,4E-2],"split_indices":[35,30,8,13,15,12,27,26,0,27,9,0,15,13,26,0,0,0,0,0,0,0,0,0,0,0,0],"split_type":[0,0,0,0,0,0,0,0,0,0,0,0,0,0,0,0,0,0,0,0,0,0,0,0,0,0,0],"sum_hessian":[2.0853258E4,1.0364711E4,1.0488548E4,1.0312413E4,5.2297123E1,6.515711E1,1.0423391E4,1.0307317E4,5.0962915E0,2.5761879E1,2.6535242E1,5.056209E1,1.459502E1,1.3351679E1,1.0410039E4,1.0301974E4,5.343343E0,2.0744694E1,5.017185E0,1.9861057E1,6.6741858E0,6.085855E0,8.509166E0,8.255063E0,5.0966153E0,6.0245137E0,1.0404015E4],"tree_param":{"num_deleted":"0","num_feature":"36","num_nodes":"27","size_leaf_vector":"0"}},{"base_weights":[-1.4607817E-3,-1E0,1E0,-1E0,3.3645697E-3,-9.141936E-1,1E0,-4E-2,-5.332717E-3,-1E0,1E0,-1E0,6.454332E-1,-5.1866528E-2,1E0,-4E-2,-0E0,4E-2,1.40770525E-2,-1.4373985E-2,-4E-2,-2.3216228E-3,3.8236666E-2,-3.2803748E-2,2.5782906E-2,4.9571763E-3,1E0,5.576469E-1,4E-2,-2.8257422E-2,4E-2],"categories":[],"categories_nodes":[],"categories_segments":[],"categories_sizes":[],"default_left":[0,0,0,0,0,0,0,0,0,0,0,0,0,0,0,0,0,0,0,0,0,0,0,0,0,0,0,0,0,0,0],"id":9,"left_children":[1,3,5,7,9,11,13,-1,-1,15,17,19,21,23,25,-1,-1,-1,-1,-1,-1,-1,-1,-1,-1,-1,27,29,-1,-1,-1],"loss_changes":[4.887572E4,5.4908203E1,2.465918E2,3.65625E0,8.91356E1,4.6416344E1,1.52890625E1,0E0,0E0,5.4895134E0,2.0165253E-1,8.357239E-2,4.5999417E0,1.1022511E1,2.6367188E0,0E0,0E0,0E0,0E0,0E0,0E0,0E0,0E0,0E0,0E0,0E0,9.277344E-1,1.763752E1,0E0,0E0,0E0],"parents":[2147483647,0,0,1,1,2,2,3,3,4,4,5,5,6,6,9,9,10,10,11,11,12,12,13,13,14,14,26,26,27,27],"right_children":[2,4,6,8,10,12,14,-1,-1,16,18,20,22,24,26,-1,-1,-1,-1,-1,-1,-1,-1,-1,-1,-1,28,30,-1,-1,-1],"split_conditions":[6.366888E-1,5E0,1E0,9.39E-1,3.94E-1,9.82146E-1,3.8396937E-1,-4E-2,-5.332717E-3,5.382159E-1,5.7930136E0,5.590987E0,6.42E-1,6.326853E-1,7.296E-2,-4E-2,-0E0,4E-2,1.40770525E-2,-1.4373985E-2,-4E-2,-2.3216228E-3,3.8236666E-2,-3.2803748E-2,2.5782906E-2,4.9571763E-3,4.7049624E-1,3.48E-1,4E-2,-2.8257422E-2,4E-2],"split_indices":[35,30,8,13,15,12,27,0,0,1,9,9,15,26,6,0,0,0,0,0,0,0,0,0,0,0,27,15,0,0,0],"split_type":[0,0,0,0,0,0,0,0,0,0,0,0,0,0,0,0,0,0,0,0,0,0,0,0,0,0,0,0,0,0,0],"sum_hessian":[2.0737742E4,1.03245205E4,1.0413222E4,1.0270595E4,5.392557E1,6.480428E1,1.0348417E4,1.0264042E4,6.5524006E0,2.6846727E1,2.7078844E1,4.975157E1,1.5052715E1,1.2955082E1,1.0335462E4,2.1826801E1,5.0199256E0,2.1530025E1,5.548817E0,5.449543E0,4.430203E1,5.06032E0,9.992395E0,6.1116056E0,6.843477E0,5.0340343E0,1.0330428E4,1.8423859E1,1.0312004E4,5.0841393E0,1.3339719E1],"tree_param":{"num_deleted":"0","num_feature":"36","num_nodes":"31","size_leaf_vector":"0"}},{"base_weights":[-2.2196055E-3,-1E0,1E0,-4E-2,-1.2811516E-2,-9.849276E-1,1E0,-4E-2,1E0,-4E-2,5.1482165E-1,1.9707839E-1,1E0,4E-2,9.225538E-3,-0E0,4E-2,-9.265197E-1,8.988554E-1,8.917163E-3,4E-2,-1.0022825E-2,-4E-2,-0E0,4E-2],"categories":[],"categories_nodes":[],"categories_segments":[],"categories_sizes":[],"default_left":[0,0,0,0,0,0,0,0,0,0,0,0,0,0,0,0,0,0,0,0,0,0,0,0,0],"id":10,"left_children":[1,3,5,-1,7,9,11,-1,13,-1,15,17,19,-1,-1,-1,-1,21,23,-1,-1,-1,-1,-1,-1],"loss_changes":[4.7224188E4,5.5498047E1,2.663164E2,0E0,1.1160225E2,3.7148003E1,1.8107422E1,0E0,1.3673058E0,0E0,4.9049664E0,2.9873896E1,1.4316406E0,0E0,0E0,0E0,0E0,1.1711521E0,5.475298E0,0E0,0E0,0E0,0E0,0E0,0E0],"parents":[2147483647,0,0,1,1,2,2,4,4,5,5,6,6,8,8,10,10,11,11,12,12,17,17,18,18],"right_children":[2,4,6,-1,8,10,12,-1,14,-1,16,18,20,-1,-1,-1,-1,22,24,-1,-1,-1,-1,-1,-1],"split_conditions":[6.366888E-1,4.37E-1,1E0,-4E-2,8.056604E1,9.82146E-1,4.7049624E-1,-4E-2,5.7365723E0,-4E-2,9.9571E-1,5.627759E-1,1.25381E-1,4E-2,9.225538E-3,-0E0,4E-2,2.3335816E-1,3.48E-1,8.917163E-3,4E-2,-1.0022825E-2,-4E-2,-0E0,4E-2],"split_indices":[35,15,8,0,5,12,27,0,9,0,6,26,12,0,0,0,0,7,15,0,0,0,0,0,0],"split_type":[0,0,0,0,0,0,0,0,0,0,0,0,0,0,0,0,0,0,0,0,0,0,0,0,0],"sum_hessian":[2.0526295E4,1.0219812E4,1.0306482E4,1.016218E4,5.7632404E1,6.505211E1,1.024143E4,2.8018925E1,2.961348E1,5.0949306E1,1.4102802E1,3.0489265E1,1.021094E4,2.4455366E1,5.1581125E0,8.174314E0,5.9284887E0,1.1188077E1,1.930119E1,5.109392E0,1.0205831E4,5.2851853E0,5.9028916E0,5.7628827E0,1.3538306E1],"tree_param":{"num_deleted":"0","num_feature":"36","num_nodes":"25","size_leaf_vector":"0"}},{"base_weights":[-1.1112227E-3,-1E0,1E0,-1E0,4.8396048E-1,-1E0,1E0,-1E0,2.486148E-1,-4E-2,4E-2,-4E-2,4.5766887E-1,-2.3090568E-1,4E-2,-4E-2,-4.673015E-1,-4E-2,4E-2,-1.5905628E-2,3.9467793E-2,-4E-2,3.6418788E-2,-4E-2,3.669253E-2],"categories":[],"categories_nodes":[],"categories_segments":[],"categories_sizes":[],"default_left":[0,0,0,0,0,0,0,0,0,0,0,0,0,0,0,0,0,0,0,0,0,0,0,0,0],"id":11,"left_children":[1,3,5,7,9,11,13,15,17,-1,-1,-1,19,21,-1,-1,23,-1,-1,-1,-1,-1,-1,-1,-1],"loss_changes":[4.558012E4,1.3151172E2,2.8705078E2,3.1908203E1,9.330357E1,3.7729248E1,3.1890625E1,2.0625E0,3.5326347E1,0E0,0E0,0E0,1.0396906E1,2.4747084E1,0E0,0E0,2.4259117E1,0E0,0E0,0E0,0E0,0E0,0E0,0E0,0E0],"parents":[2147483647,0,0,1,1,2,2,3,3,4,4,5,5,6,6,7,7,8,8,12,12,13,13,16,16],"right_children":[2,4,6,8,10,12,14,16,18,-1,-1,-1,20,22,-1,-1,24,-1,-1,-1,-1,-1,-1,-1,-1],"split_conditions":[5.627759E-1,6.58E-1,1E0,9.42935E-1,0E0,9.82146E-1,3.8396937E-1,4.37E-1,8.24E1,-4E-2,4E-2,-4E-2,9.6066E-1,2.91E-1,4E-2,-4E-2,3.68E1,-4E-2,4E-2,-1.5905628E-2,3.9467793E-2,-4E-2,3.6418788E-2,-4E-2,3.669253E-2],"split_indices":[26,14,8,1,4,12,27,15,3,0,0,0,6,15,0,0,3,0,0,0,0,0,0,0,0],"split_type":[0,0,0,0,0,0,0,0,0,0,0,0,0,0,0,0,0,0,0,0,0,0,0,0,0],"sum_hessian":[2.0341664E4,1.0150173E4,1.019149E4,1.0092494E4,5.7679653E1,6.77821E1,1.0123708E4,1.0073586E4,1.8907343E1,1.8722351E1,3.89573E1,5.2025196E1,1.57569E1,1.9540424E1,1.0104167E4,1.0057622E4,1.5964369E1,7.445289E0,1.1462054E1,6.0895395E0,9.66736E0,1.1725825E1,7.8145995E0,1.0485092E1,5.4792776E0],"tree_param":{"num_deleted":"0","num_feature":"36","num_nodes":"25","size_leaf_vector":"0"}},{"base_weights":[-1.3511751E-3,-1E0,1E0,-1E0,5.0935626E-1,-8.812872E-1,1E0,-1E0,3.2886755E-1,-4E-2,4E-2,-1E0,6.45922E-1,-1.9909139E-1,1E0,-4E-2,-4.6429458E-1,-4E-2,4E-2,-4E-2,1.3316371E-3,-6.5465644E-3,4E-2,-3.864943E-2,2.893083E-2,9.090796E-3,4E-2,-4E-2,3.381894E-2],"categories":[],"categories_nodes":[],"categories_segments":[],"categories_sizes":[],"default_left":[0,0,0,0,0,0,0,0,0,0,0,0,0,0,0,0,0,0,0,0,0,0,0,0,0,0,0,0,0],"id":12,"left_children":[1,3,5,7,9,11,13,15,17,-1,-1,19,21,23,25,-1,27,-1,-1,-1,-1,-1,-1,-1,-1,-1,-1,-1,-1],"loss_changes":[4.4205367E4,1.3978906E2,2.6232617E2,3.668164E1,8.79313E1,4.2823833E1,3.0501953E1,2.1523438E0,3.348347E1,0E0,0E0,6.929863E0,6.9268465E0,1.9196732E1,1.3691406E0,0E0,2.0429985E1,0E0,0E0,0E0,0E0,0E0,0E0,0E0,0E0,0E0,0E0,0E0,0E0],"parents":[2147483647,0,0,1,1,2,2,3,3,4,4,5,5,6,6,7,7,8,8,11,11,12,12,13,13,14,14,16,16],"right_children":[2,4,6,8,10,12,14,16,18,-1,-1,20,22,24,26,-1,28,-1,-1,-1,-1,-1,-1,-1,-1,-1,-1,-1,-1],"split_conditions":[5.627759E-1,6.58E-1,3.68E1,9.42935E-1,0E0,9.44E-1,3.8396937E-1,4.37E-1,8.24E1,-4E-2,4E-2,9.90287E-1,9.43172E-1,2.91E-1,6.598E-2,-4E-2,3.68E1,-4E-2,4E-2,-4E-2,1.3316371E-3,-6.5465644E-3,4E-2,-3.864943E-2,2.893083E-2,9.090796E-3,4E-2,-4E-2,3.381894E-2],"split_indices":[26,14,3,1,4,14,27,15,3,0,0,12,12,15,6,0,3,0,0,0,0,0,0,0,0,0,0,0,0],"split_type":[0,0,0,0,0,0,0,0,0,0,0,0,0,0,0,0,0,0,0,0,0,0,0,0,0,0,0,0,0],"sum_hessian":[2.0188268E4,1.0079842E4,1.0108426E4,1.0020562E4,5.9280075E1,7.164737E1,1.0036778E4,1.0001541E4,1.9020697E1,1.9807817E1,3.9472256E1,5.7734844E1,1.3912524E1,1.9800152E1,1.0016979E4,9.985473E3,1.6068161E1,6.914205E0,1.2106492E1,5.2015194E1,5.7196493E0,5.224229E0,8.688295E0,1.0909275E1,8.890878E0,5.0935974E0,1.0011885E4,1.1001427E1,5.066735E0],"tree_param":{"num_deleted":"0","num_feature":"36","num_nodes":"29","size_leaf_vector":"0"}},{"base_weights":[3.4169087E-3,-1E0,1E0,-4E-2,7.6894425E-2,-8.5262626E-1,1E0,-4E-2,4E-2,-1E0,5.868295E-1,-6.2953696E-2,1E0,-4.694906E-3,-4E-2,-4.5164456E-3,3.7333164E-2,-3.690519E-2,2.8591288E-2,1.0695195E-2,1E0,5.411872E-1,4E-2,-1.8795311E-2,4E-2],"categories":[],"categories_nodes":[],"categories_segments":[],"categories_sizes":[],"default_left":[0,0,0,0,0,0,0,0,0,0,0,0,0,0,0,0,0,0,0,0,0,0,0,0,0],"id":13,"left_children":[1,3,5,-1,7,9,11,-1,-1,13,15,17,19,-1,-1,-1,-1,-1,-1,-1,21,23,-1,-1,-1],"loss_changes":[4.2914027E4,5.184375E1,2.2782031E2,0E0,7.750747E1,4.1446945E1,1.57109375E1,0E0,0E0,3.0622864E0,5.1574745E0,1.3679251E1,1.9121094E0,0E0,0E0,0E0,0E0,0E0,0E0,0E0,9.5703125E-1,1.4682322E1,0E0,0E0,0E0],"parents":[2147483647,0,0,1,1,2,2,4,4,5,5,6,6,9,9,10,10,11,11,12,12,20,20,21,21],"right_children":[2,4,6,-1,8,10,12,-1,-1,14,16,18,20,-1,-1,-1,-1,-1,-1,-1,22,24,-1,-1,-1],"split_conditions":[6.366888E-1,6.71E-1,1E0,-4E-2,8.056604E1,9.82146E-1,3.8396937E-1,-4E-2,4E-2,5.602119E0,6.53E-1,6.326853E-1,1.65214E-1,-4.694906E-3,-4E-2,-4.5164456E-3,3.7333164E-2,-3.690519E-2,2.8591288E-2,1.0695195E-2,4.7049624E-1,3.94E-1,4E-2,-1.8795311E-2,4E-2],"split_indices":[35,13,8,0,5,12,27,0,0,9,15,26,12,0,0,0,0,0,0,0,27,15,0,0,0],"split_type":[0,0,0,0,0,0,0,0,0,0,0,0,0,0,0,0,0,0,0,0,0,0,0,0,0],"sum_hessian":[1.9943662E4,9.893094E3,1.0050568E4,9.84936E3,4.3733315E1,6.3927143E1,9.986642E3,2.030529E1,2.3428022E1,4.9111607E1,1.4815536E1,1.2994267E1,9.973647E3,5.4616265E0,4.3649982E1,5.2897434E0,9.525792E0,6.0897484E0,6.904519E0,6.971499E0,9.966676E3,1.7113142E1,9.9495625E3,6.608227E0,1.0504915E1],"tree_param":{"num_deleted":"0","num_feature":"36","num_nodes":"25","size_leaf_vector":"0"}},{"base_weights":[-1.8645908E-3,-1E0,1E0,-1E0,-5.8641195E-2,-4E-2,1E0,-1E0,-5.1120826E-4,-1E0,1E0,-0E0,1E0,-4E-2,-1.2413687E-2,-4E-2,-4.2535146E-3,4E-2,5.836278E-3,-7.58487E-1,6.3302284E-1,6.312188E-1,4E-2,-7.952744E-3,-3.7066042E-2,-4.975064E-3,4E-2,-7.0769614E-1,4E-2,-4E-2,1.3048279E-3],"categories":[],"categories_nodes":[],"categories_segments":[],"categories_sizes":[],"default_left":[0,0,0,0,0,0,0,0,0,0,0,0,0,0,0,0,0,0,0,0,0,0,0,0,0,0,0,0,0,0,0],"id":14,"left_children":[1,3,5,7,9,-1,11,13,-1,15,17,19,21,-1,-1,-1,-1,-1,-1,23,25,27,-1,-1,-1,-1,-1,29,-1,-1,-1],"loss_changes":[4.1698953E4,4.276172E1,2.158164E2,5.064453E0,6.769512E1,0E0,2.9933594E1,9.316406E-1,0E0,3.0395737E0,3.0077667E0,1.8127125E1,4.9003906E0,0E0,0E0,0E0,0E0,0E0,0E0,8.690958E-1,9.093562E0,5.9352577E1,0E0,0E0,0E0,0E0,0E0,9.15801E0,0E0,0E0,0E0],"parents":[2147483647,0,0,1,1,2,2,3,3,4,4,6,6,7,7,9,9,10,10,11,11,12,12,19,19,20,20,21,21,27,27],"right_children":[2,4,6,8,10,-1,12,14,-1,16,18,20,22,-1,-1,-1,-1,-1,-1,24,26,28,-1,-1,-1,-1,-1,30,-1,-1,-1],"split_conditions":[6.366888E-1,5E0,4E0,9.53E-1,3.94E-1,-4E-2,3.68E1,7.786896E-1,-5.1120826E-4,3.8795596E-1,5.7365723E0,9.03528E-1,7.070661E-1,-4E-2,-1.2413687E-2,-4E-2,-4.2535146E-3,4E-2,5.836278E-3,5.9053617E0,9.3E-1,4.37E-1,4E-2,-7.952744E-3,-3.7066042E-2,-4.975064E-3,4E-2,4.8327193E-1,4E-2,-4E-2,1.3048279E-3],"split_indices":[35,30,30,13,15,0,3,26,0,7,9,12,35,0,0,0,0,0,0,9,14,15,0,0,0,0,0,7,0,0,0],"split_type":[0,0,0,0,0,0,0,0,0,0,0,0,0,0,0,0,0,0,0,0,0,0,0,0,0,0,0,0,0,0,0],"sum_hessian":[1.9790986E4,9.853425E3,9.937562E3,9.804145E3,4.928085E1,3.3884438E1,9.903677E3,9.798264E3,5.880752E0,2.4988018E1,2.4292831E1,3.0027626E1,9.873649E3,9.792131E3,6.132505E0,1.9754229E1,5.2337894E0,1.8354593E1,5.938238E0,1.3354847E1,1.667278E1,5.6720158E1,9.816929E3,5.0104303E0,8.344417E0,7.953865E0,8.718915E0,2.0739109E1,3.598105E1,1.1180455E1,9.558654E0],"tree_param":{"num_deleted":"0","num_feature":"36","num_nodes":"31","size_leaf_vector":"0"}},{"base_weights":[-2.0382034E-3,-1E0,1E0,-1E0,3.7971252E-1,-4E-2,1E0,-1E0,-3.8748708E-1,-1E0,1E0,2.5213903E-1,4E-2,-4E-2,-1.1880628E-2,-4E-2,2.4401847E-2,-4E-2,-1.3133145E-2,1.2316787E-2,4E-2,-2.6458343E-2,7.263463E-1,2.1521114E-3,4E-2],"categories":[],"categories_nodes":[],"categories_segments":[],"categories_sizes":[],"default_left":[0,0,0,0,0,0,0,0,0,0,0,0,0,0,0,0,0,0,0,0,0,0,0,0,0],"id":15,"left_children":[1,3,5,7,9,-1,11,13,15,17,19,21,-1,-1,-1,-1,-1,-1,-1,-1,-1,-1,23,-1,-1],"loss_changes":[4.0370734E4,1.7883789E2,1.0578906E2,2.859375E0,1.3572185E2,0E0,1.2603516E1,5.5859375E-1,1.4843465E1,6.0923386E-1,8.6415863E-1,1.4577829E1,0E0,0E0,0E0,0E0,0E0,0E0,0E0,0E0,0E0,0E0,4.3438787E0,0E0,0E0],"parents":[2147483647,0,0,1,1,2,2,3,3,4,4,6,6,7,7,8,8,9,9,10,10,11,11,22,22],"right_children":[2,4,6,8,10,-1,12,14,16,18,20,22,-1,-1,-1,-1,-1,-1,-1,-1,-1,-1,24,-1,-1],"split_conditions":[7.070661E-1,6.17E-1,4E0,5.91E-1,6.0194176E1,-4E-2,3.68E1,9.97295E-1,8.056604E1,6.7429E-1,9.811321E1,9.03528E-1,4E-2,-4E-2,-1.1880628E-2,-4E-2,2.4401847E-2,-4E-2,-1.3133145E-2,1.2316787E-2,4E-2,-2.6458343E-2,9.3E-1,2.1521114E-3,4E-2],"split_indices":[35,13,30,14,5,0,3,12,5,6,5,12,0,0,0,0,0,0,0,0,0,0,14,0,0],"split_type":[0,0,0,0,0,0,0,0,0,0,0,0,0,0,0,0,0,0,0,0,0,0,0,0,0],"sum_hessian":[1.9586377E4,9.830811E3,9.755566E3,9.738723E3,9.208787E1,1.793759E1,9.737629E3,9.725119E3,1.3603565E1,3.346863E1,5.861924E1,2.5704117E1,9.711925E3,9.720064E3,5.0547805E0,7.8315973E0,5.771968E0,2.7575117E1,5.8935146E0,5.9345026E0,5.268474E1,8.162045E0,1.7542072E1,7.3717628E0,1.017031E1],"tree_param":{"num_deleted":"0","num_feature":"36","num_nodes":"25","size_leaf_vector":"0"}},{"base_weights":[1.0653404E-3,-1E0,1E0,-1E0,-6.0948897E-2,-8.55651E-1,1E0,-1E0,-6.70199E-4,-1E0,9.943911E-1,-1E0,4.0246594E-1,2.177227E-1,1E0,-4E-2,-1.3093922E-2,-4E-2,-9.975561E-3,4E-2,6.986163E-3,-9.921553E-3,-4E-2,-2.1606665E-3,3.580661E-2,-5.685338E-1,4E-2,3.8129939E-3,4E-2,-3.9835386E-2,1.4706531E-2],"categories":[],"categories_nodes":[],"categories_segments":[],"categories_sizes":[],"default_left":[0,0,0,0,0,0,0,0,0,0,0,0,0,0,0,0,0,0,0,0,0,0,0,0,0,0,0,0,0,0,0],"id":16,"left_children":[1,3,5,7,9,11,13,15,-1,17,19,21,23,25,27,-1,-1,-1,-1,-1,-1,-1,-1,-1,-1,29,-1,-1,-1,-1,-1],"loss_changes":[3.9046086E4,4.114258E1,2.126914E2,5.7539062E0,6.2278374E1,2.8776054E1,1.7222656E1,3.125E-1,0E0,1.0916748E0,3.2345924E0,1.2218933E0,4.401252E0,2.6531925E1,3.1679688E0,0E0,0E0,0E0,0E0,0E0,0E0,0E0,0E0,0E0,0E0,9.701759E0,0E0,0E0,0E0,0E0,0E0],"parents":[2147483647,0,0,1,1,2,2,3,3,4,4,5,5,6,6,7,7,9,9,10,10,11,11,12,12,13,13,14,14,25,25],"right_children":[2,4,6,8,10,12,14,16,-1,18,20,22,24,26,28,-1,-1,-1,-1,-1,-1,-1,-1,-1,-1,30,-1,-1,-1,-1,-1],"split_conditions":[6.366888E-1,5E0,1E0,9.39E-1,3.94E-1,9.80692E-1,4.7049624E-1,7.786896E-1,-6.70199E-4,3.8795596E-1,5.7365723E0,5.602119E0,9.9571E-1,6.17E-1,1.25381E-1,-4E-2,-1.3093922E-2,-4E-2,-9.975561E-3,4E-2,6.986163E-3,-9.921553E-3,-4E-2,-2.1606665E-3,3.580661E-2,6.326853E-1,4E-2,3.8129939E-3,4E-2,-3.9835386E-2,1.4706531E-2],"split_indices":[35,30,8,13,15,12,27,26,0,7,9,9,6,13,12,0,0,0,0,0,0,0,0,0,0,26,0,0,0,0,0],"split_type":[0,0,0,0,0,0,0,0,0,0,0,0,0,0,0,0,0,0,0,0,0,0,0,0,0,0,0,0,0,0,0],"sum_hessian":[1.9342742E4,9.605966E3,9.736775E3,9.558267E3,4.769904E1,5.9314373E1,9.677461E3,9.551604E3,6.663474E0,2.3490244E1,2.4208794E1,4.597078E1,1.3343594E1,3.0812508E1,9.646648E3,9.546393E3,5.211457E0,1.8428648E1,5.061596E0,1.7333094E1,6.875699E0,5.2644095E0,4.070637E1,7.99681E0,5.3467836E0,1.6840385E1,1.3972123E1,5.1980214E0,9.64145E3,1.1651116E1,5.1892686E0],"tree_param":{"num_deleted":"0","num_feature":"36","num_nodes":"31","size_leaf_vector":"0"}},{"base_weights":[-2.02218E-3,-1E0,1E0,-1E0,-4.1664112E-2,-7.4125814E-1,1E0,-1E0,-2.4613566E-3,-1E0,9.888517E-1,-1E0,6.1912596E-1,2.245756E-1,1E0,-4E-2,-8.008763E-3,-4E-2,1.5634461E-3,4E-2,3.736293E-3,-4E-2,-6.0098898E-3,-0E0,3.7545133E-2,-8.4806955E-1,8.7749964E-1,4.0383977E-3,4E-2,-1.0141791E-2,-4E-2,1.6338305E-3,4E-2],"categories":[],"categories_nodes":[],"categories_segments":[],"categories_sizes":[],"default_left":[0,0,0,0,0,0,0,0,0,0,0,0,0,0,0,0,0,0,0,0,0,0,0,0,0,0,0,0,0,0,0,0,0],"id":17,"left_children":[1,3,5,7,9,11,13,15,-1,17,19,21,23,25,27,-1,-1,-1,-1,-1,-1,-1,-1,-1,-1,29,31,-1,-1,-1,-1,-1,-1],"loss_changes":[3.7668617E4,4.3625E1,2.0821289E2,4.1054688E0,5.7256428E1,4.3117462E1,1.6544922E1,2.0820312E0,0E0,6.3860455E0,3.2560787E0,2.3117905E0,4.081994E0,2.6451233E1,3.0878906E0,0E0,0E0,0E0,0E0,0E0,0E0,0E0,0E0,0E0,0E0,9.2336845E-1,3.6607704E0,0E0,0E0,0E0,0E0,0E0,0E0],"parents":[2147483647,0,0,1,1,2,2,3,3,4,4,5,5,6,6,7,7,9,9,10,10,11,11,12,12,13,13,14,14,25,25,26,26],"right_children":[2,4,6,8,10,12,14,16,-1,18,20,22,24,26,28,-1,-1,-1,-1,-1,-1,-1,-1,-1,-1,30,32,-1,-1,-1,-1,-1,-1],"split_conditions":[6.366888E-1,5E0,3.68E1,7.786896E-1,3.94E-1,9.82146E-1,4.7049624E-1,9.53E-1,-2.4613566E-3,3.8396937E-1,5.7930136E0,9.45E-1,7.37E-1,5.627759E-1,8.272E-2,-4E-2,-8.008763E-3,-4E-2,1.5634461E-3,4E-2,3.736293E-3,-4E-2,-6.0098898E-3,-0E0,3.7545133E-2,2.6083598E-1,3.48E-1,4.0383977E-3,4E-2,-1.0141791E-2,-4E-2,1.6338305E-3,4E-2],"split_indices":[35,30,3,26,15,12,27,13,0,27,9,14,15,26,6,0,0,0,0,0,0,0,0,0,0,7,15,0,0,0,0,0,0],"split_type":[0,0,0,0,0,0,0,0,0,0,0,0,0,0,0,0,0,0,0,0,0,0,0,0,0,0,0,0,0,0,0,0,0],"sum_hessian":[1.9061922E4,9.483597E3,9.578326E3,9.4352E3,4.8396214E1,6.6317406E1,9.512009E3,9.429493E3,5.707559E0,2.4676466E1,2.371975E1,5.038548E1,1.5931929E1,3.0282034E1,9.481727E3,9.423801E3,5.692107E0,1.95607E1,5.115766E0,1.8450397E1,5.2693515E0,4.532314E1,5.062338E0,6.279342E0,9.652587E0,1.09450445E1,1.9336988E1,5.19707E0,9.476529E3,5.2591777E0,5.6858664E0,5.1501555E0,1.4186833E1],"tree_param":{"num_deleted":"0","num_feature":"36","num_nodes":"33","size_leaf_vector":"0"}},{"base_weights":[-3.4106532E-3,-1E0,1E0,-1E0,7.311524E-1,-8.580197E-1,1E0,-1E0,-1.0827456E-1,-4E-2,4E-2,-1E0,5.8390945E-1,-1.969289E-1,1E0,-4E-2,-1.8886318E-2,-4E-2,1E0,-4E-2,5.5615148E-3,4.5695077E-3,3.3285845E-2,-3.553867E-2,2.5596516E-2,1.1998031E-2,4E-2,1.3224906E-2,4E-2],"categories":[],"categories_nodes":[],"categories_segments":[],"categories_sizes":[],"default_left":[0,0,0,0,0,0,0,0,0,0,0,0,0,0,0,0,0,0,0,0,0,0,0,0,0,0,0,0,0],"id":18,"left_children":[1,3,5,7,9,11,13,15,17,-1,-1,19,21,23,25,-1,-1,-1,27,-1,-1,-1,-1,-1,-1,-1,-1,-1,-1],"loss_changes":[3.6380684E4,9.383203E1,2.487207E2,4.011133E1,3.3125374E1,3.1456081E1,2.9503906E1,2.4023438E-1,7.038977E1,0E0,0E0,8.9820175E0,1.2695384E0,1.541912E1,8.2421875E-1,0E0,0E0,0E0,7.6724434E-1,0E0,0E0,0E0,0E0,0E0,0E0,0E0,0E0,0E0,0E0],"parents":[2147483647,0,0,1,1,2,2,3,3,4,4,5,5,6,6,7,7,8,8,11,11,12,12,13,13,14,14,18,18],"right_children":[2,4,6,8,10,12,14,16,18,-1,-1,20,22,24,26,-1,-1,-1,28,-1,-1,-1,-1,-1,-1,-1,-1,-1,-1],"split_conditions":[5.627759E-1,9.5525E-1,3.68E1,4.37E-1,8.24E1,9.67E-1,3.8396937E-1,5.9893024E-1,0E0,-4E-2,4E-2,9.92621E-1,9.88799E-1,2.91E-1,6.598E-2,-4E-2,-1.8886318E-2,-4E-2,6.3674E-1,-4E-2,5.5615148E-3,4.5695077E-3,3.3285845E-2,-3.553867E-2,2.5596516E-2,1.1998031E-2,4E-2,1.3224906E-2,4E-2],"split_indices":[26,1,3,15,3,14,27,7,4,0,0,12,12,15,6,0,0,0,6,0,0,0,0,0,0,0,0,0,0],"split_type":[0,0,0,0,0,0,0,0,0,0,0,0,0,0,0,0,0,0,0,0,0,0,0,0,0,0,0,0,0],"sum_hessian":[1.885615E4,9.414608E3,9.441541E3,9.385645E3,2.8964684E1,6.959256E1,9.371949E3,9.333759E3,5.1885204E1,6.260322E0,2.2704361E1,5.8687775E1,1.0904785E1,1.918747E1,9.352762E3,9.323981E3,9.777337E0,2.752785E1,2.4357355E1,5.297918E1,5.708594E0,5.7032213E0,5.2015634E0,1.0600771E1,8.586699E0,5.659291E0,9.347103E3,6.3041425E0,1.8053213E1],"tree_param":{"num_deleted":"0","num_feature":"36","num_nodes":"29","size_leaf_vector":"0"}},{"base_weights":[1.3866198E-4,-1E0,1E0,-1E0,2.0296742E-1,-7.674518E-1,1E0,-4E-2,-3.8615793E-1,-4E-2,4E-2,-4E-2,5.058731E-1,1.5011263E-1,1E0,-4E-2,3.4932602E-2,-0E0,3.275449E-2,-6.302217E-1,4E-2,3.9156163E-3,4E-2,-4E-2,3.359967E-3],"categories":[],"categories_nodes":[],"categories_segments":[],"categories_sizes":[],"default_left":[0,0,0,0,0,0,0,0,0,0,0,0,0,0,0,0,0,0,0,0,0,0,0,0,0],"id":19,"left_children":[1,3,5,7,9,11,13,-1,15,-1,-1,-1,17,19,21,-1,-1,-1,-1,23,-1,-1,-1,-1,-1],"loss_changes":[3.5211625E4,5.223633E1,1.935E2,5.4589844E0,4.9371536E1,3.3341812E1,1.8472656E1,0E0,2.7233723E1,0E0,0E0,0E0,3.0620775E0,2.4830915E1,3.1152344E0,0E0,0E0,0E0,0E0,5.6454268E0,0E0,0E0,0E0,0E0,0E0],"parents":[2147483647,0,0,1,1,2,2,3,3,4,4,5,5,6,6,8,8,12,12,13,13,14,14,19,19],"right_children":[2,4,6,8,10,12,14,-1,16,-1,-1,-1,18,20,22,-1,-1,-1,-1,24,-1,-1,-1,-1,-1],"split_conditions":[6.366888E-1,7.49E-1,1E0,4.37E-1,8.056604E1,9.82146E-1,4.7049624E-1,-4E-2,6.4912285E1,-4E-2,4E-2,-4E-2,9.24E-1,6.17E-1,8.272E-2,-4E-2,3.4932602E-2,-0E0,3.275449E-2,5.627759E-1,4E-2,3.9156163E-3,4E-2,-4E-2,3.359967E-3],"split_indices":[35,13,8,15,5,12,27,0,5,0,0,0,14,13,6,0,0,0,0,26,0,0,0,0,0],"split_type":[0,0,0,0,0,0,0,0,0,0,0,0,0,0,0,0,0,0,0,0,0,0,0,0,0],"sum_hessian":[1.8540822E4,9.216419E3,9.324403E3,9.181747E3,3.467156E1,5.956305E1,9.264841E3,9.161329E3,2.0418083E1,1.450651E1,2.0165049E1,4.5504856E1,1.4058194E1,2.7434519E1,9.237406E3,1.2713579E1,7.7045035E0,6.2614403E0,7.796754E0,1.5183905E1,1.2250614E1,5.17819E0,9.232228E3,9.452773E0,5.7311316E0],"tree_param":{"num_deleted":"0","num_feature":"36","num_nodes":"25","size_leaf_vector":"0"}},{"base_weights":[-1.9340595E-3,-1E0,1E0,-1E0,3.3198074E-1,-4E-2,1E0,-1E0,-7.9564825E-3,-4E-2,4E-2,2.4830733E-1,4E-2,-4E-2,-1.6282158E-2,-1.7430065E-2,3.175315E-2],"categories":[],"categories_nodes":[],"categories_segments":[],"categories_sizes":[],"default_left":[0,0,0,0,0,0,0,0,0,0,0,0,0,0,0,0,0],"id":20,"left_children":[1,3,5,7,9,-1,11,13,-1,-1,-1,15,-1,-1,-1,-1,-1],"loss_changes":[3.4048625E4,1.6733203E2,9.483984E1,1.9628906E0,1.3256126E2,0E0,1.1097656E1,8.90625E-1,0E0,0E0,0E0,1.1340308E1,0E0,0E0,0E0,0E0,0E0],"parents":[2147483647,0,0,1,1,2,2,3,3,4,4,6,6,7,7,11,11],"right_children":[2,4,6,8,10,-1,12,14,-1,-1,-1,16,-1,-1,-1,-1,-1],"split_conditions":[7.070661E-1,4.37E-1,4E0,9.96749E-1,6.0194176E1,-4E-2,3.68E1,3.94E-1,-7.9564825E-3,-4E-2,4E-2,9.82146E-1,4E-2,-4E-2,-1.6282158E-2,-1.7430065E-2,3.175315E-2],"split_indices":[35,15,30,12,5,0,3,15,0,0,0,12,0,0,0,0,0],"split_type":[0,0,0,0,0,0,0,0,0,0,0,0,0,0,0,0,0],"sum_hessian":[1.8276805E4,9.169923E3,9.106881E3,9.077366E3,9.255722E1,1.8146702E1,9.088734E3,9.071884E3,5.482396E0,3.4104275E1,5.845295E1,2.2742731E1,9.065991E3,9.062808E3,9.076164E0,1.0113983E1,1.2628748E1],"tree_param":{"num_deleted":"0","num_feature":"36","num_nodes":"17","size_leaf_vector":"0"}},{"base_weights":[-1.7036946E-3,-1E0,1E0,-1E0,2.6680577E-1,-4E-2,1E0,-4E-2,-4.4371122E-3,-1E0,1E0,2.517075E-1,4E-2,-4E-2,-4.3345508E-1,9.4350185E-3,4E-2,-2.2497537E-2,6.478355E-1,-2.5237404E-2,-1.5863319E-3,2.0514454E-3,3.788129E-2],"categories":[],"categories_nodes":[],"categories_segments":[],"categories_sizes":[],"default_left":[0,0,0,0,0,0,0,0,0,0,0,0,0,0,0,0,0,0,0,0,0,0,0],"id":21,"left_children":[1,3,5,7,9,-1,11,-1,-1,13,15,17,-1,-1,19,-1,-1,-1,21,-1,-1,-1,-1],"loss_changes":[3.2920477E4,1.6395898E2,9.1197266E1,2.8183594E0,1.3209784E2,0E0,1.2441406E1,0E0,0E0,9.816017E-1,2.1752853E0,1.0846197E1,0E0,0E0,9.1307974E-1,0E0,0E0,0E0,3.4655085E0,0E0,0E0,0E0,0E0],"parents":[2147483647,0,0,1,1,2,2,3,3,4,4,6,6,9,9,10,10,11,11,14,14,18,18],"right_children":[2,4,6,8,10,-1,12,-1,-1,14,16,18,-1,-1,20,-1,-1,-1,22,-1,-1,-1,-1],"split_conditions":[7.070661E-1,3.94E-1,4E0,9.97042E-1,8.056604E1,-4E-2,3.68E1,-4E-2,-4.4371122E-3,6.366888E-1,4.6605048E-1,9.03528E-1,4E-2,-4E-2,6.31863E-1,9.4350185E-3,4E-2,-2.2497537E-2,9.3E-1,-2.5237404E-2,-1.5863319E-3,2.0514454E-3,3.788129E-2],"split_indices":[35,15,30,12,5,0,3,0,0,35,26,12,0,0,12,0,0,0,14,0,0,0,0],"split_type":[0,0,0,0,0,0,0,0,0,0,0,0,0,0,0,0,0,0,0,0,0,0,0],"sum_hessian":[1.8011885E4,9.036077E3,8.975807E3,8.935515E3,1.00563194E2,1.7721102E1,8.958086E3,8.93048E3,5.0344014E0,4.079239E1,5.97708E1,2.5378805E1,8.932707E3,3.0328575E1,1.0463815E1,6.648719E0,5.3122086E1,7.64647E0,1.7732334E1,5.258453E0,5.205362E0,7.4316874E0,1.0300647E1],"tree_param":{"num_deleted":"0","num_feature":"36","num_nodes":"23","size_leaf_vector":"0"}},{"base_weights":[2.3698076E-3,-1E0,1E0,-1E0,3.8523147E-1,-5.076539E-1,4E-2,-1E0,-3.5328266E-1,-4E-2,4E-2,-4E-2,7.193568E-1,-4E-2,-1.07660815E-2,-4E-2,7.4677E-1,1.0395967E-2,3.6070533E-2,2.3657303E-4,4E-2],"categories":[],"categories_nodes":[],"categories_segments":[],"categories_sizes":[],"default_left":[0,0,0,0,0,0,0,0,0,0,0,0,0,0,0,0,0,0,0,0,0],"id":22,"left_children":[1,3,5,7,9,11,-1,13,15,-1,-1,-1,17,-1,-1,-1,19,-1,-1,-1,-1],"loss_changes":[3.1813477E4,1.4671191E2,8.229297E1,1.1441406E1,9.740108E1,3.3988274E1,0E0,8.701172E-1,3.474411E1,0E0,0E0,0E0,4.799118E-1,0E0,0E0,0E0,4.459156E0,0E0,0E0,0E0,0E0],"parents":[2147483647,0,0,1,1,2,2,3,3,4,4,5,5,7,7,8,8,12,12,16,16],"right_children":[2,4,6,8,10,12,-1,14,16,-1,-1,-1,18,-1,-1,-1,20,-1,-1,-1,-1],"split_conditions":[7.070661E-1,6.71E-1,1E0,4.45E-1,6.0194176E1,9.82146E-1,4E-2,9.96749E-1,9.116945E1,-4E-2,4E-2,-4E-2,9.9571E-1,-4E-2,-1.07660815E-2,-4E-2,4.99E-1,1.0395967E-2,3.6070533E-2,2.3657303E-4,4E-2],"split_indices":[35,13,8,14,5,12,0,12,5,0,0,0,6,0,0,0,13,0,0,0,0],"split_type":[0,0,0,0,0,0,0,0,0,0,0,0,0,0,0,0,0,0,0,0,0],"sum_hessian":[1.7729156E4,8.866892E3,8.862266E3,8.792304E3,7.4587975E1,3.4125675E1,8.82814E3,8.759849E3,3.2454388E1,2.6367237E1,4.822074E1,2.2018147E1,1.2107529E1,8.754781E3,5.0673547E0,1.8694921E1,1.3759468E1,5.975425E0,6.1321044E0,6.085529E0,7.6739388E0],"tree_param":{"num_deleted":"0","num_feature":"36","num_nodes":"21","size_leaf_vector":"0"}},{"base_weights":[-6.8778964E-4,-1E0,1E0,-1E0,7.69752E-3,-4E-2,1E0,-1E0,-6.043421E-4,-9.032587E-1,8.653854E-1,3.1323202E-2,1E0,-4E-2,-2.5872227E-3,-4E-2,4.5979046E-3,4E-2,3.2798084E-3,-4.7822294E-1,7.4668527E-1,5.636723E-1,4E-2,-6.940825E-1,8.940301E-4,8.330215E-3,3.621017E-2,-1.0979594E-1,4E-2,-0E0,-3.960689E-2,-4E-2,3.2921825E-2],"categories":[],"categories_nodes":[],"categories_segments":[],"categories_sizes":[],"default_left":[0,0,0,0,0,0,0,0,0,0,0,0,0,0,0,0,0,0,0,0,0,0,0,0,0,0,0,0,0,0,0,0,0],"id":23,"left_children":[1,3,5,7,9,-1,11,13,-1,15,17,19,21,-1,-1,-1,-1,-1,-1,23,25,27,-1,29,-1,-1,-1,31,-1,-1,-1,-1,-1],"loss_changes":[3.0700254E4,4.777246E1,1.6904785E2,5.408203E0,4.1989933E1,0E0,3.241504E1,3.8671875E0,0E0,7.5471916E0,4.6067944E0,1.5850712E1,6.8271484E0,0E0,0E0,0E0,0E0,0E0,0E0,2.9828515E0,8.037996E-1,2.2336142E1,0E0,3.4883099E0,0E0,0E0,0E0,2.8529314E1,0E0,0E0,0E0,0E0,0E0],"parents":[2147483647,0,0,1,1,2,2,3,3,4,4,6,6,7,7,9,9,10,10,11,11,12,12,19,19,20,20,21,21,23,23,27,27],"right_children":[2,4,6,8,10,-1,12,14,-1,16,18,20,22,-1,-1,-1,-1,-1,-1,24,26,28,-1,30,-1,-1,-1,32,-1,-1,-1,-1,-1],"split_conditions":[6.366888E-1,5E0,4E0,9.39E-1,3.94E-1,-4E-2,3.93E1,7.786896E-1,-6.043421E-4,4.4770753E-1,5.7365723E0,9.82146E-1,5.3764623E-1,-4E-2,-2.5872227E-3,-4E-2,4.5979046E-3,4E-2,3.2798084E-3,8.3893394E-1,9.24E-1,4.37E-1,4E-2,5.880533E0,8.940301E-4,8.330215E-3,3.621017E-2,5.0759006E-1,4E-2,-0E0,-3.960689E-2,-4E-2,3.2921825E-2],"split_indices":[35,30,30,13,15,0,3,26,0,1,9,12,26,0,0,0,0,0,0,35,14,15,0,9,0,0,0,7,0,0,0,0,0],"split_type":[0,0,0,0,0,0,0,0,0,0,0,0,0,0,0,0,0,0,0,0,0,0,0,0,0,0,0,0,0,0,0,0,0],"sum_hessian":[1.7427568E4,8.666291E3,8.761278E3,8.619888E3,4.6403473E1,3.1513432E1,8.729765E3,8.613609E3,6.278344E0,2.2256023E1,2.414745E1,3.5360474E1,8.694404E3,8.608119E3,5.489732E0,1.7166185E1,5.0898385E0,1.6979616E1,7.1678343E0,2.0986845E1,1.437363E1,4.999288E1,8.644411E3,1.4272E1,6.7148447E0,5.2793274E0,9.094301E0,2.5009123E1,2.4983759E1,5.408514E0,8.863486E0,1.2333589E1,1.2675533E1],"tree_param":{"num_deleted":"0","num_feature":"36","num_nodes":"33","size_leaf_vector":"0"}},{"base_weights":[-2.350443E-3,-1E0,1E0,-1E0,3.1262594E-1,-4E-2,1E0,-1E0,-5.018913E-3,-1E0,4E-2,1.6414979E-1,4E-2,-4E-2,-1.7980073E-2,-4E-2,-1.6103735E-2,-2.2220563E-2,5.5924267E-1,-0E0,3.445963E-2],"categories":[],"categories_nodes":[],"categories_segments":[],"categories_sizes":[],"default_left":[0,0,0,0,0,0,0,0,0,0,0,0,0,0,0,0,0,0,0,0,0],"id":24,"left_children":[1,3,5,7,9,-1,11,13,-1,15,-1,17,-1,-1,-1,-1,-1,-1,19,-1,-1],"loss_changes":[2.9670457E4,1.5477441E2,8.4546875E1,3.3427734E0,1.108387E2,0E0,1.5165039E1,1.6601562E-2,0E0,1.0653E0,0E0,9.100202E0,0E0,0E0,0E0,0E0,0E0,0E0,3.1490946E0,0E0,0E0],"parents":[2147483647,0,0,1,1,2,2,3,3,4,4,6,6,7,7,9,9,11,11,18,18],"right_children":[2,4,6,8,10,-1,12,14,-1,16,-1,18,-1,-1,-1,-1,-1,-1,20,-1,-1],"split_conditions":[7.070661E-1,4.37E-1,4E0,9.96749E-1,8.056604E1,-4E-2,3.68E1,3.94E-1,-5.018913E-3,6.366888E-1,4E-2,9.03528E-1,4E-2,-4E-2,-1.7980073E-2,-4E-2,-1.6103735E-2,-2.2220563E-2,9.3E-1,-0E0,3.445963E-2],"split_indices":[35,15,30,12,5,0,3,15,0,35,0,12,0,0,0,0,0,0,14,0,0],"split_type":[0,0,0,0,0,0,0,0,0,0,0,0,0,0,0,0,0,0,0,0,0],"sum_hessian":[1.7145787E4,8.604895E3,8.540893E3,8.516781E3,8.811338E1,1.7164076E1,8.523729E3,8.510802E3,5.9795074E0,3.532984E1,5.2783535E1,2.371758E1,8.500011E3,8.502759E3,8.043056E0,2.5934752E1,9.39509E0,7.7051635E0,1.6012417E1,7.0017343E0,9.010683E0],"tree_param":{"num_deleted":"0","num_feature":"36","num_nodes":"21","size_leaf_vector":"0"}},{"base_weights":[-4.9048057E-3,-1E0,1E0,-1E0,3.1305608E-1,-4E-2,1E0,-4E-2,-6.7302925E-3,-1E0,4E-2,1.8393576E-1,4E-2,-4E-2,-4.7159037E-3,-1.590607E-2,2.734446E-2],"categories":[],"categories_nodes":[],"categories_segments":[],"categories_sizes":[],"default_left":[0,0,0,0,0,0,0,0,0,0,0,0,0,0,0,0,0],"id":25,"left_children":[1,3,5,7,9,-1,11,-1,-1,13,-1,15,-1,-1,-1,-1,-1],"loss_changes":[2.8606365E4,1.5994238E2,7.802637E1,2.3154297E0,1.1229074E2,0E0,1.2733398E1,0E0,0E0,3.9618149E0,0E0,8.519094E0,0E0,0E0,0E0,0E0,0E0],"parents":[2147483647,0,0,1,1,2,2,3,3,4,4,6,6,9,9,11,11],"right_children":[2,4,6,8,10,-1,12,-1,-1,14,-1,16,-1,-1,-1,-1,-1],"split_conditions":[7.070661E-1,4.37E-1,4E0,9.96749E-1,8.056604E1,-4E-2,3.68E1,-4E-2,-6.7302925E-3,6.7429E-1,4E-2,9.82146E-1,4E-2,-4E-2,-4.7159037E-3,-1.590607E-2,2.734446E-2],"split_indices":[35,15,30,12,5,0,3,0,0,6,0,12,0,0,0,0,0],"split_type":[0,0,0,0,0,0,0,0,0,0,0,0,0,0,0,0,0],"sum_hessian":[1.6819232E4,8.457475E3,8.361758E3,8.366424E3,9.10511E1,1.6253302E1,8.345505E3,8.361021E3,5.402005E0,3.5871983E1,5.5179123E1,2.136086E1,8.324144E3,2.9244646E1,6.627337E0,9.876943E0,1.1483918E1],"tree_param":{"num_deleted":"0","num_feature":"36","num_nodes":"17","size_leaf_vector":"0"}},{"base_weights":[-1.8851338E-3,-1E0,1E0,-1E0,2.1828859E-1,-4E-2,1E0,-4E-2,-5.248623E-3,-9.981508E-1,1E0,1.8056874E-1,1E0,-1E0,-4.8394175E-3,1.9668983E-3,4E-2,-2.0723514E-2,7.526604E-1,7.4248993E-1,4E-2,-1.2367343E-2,-4E-2,1.1848043E-2,3.5990313E-2,-6.2690836E-1,4E-2,-4E-2,6.2317663E-4],"categories":[],"categories_nodes":[],"categories_segments":[],"categories_sizes":[],"default_left":[0,0,0,0,0,0,0,0,0,0,0,0,0,0,0,0,0,0,0,0,0,0,0,0,0,0,0,0,0],"id":26,"left_children":[1,3,5,7,9,-1,11,-1,-1,13,15,17,19,21,-1,-1,-1,-1,23,25,-1,-1,-1,-1,-1,27,-1,-1,-1],"loss_changes":[2.7543928E4,1.4144629E2,7.576953E1,2.6611328E0,1.0675265E2,0E0,1.1303711E1,0E0,0E0,3.015255E0,4.112541E0,1.0701393E1,1.1259766E0,1.4479332E0,0E0,0E0,0E0,0E0,1.9058228E-2,3.960659E1,0E0,0E0,0E0,0E0,0E0,6.4089065E0,0E0,0E0,0E0],"parents":[2147483647,0,0,1,1,2,2,3,3,4,4,6,6,9,9,10,10,11,11,12,12,13,13,18,18,19,19,25,25],"right_children":[2,4,6,8,10,-1,12,-1,-1,14,16,18,20,22,-1,-1,-1,-1,24,26,-1,-1,-1,-1,-1,28,-1,-1,-1],"split_conditions":[7.070661E-1,3.94E-1,4E0,9.97042E-1,8.056604E1,-4E-2,1E0,-4E-2,-5.248623E-3,7.3294E-1,4.99E-1,9.82146E-1,7.632631E-1,5.4595857E0,-4.8394175E-3,1.9668983E-3,4E-2,-2.0723514E-2,6.4800444E0,3.94E-1,4E-2,-1.2367343E-2,-4E-2,1.1848043E-2,3.5990313E-2,9.901961E1,4E-2,-4E-2,6.2317663E-4],"split_indices":[35,15,30,12,5,0,8,0,0,6,13,12,35,9,0,0,0,0,9,15,0,0,0,0,0,5,0,0,0],"split_type":[0,0,0,0,0,0,0,0,0,0,0,0,0,0,0,0,0,0,0,0,0,0,0,0,0,0,0,0,0],"sum_hessian":[1.6477094E4,8.266074E3,8.21102E3,8.1722466E3,9.382777E1,1.6011898E1,8.195008E3,8.167055E3,5.191157E0,3.8890812E1,5.493696E1,1.9034472E1,8.1759727E3,3.3424416E1,5.4663963E0,5.498255E0,4.94387E1,8.460742E0,1.0573729E1,6.1563065E1,8.1144097E3,7.1889E0,2.6235514E1,5.2774887E0,5.29624E0,1.4287548E1,4.727552E1,6.6398187E0,7.647729E0],"tree_param":{"num_deleted":"0","num_feature":"36","num_nodes":"29","size_leaf_vector":"0"}},{"base_weights":[-1.0541965E-3,-1E0,1E0,-1E0,4.3096006E-2,-6.251281E-1,1E0,-1E0,-6.792873E-5,-8.205448E-1,8.332224E-1,-1E0,4.583799E-1,9.6396156E-2,1E0,-4E-2,-3.5162733E-3,-4E-2,4.858306E-3,4E-2,4.035968E-3,-5.052083E-3,-4E-2,-2.0777674E-3,2.853833E-2,-6.3797194E-1,8.31764E-1,6.800344E-1,4E-2,-4E-2,7.762596E-3,1.2730858E-2,3.849042E-2,-3.9657034E-2,9.9584925E-1,-1.07410215E-2,4E-2],"categories":[],"categories_nodes":[],"categories_segments":[],"categories_sizes":[],"default_left":[0,0,0,0,0,0,0,0,0,0,0,0,0,0,0,0,0,0,0,0,0,0,0,0,0,0,0,0,0,0,0,0,0,0,0,0,0],"id":27,"left_children":[1,3,5,7,9,11,13,15,-1,17,19,21,23,25,27,-1,-1,-1,-1,-1,-1,-1,-1,-1,-1,29,31,33,-1,-1,-1,-1,-1,-1,35,-1,-1],"loss_changes":[2.660637E4,4.8401367E1,1.4861035E2,5.3945312E0,3.4865414E1,2.6780813E1,2.0876953E1,3.663086E0,0E0,7.310364E0,3.7083168E0,2.7135086E0,2.7397943E0,1.8624216E1,4.321289E0,0E0,0E0,0E0,0E0,0E0,0E0,0E0,0E0,0E0,0E0,7.619118E0,6.85606E-2,4.248693E1,0E0,0E0,0E0,0E0,0E0,0E0,1.6073063E1,0E0,0E0],"parents":[2147483647,0,0,1,1,2,2,3,3,4,4,5,5,6,6,7,7,9,9,10,10,11,11,12,12,13,13,14,14,25,25,26,26,27,27,34,34],"right_children":[2,4,6,8,10,12,14,16,-1,18,20,22,24,26,28,-1,-1,-1,-1,-1,-1,-1,-1,-1,-1,30,32,34,-1,-1,-1,-1,-1,-1,36,-1,-1],"split_conditions":[6.366888E-1,5E0,1E0,9.39E-1,3.94E-1,9.80692E-1,4.7049624E-1,7.786896E-1,-6.792873E-5,3.8795596E-1,5.7365723E0,5.6664267E0,6.53E-1,6.326853E-1,2.38E-1,-4E-2,-3.5162733E-3,-4E-2,4.858306E-3,4E-2,4.035968E-3,-5.052083E-3,-4E-2,-2.0777674E-3,2.853833E-2,4.45E-1,9.79068E-1,9.55E1,4E-2,-4E-2,7.762596E-3,1.2730858E-2,3.849042E-2,-3.9657034E-2,7.632631E-1,-1.07410215E-2,4E-2],"split_indices":[35,30,8,13,15,12,27,26,0,7,9,9,15,26,15,0,0,0,0,0,0,0,0,0,0,14,12,5,0,0,0,0,0,0,35,0,0],"split_type":[0,0,0,0,0,0,0,0,0,0,0,0,0,0,0,0,0,0,0,0,0,0,0,0,0,0,0,0,0,0,0,0,0,0,0,0,0],"sum_hessian":[1.6190799E4,8.0503257E3,8.140473E3,8.0066597E3,4.3665894E1,5.4036945E1,8.0864365E3,8.0006357E3,6.0238705E0,2.062583E1,2.3040064E1,3.9783344E1,1.4253601E1,2.6905987E1,8.0595303E3,7.9949697E3,5.665831E0,1.5443485E1,5.1823435E0,1.6302084E1,6.7379794E0,5.171536E0,3.461181E1,5.1543965E0,9.099205E0,1.3456829E1,1.3449158E1,7.038771E1,7.9891426E3,8.151007E0,5.3058224E0,5.281723E0,8.167435E0,1.0015046E1,6.0372665E1,8.378978E0,5.199369E1],"tree_param":{"num_deleted":"0","num_feature":"36","num_nodes":"37","size_leaf_vector":"0"}},{"base_weights":[-3.184151E-3,-1E0,1E0,-1E0,-0E0,-6.3224596E-1,1E0,-1E0,-0E0,-7.602931E-1,9.017851E-1,-1E0,5.852852E-1,5.491182E-1,4E-2,-4E-2,-9.391736E-3,-4E-2,4.7982233E-3,4E-2,8.645926E-3,-0E0,-4E-2,7.865382E-3,3.2402273E-2,-7.269409E-1,1E0,-4E-2,9.98669E-2,-1.7431943E-2,4E-2,3.197758E-2,-3.2667503E-2],"categories":[],"categories_nodes":[],"categories_segments":[],"categories_sizes":[],"default_left":[0,0,0,0,0,0,0,0,0,0,0,0,0,0,0,0,0,0,0,0,0,0,0,0,0,0,0,0,0,0,0,0,0],"id":28,"left_children":[1,3,5,7,9,11,13,15,-1,17,19,21,23,25,-1,-1,-1,-1,-1,-1,-1,-1,-1,-1,-1,27,29,-1,31,-1,-1,-1,-1],"loss_changes":[2.555968E4,4.3993164E1,1.4950781E2,5.1660156E0,3.5219307E1,2.9677595E1,1.9652344E1,1.9658203E0,0E0,9.51409E0,1.5193768E0,5.151783E0,8.3551455E-1,7.877367E1,0E0,0E0,0E0,0E0,0E0,0E0,0E0,0E0,0E0,0E0,0E0,1.6417328E1,1.6579002E1,0E0,1.4088719E1,0E0,0E0,0E0,0E0],"parents":[2147483647,0,0,1,1,2,2,3,3,4,4,5,5,6,6,7,7,9,9,10,10,11,11,12,12,13,13,25,25,26,26,28,28],"right_children":[2,4,6,8,10,12,14,16,-1,18,20,22,24,26,-1,-1,-1,-1,-1,-1,-1,-1,-1,-1,-1,28,30,-1,32,-1,-1,-1,-1],"split_conditions":[6.366888E-1,5E0,1E0,7.786896E-1,4.37E-1,9.82146E-1,3.94E-1,7.59E-1,-0E0,3.3568E-1,5.7365723E0,5.590987E0,9.9571E-1,7.632631E-1,4E-2,-4E-2,-9.391736E-3,-4E-2,4.7982233E-3,4E-2,8.645926E-3,-0E0,-4E-2,7.865382E-3,3.2402273E-2,5.2758807E-1,8.764706E1,-4E-2,6.070738E0,-1.7431943E-2,4E-2,3.197758E-2,-3.2667503E-2],"split_indices":[35,30,8,26,15,12,15,15,0,27,9,9,6,35,0,0,0,0,0,0,0,0,0,0,0,7,5,0,9,0,0,0,0],"split_type":[0,0,0,0,0,0,0,0,0,0,0,0,0,0,0,0,0,0,0,0,0,0,0,0,0,0,0,0,0,0,0,0,0],"sum_hessian":[1.5814165E4,7.873049E3,7.9411167E3,7.8291436E3,4.3904972E1,5.387532E1,7.887241E3,7.823843E3,5.301041E0,2.4050488E1,1.9854486E1,4.1278126E1,1.2597194E1,1.0975405E2,7.7774873E3,7.817577E3,6.2652855E0,1.648476E1,7.5657277E0,1.4470665E1,5.3838224E0,5.354138E0,3.592399E1,7.165881E0,5.4313126E0,3.1667332E1,7.8086716E1,1.7160275E1,1.4507056E1,6.079489E0,7.200723E1,8.630418E0,5.876638E0],"tree_param":{"num_deleted":"0","num_feature":"36","num_nodes":"33","size_leaf_vector":"0"}},{"base_weights":[-3.0481487E-3,-1E0,1E0,-1E0,3.185742E-1,-7.410323E-1,1E0,-1E0,2.7954927E-1,-3.867902E-2,4E-2,-1E0,4.4135192E-1,-2.5221807E-1,1E0,-1E0,-3.0307916E-1,-3.2847423E-2,4E-2,-4E-2,-2.3052284E-1,1.1547514E-3,2.5773589E-2,-8.183336E-1,2.6963234E-2,6.360958E-1,4E-2,-4E-2,-1.3212861E-2,-3.608401E-2,1.6871873E-2,-2.0521335E-2,4.7463416E-3,-3.885017E-2,-1.2123872E-2,-6.6339886E-1,1E0,-4E-2,8.887666E-3,3.6869212E-3,4E-2],"categories":[],"categories_nodes":[],"categories_segments":[],"categories_sizes":[],"default_left":[0,0,0,0,0,0,0,0,0,0,0,0,0,0,0,0,0,0,0,0,0,0,0,0,0,0,0,0,0,0,0,0,0,0,0,0,0,0,0,0,0],"id":29,"left_children":[1,3,5,7,9,11,13,15,17,-1,-1,19,21,23,25,27,29,-1,-1,-1,31,-1,-1,33,-1,35,-1,-1,-1,-1,-1,-1,-1,-1,-1,37,39,-1,-1,-1,-1],"loss_changes":[2.4681295E4,7.895996E1,1.750459E2,2.5476562E1,4.8950672E1,2.1662262E1,2.9679688E1,4.439453E0,1.7151432E1,0E0,0E0,4.5592537E0,9.920213E-1,1.3120125E1,5.0146484E0,2.0898438E-1,8.923714E0,0E0,0E0,0E0,1.8779882E0,0E0,0E0,1.265316E-1,0E0,3.9954807E1,0E0,0E0,0E0,0E0,0E0,0E0,0E0,0E0,0E0,7.8695555E0,3.2667542E0,0E0,0E0,0E0,0E0],"parents":[2147483647,0,0,1,1,2,2,3,3,4,4,5,5,6,6,7,7,8,8,11,11,12,12,13,13,14,14,15,15,16,16,20,20,23,23,25,25,35,35,36,36],"right_children":[2,4,6,8,10,12,14,16,18,-1,-1,20,22,24,26,28,30,-1,-1,-1,32,-1,-1,34,-1,36,-1,-1,-1,-1,-1,-1,-1,-1,-1,38,40,-1,-1,-1,-1],"split_conditions":[5.627759E-1,6.58E-1,1E0,9.42935E-1,3.68E1,9.90287E-1,3.8396937E-1,4.37E-1,5.96E1,-3.867902E-2,4E-2,8.05E-1,9.24E-1,3.48E-1,2.38E-1,6.4495736E-1,7.367451E-1,-3.2847423E-2,4E-2,-4E-2,8.70967E-1,1.1547514E-3,2.5773589E-2,9.96E1,2.6963234E-2,9.4282E-1,4E-2,-4E-2,-1.3212861E-2,-3.608401E-2,1.6871873E-2,-2.0521335E-2,4.7463416E-3,-3.885017E-2,-1.2123872E-2,9.86763E-1,9.861111E1,-4E-2,8.887666E-3,3.6869212E-3,4E-2],"split_indices":[26,14,8,1,3,12,27,15,3,0,0,14,14,15,15,7,32,0,0,0,12,0,0,3,0,6,0,0,0,0,0,0,0,0,0,12,5,0,0,0,0],"split_type":[0,0,0,0,0,0,0,0,0,0,0,0,0,0,0,0,0,0,0,0,0,0,0,0,0,0,0,0,0,0,0,0,0,0,0,0,0,0,0,0,0],"sum_hessian":[1.55619795E4,7.766472E3,7.795508E3,7.7227876E3,4.368439E1,5.5393337E1,7.7401143E3,7.7088633E3,1.3924665E1,1.5619605E1,2.8064785E1,4.5128235E1,1.0265099E1,1.7362356E1,7.722752E3,7.695683E3,1.3180015E1,5.264554E0,8.660111E0,3.4581535E1,1.05467005E1,5.0030956E0,5.262003E0,1.1194362E1,6.1679945E0,5.9162643E1,7.6635894E3,7.690633E3,5.05026E0,7.0414867E0,6.1385283E0,5.5266743E0,5.020026E0,6.135823E0,5.0585394E0,1.5060091E1,4.4102554E1,1.0039692E1,5.020399E0,5.2648168E0,3.8837738E1],"tree_param":{"num_deleted":"0","num_feature":"36","num_nodes":"41","size_leaf_vector":"0"}},{"base_weights":[-3.4987754E-3,-1E0,1E0,-1E0,3.244989E-1,-3.219388E-1,1E0,-1E0,3.5728957E-3,-9.027097E-1,4E-2,-8.931041E-1,2.8160667E-2,6.645109E-1,1E0,-4E-2,-9.883738E-3,-3.4898835E-1,-4E-2,-3.9810486E-2,-9.878005E-3,-2.2618875E-2,9.319046E-1,1.6216846E-2,4E-2,-3.295749E-2,9.908951E-3,1.1779708E-2,4E-2],"categories":[],"categories_nodes":[],"categories_segments":[],"categories_sizes":[],"default_left":[0,0,0,0,0,0,0,0,0,0,0,0,0,0,0,0,0,0,0,0,0,0,0,0,0,0,0,0,0],"id":30,"left_children":[1,3,5,7,9,11,13,15,-1,17,-1,19,-1,21,23,-1,-1,25,-1,-1,-1,-1,27,-1,-1,-1,-1,-1,-1],"loss_changes":[2.3840885E4,1.4488086E2,6.822754E1,7.158203E0,8.518235E1,2.6326498E1,1.6611328E0,1.1337891E0,0E0,2.1755486E0,0E0,9.082222E-1,0E0,1.640172E1,4.8828125E-3,0E0,0E0,5.1202292E0,0E0,0E0,0E0,0E0,2.4415092E0,0E0,0E0,0E0,0E0,0E0,0E0],"parents":[2147483647,0,0,1,1,2,2,3,3,4,4,5,5,6,6,7,7,9,9,11,11,13,13,14,14,17,17,22,22],"right_children":[2,4,6,8,10,12,14,16,-1,18,-1,20,-1,22,24,-1,-1,26,-1,-1,-1,-1,28,-1,-1,-1,-1,-1,-1],"split_conditions":[7.070661E-1,4.37E-1,3.68E1,6.71E-1,8.056604E1,9.82146E-1,5.627759E-1,9.96749E-1,3.5728957E-3,5.590987E0,4E-2,9.12E-1,2.8160667E-2,5.957609E-1,4.3195683E-1,-4E-2,-9.883738E-3,5.314362E-1,-4E-2,-3.9810486E-2,-9.878005E-3,-2.2618875E-2,7.632631E-1,1.6216846E-2,4E-2,-3.295749E-2,9.908951E-3,1.1779708E-2,4E-2],"split_indices":[35,15,3,13,5,12,26,12,0,9,0,14,0,27,27,0,0,35,0,0,0,0,35,0,0,0,0,0,0],"split_type":[0,0,0,0,0,0,0,0,0,0,0,0,0,0,0,0,0,0,0,0,0,0,0,0,0,0,0,0,0],"sum_hessian":[1.52167705E4,7.643945E3,7.572826E3,7.563102E3,8.084244E1,3.7305088E1,7.535521E3,7.5580923E3,5.01003E0,3.1497894E1,4.934454E1,2.440136E1,1.2903731E1,4.020956E1,7.4953115E3,7.553001E3,5.091456E0,1.0766154E1,2.073174E1,1.9269648E1,5.131711E0,6.382862E0,3.38267E1,6.5087676E0,7.4888027E3,5.6385546E0,5.1275997E0,9.043865E0,2.4782833E1],"tree_param":{"num_deleted":"0","num_feature":"36","num_nodes":"29","size_leaf_vector":"0"}},{"base_weights":[-2.349716E-3,-1E0,1E0,-1E0,2.5518805E-1,-3.889772E-2,1E0,-1E0,-3.6920933E-3,-9.841296E-1,1E0,2.1313101E-1,1E0,-4E-2,-1.1444864E-2,-9.006313E-3,-1E0,4.0825677E-1,4E-2,-1.9252287E-2,5.509683E-1,4.3379843E-1,4E-2,-4E-2,-1.3606605E-2,3.2243494E-2,-1.0155324E-2,1.1145583E-3,3.323639E-2,-5.469332E-3,3.1883713E-2],"categories":[],"categories_nodes":[],"categories_segments":[],"categories_sizes":[],"default_left":[0,0,0,0,0,0,0,0,0,0,0,0,0,0,0,0,0,0,0,0,0,0,0,0,0,0,0,0,0,0,0],"id":31,"left_children":[1,3,5,7,9,-1,11,13,-1,15,17,19,21,-1,-1,-1,23,25,-1,-1,27,29,-1,-1,-1,-1,-1,-1,-1,-1,-1],"loss_changes":[2.30029E4,1.4599121E2,7.2009766E1,3.1064453E0,9.4058014E1,0E0,1.2998047E1,1.0566406E0,0E0,1.3532753E0,2.6829758E0,7.5487785E0,1.5039062E0,0E0,0E0,0E0,3.7758636E-1,5.712948E0,0E0,0E0,2.725554E0,3.956853E0,0E0,0E0,0E0,0E0,0E0,0E0,0E0,0E0,0E0],"parents":[2147483647,0,0,1,1,2,2,3,3,4,4,6,6,7,7,9,9,10,10,11,11,12,12,16,16,17,17,20,20,21,21],"right_children":[2,4,6,8,10,-1,12,14,-1,16,18,20,22,-1,-1,-1,24,26,-1,-1,28,30,-1,-1,-1,-1,-1,-1,-1,-1,-1],"split_conditions":[7.070661E-1,3.94E-1,4E0,9.96749E-1,0E0,-3.889772E-2,3.68E1,9.946524E1,-3.6920933E-3,5.365976E0,7.53607E-1,9.03528E-1,4.7049624E-1,-4E-2,-1.1444864E-2,-9.006313E-3,7.0058E-1,5.6240177E0,4E-2,-1.9252287E-2,9.3E-1,3.48E-1,4E-2,-4E-2,-1.3606605E-2,3.2243494E-2,-1.0155324E-2,1.1145583E-3,3.323639E-2,-5.469332E-3,3.1883713E-2],"split_indices":[35,15,30,12,4,0,3,5,0,9,12,12,27,0,0,0,6,9,0,0,14,15,0,0,0,0,0,0,0,0,0],"split_type":[0,0,0,0,0,0,0,0,0,0,0,0,0,0,0,0,0,0,0,0,0,0,0,0,0,0,0,0,0,0,0],"sum_hessian":[1.491331E4,7.485267E3,7.428042E3,7.394178E3,9.1089035E1,1.5976129E1,7.412066E3,7.389106E3,5.0720987E0,3.4496742E1,5.6592293E1,2.3601229E1,7.388465E3,7.383306E3,5.800189E0,5.0250854E0,2.9471657E1,1.42436075E1,4.2348686E1,7.016505E0,1.6584724E1,1.21095E1,7.3763555E3,2.3804602E1,5.667055E0,8.77328E0,5.4703274E0,7.3048987E0,9.279825E0,5.117652E0,6.9918485E0],"tree_param":{"num_deleted":"0","num_feature":"36","num_nodes":"31","size_leaf_vector":"0"}},{"base_weights":[-2.3667903E-3,-1E0,1E0,-1E0,1.983646E-1,-4E-2,1E0,-1E0,2.620592E-1,-8.955559E-1,1E0,4.542989E-2,1E0,-4E-2,-5.244341E-1,-3.2475617E-2,3.802968E-2,-4E-2,-8.287576E-3,1.4511658E-2,4E-2,-6.583194E-1,5.0713384E-1,-6.184312E-2,1E0,-3.9844263E-2,2.360688E-3,-3.600714E-2,-4.1344487E-3,-0E0,6.7730474E-1,-2.3881486E-2,1.9528775E-2,5.976611E-1,4E-2,9.059711E-3,3.2220904E-2,-2.5607392E-2,4E-2],"categories":[],"categories_nodes":[],"categories_segments":[],"categories_sizes":[],"default_left":[0,0,0,0,0,0,0,0,0,0,0,0,0,0,0,0,0,0,0,0,0,0,0,0,0,0,0,0,0,0,0,0,0,0,0,0,0,0,0],"id":32,"left_children":[1,3,5,7,9,-1,11,13,15,17,19,21,23,-1,25,-1,-1,-1,-1,-1,-1,27,29,31,33,-1,-1,-1,-1,-1,35,-1,-1,37,-1,-1,-1,-1,-1],"loss_changes":[2.1981758E4,8.067871E1,1.5970703E2,2.652246E1,5.567274E1,0E0,2.6472656E1,4.794922E-1,1.661379E1,1.6847134E0,9.957886E-2,1.2341931E1,1.6564453E1,0E0,5.35802E0,0E0,0E0,0E0,0E0,0E0,0E0,1.5208769E0,2.167472E0,6.463115E0,6.048828E0,0E0,0E0,0E0,0E0,0E0,3.245926E-1,0E0,0E0,3.473644E1,0E0,0E0,0E0,0E0,0E0],"parents":[2147483647,0,0,1,1,2,2,3,3,4,4,6,6,7,7,8,8,9,9,10,10,11,11,12,12,14,14,21,21,22,22,23,23,24,24,30,30,33,33],"right_children":[2,4,6,8,10,-1,12,14,16,18,20,22,24,-1,26,-1,-1,-1,-1,-1,-1,28,30,32,34,-1,-1,-1,-1,-1,36,-1,-1,38,-1,-1,-1,-1,-1],"split_conditions":[5.627759E-1,4.37E-1,4E0,9.42935E-1,7.3333336E1,-4E-2,3.93E1,5.2758807E-1,8.24E1,6.01836E-1,4.178627E-1,8.9744E-1,3.8396937E-1,-4E-2,5.52137E-1,-3.2475617E-2,3.802968E-2,-4E-2,-8.287576E-3,1.4511658E-2,4E-2,6.0668E-1,9.11916E-1,2.91E-1,2.38E-1,-3.9844263E-2,2.360688E-3,-3.600714E-2,-4.1344487E-3,-0E0,8.5475063E-1,-2.3881486E-2,1.9528775E-2,9.4282E-1,4E-2,9.059711E-3,3.2220904E-2,-2.5607392E-2,4E-2],"split_indices":[26,15,30,1,5,0,3,7,3,12,26,6,27,0,12,0,0,0,0,0,0,6,12,15,15,0,0,0,0,0,27,0,0,6,0,0,0,0,0],"split_type":[0,0,0,0,0,0,0,0,0,0,0,0,0,0,0,0,0,0,0,0,0,0,0,0,0,0,0,0,0,0,0,0,0,0,0,0,0,0,0],"sum_hessian":[1.4521302E4,7.2449463E3,7.2763555E3,7.1901777E3,5.476813E1,3.3148552E1,7.2432065E3,7.1751196E3,1.505828E1,2.3210373E1,3.1557758E1,2.9972977E1,7.213234E3,7.161469E3,1.365026E1,5.5035605E0,9.554719E0,1.7645164E1,5.56521E0,5.5753894E0,2.5982368E1,1.1110523E1,1.8862455E1,1.3787132E1,7.199447E3,6.6592145E0,6.991045E0,6.0618854E0,5.048638E0,5.103445E0,1.3759009E1,7.1345897E0,6.652542E0,5.438261E1,7.145064E3,5.4026275E0,8.356382E0,1.40246525E1,4.0357956E1],"tree_param":{"num_deleted":"0","num_feature":"36","num_nodes":"39","size_leaf_vector":"0"}},{"base_weights":[-1.6034619E-3,-1E0,1E0,-1E0,1.3422132E-2,-4E-2,1E0,-1E0,3.7401172E-3,-7.3482835E-1,7.4604756E-1,3.0622116E-1,1E0,-4E-2,-5.100691E-3,-4E-2,5.727834E-3,3.863251E-2,2.6040472E-4,-4.748341E-1,7.4742633E-1,2.0520851E-1,4E-2,-3.9744623E-2,2.1675808E-2,-1.883321E-2,9.6702516E-1,-3.2090867E-1,3.2848425E-2,1.7727803E-2,4E-2,-2.6331054E-2,7.7720885E-3],"categories":[],"categories_nodes":[],"categories_segments":[],"categories_sizes":[],"default_left":[0,0,0,0,0,0,0,0,0,0,0,0,0,0,0,0,0,0,0,0,0,0,0,0,0,0,0,0,0,0,0,0,0],"id":33,"left_children":[1,3,5,7,9,-1,11,13,-1,15,17,19,21,-1,-1,-1,-1,-1,-1,23,25,27,-1,-1,-1,-1,29,31,-1,-1,-1,-1,-1],"loss_changes":[2.1366842E4,4.085547E1,1.2889551E2,7.604492E0,2.5612328E1,0E0,2.6579102E1,2.6044922E0,0E0,6.971594E0,3.5580845E0,2.3171165E1,1.2943359E1,0E0,0E0,0E0,0E0,0E0,0E0,1.5090708E1,1.296014E1,9.92709E0,0E0,0E0,0E0,0E0,5.197525E-1,3.608018E0,0E0,0E0,0E0,0E0,0E0],"parents":[2147483647,0,0,1,1,2,2,3,3,4,4,6,6,7,7,9,9,10,10,11,11,12,12,19,19,20,20,21,21,26,26,27,27],"right_children":[2,4,6,8,10,-1,12,14,-1,16,18,20,22,-1,-1,-1,-1,-1,-1,24,26,28,-1,-1,-1,-1,30,32,-1,-1,-1,-1,-1],"split_conditions":[6.366888E-1,5E0,4E0,9.39E-1,3.94E-1,-4E-2,5.627759E-1,7.63312E-1,3.7401172E-3,4.4770753E-1,5.7170277E0,5.957609E-1,3.93E1,-4E-2,-5.100691E-3,-4E-2,5.727834E-3,3.863251E-2,2.6040472E-4,4.37E-1,9.462151E1,9.43E-1,4E-2,-3.9744623E-2,2.1675808E-2,-1.883321E-2,9.4282E-1,9.70375E-1,3.2848425E-2,1.7727803E-2,4E-2,-2.6331054E-2,7.7720885E-3],"split_indices":[35,30,30,13,15,0,26,26,0,1,9,27,3,0,0,0,0,0,0,15,5,14,0,0,0,0,6,12,0,0,0,0,0],"split_type":[0,0,0,0,0,0,0,0,0,0,0,0,0,0,0,0,0,0,0,0,0,0,0,0,0,0,0,0,0,0,0,0,0],"sum_hessian":[1.4252366E4,7.0873105E3,7.165055E3,7.048201E3,3.9109398E1,2.6066717E1,7.138989E3,7.042882E3,5.3193183E0,1.9141329E1,1.9968071E1,5.931777E1,7.079671E3,7.037832E3,5.049821E0,1.396665E1,5.1746783E0,1.4373264E1,5.5948067E0,2.108423E1,3.823354E1,2.2993608E1,7.0566772E3,1.4201329E1,6.8829E0,5.1064577E0,3.3127083E1,1.2914056E1,1.0079553E1,9.493315E0,2.3633768E1,7.652392E0,5.2616644E0],"tree_param":{"num_deleted":"0","num_feature":"36","num_nodes":"33","size_leaf_vector":"0"}},{"base_weights":[-2.7001074E-3,-1E0,1E0,-1E0,1.5251325E-1,-5.2122605E-1,1E0,-1E0,2.3043646E-1,-8.440169E-1,9.52424E-1,-1E0,2.6133224E-1,-1.0484922E-1,1E0,-4E-2,-3.9382702E-1,-3.1560503E-2,3.6410138E-2,-4E-2,-0E0,1.0545285E-2,4E-2,-1.1642402E-3,-4E-2,-1.4051685E-2,6.51525E-1,-2.3873739E-2,2.2690203E-2,6.147985E-1,4E-2,-3.5752513E-2,9.860493E-3,6.4264694E-3,3.19252E-2,-5.982835E-1,1E0,-4E-2,-0E0,1.7297057E-3,4E-2],"categories":[],"categories_nodes":[],"categories_segments":[],"categories_sizes":[],"default_left":[0,0,0,0,0,0,0,0,0,0,0,0,0,0,0,0,0,0,0,0,0,0,0,0,0,0,0,0,0,0,0,0,0,0,0,0,0,0,0,0,0],"id":34,"left_children":[1,3,5,7,9,11,13,15,17,19,21,23,25,27,29,-1,31,-1,-1,-1,-1,-1,-1,-1,-1,-1,33,-1,-1,35,-1,-1,-1,-1,-1,37,39,-1,-1,-1,-1],"loss_changes":[2.048306E4,7.22207E1,1.4264062E2,2.3342773E1,4.8157116E1,2.546971E1,2.0106445E1,2.6357422E0,1.4793124E1,5.588625E0,1.3011875E0,4.003792E0,7.496253E0,7.7396746E0,4.723633E0,0E0,6.530015E0,0E0,0E0,0E0,0E0,0E0,0E0,0E0,0E0,0E0,7.631755E-1,0E0,0E0,2.8948212E1,0E0,0E0,0E0,0E0,0E0,4.888759E0,3.9475288E0,0E0,0E0,0E0,0E0],"parents":[2147483647,0,0,1,1,2,2,3,3,4,4,5,5,6,6,7,7,8,8,9,9,10,10,11,11,12,12,13,13,14,14,16,16,26,26,29,29,35,35,36,36],"right_children":[2,4,6,8,10,12,14,16,18,20,22,24,26,28,30,-1,32,-1,-1,-1,-1,-1,-1,-1,-1,-1,34,-1,-1,36,-1,-1,-1,-1,-1,38,40,-1,-1,-1,-1],"split_conditions":[5.627759E-1,4.37E-1,3.93E1,9.42935E-1,8.056604E1,8.9744E-1,3.8396937E-1,5.2758807E-1,8.24E1,7.3294E-1,4.178627E-1,5.7365723E0,9.43172E-1,3.48E-1,1.7E-1,-4E-2,6.39E1,-3.1560503E-2,3.6410138E-2,-4E-2,-0E0,1.0545285E-2,4E-2,-1.1642402E-3,-4E-2,-1.4051685E-2,8.89E-1,-2.3873739E-2,2.2690203E-2,8.6852E-1,4E-2,-3.5752513E-2,9.860493E-3,6.4264694E-3,3.19252E-2,9.95E1,9.52E1,-4E-2,-0E0,1.7297057E-3,4E-2],"split_indices":[26,15,3,1,5,6,27,7,3,6,26,9,12,15,15,0,3,0,0,0,0,0,0,0,0,0,14,0,0,6,0,0,0,0,0,3,3,0,0,0,0],"split_type":[0,0,0,0,0,0,0,0,0,0,0,0,0,0,0,0,0,0,0,0,0,0,0,0,0,0,0,0,0,0,0,0,0,0,0,0,0,0,0,0,0],"sum_hessian":[1.3914217E4,6.9452607E3,6.968956E3,6.8921514E3,5.310925E1,5.954069E1,6.9094155E3,6.8782393E3,1.3912253E1,2.3407583E1,2.9701668E1,3.6291428E1,2.3249262E1,1.5385504E1,6.89403E3,6.864913E3,1.3325928E1,5.196479E0,8.715775E0,1.7177402E1,6.2301817E0,5.830962E0,2.3870705E1,5.04801E0,3.124342E1,8.863425E0,1.4385837E1,9.334644E0,6.05086E0,5.061537E1,6.8434146E3,7.079293E0,6.246635E0,5.225103E0,9.160733E0,1.2154992E1,3.846038E1,5.4552875E0,6.6997046E0,5.2168574E0,3.3243523E1],"tree_param":{"num_deleted":"0","num_feature":"36","num_nodes":"41","size_leaf_vector":"0"}},{"base_weights":[1.5302255E-3,-1E0,1E0,-1E0,2.667418E-1,-3.632333E-2,1E0,-1E0,-5.427834E-1,-8.7010187E-1,1E0,8.6484924E-2,1E0,-4E-2,-1.6125409E-2,-4E-2,3.0349813E-2,-9.9971855E-1,-4.958472E-3,4E-2,1.271353E-2,-1.7188571E-1,2.2413954E-2,6.4244944E-1,4E-2,-1.121588E-2,-4E-2,1.3608288E-2,-2.6963577E-2,-7.070377E-1,4E-2,-4E-2,1.1588698E-2],"categories":[],"categories_nodes":[],"categories_segments":[],"categories_sizes":[],"default_left":[0,0,0,0,0,0,0,0,0,0,0,0,0,0,0,0,0,0,0,0,0,0,0,0,0,0,0,0,0,0,0,0,0],"id":35,"left_children":[1,3,5,7,9,-1,11,13,15,17,19,21,23,-1,-1,-1,-1,25,-1,-1,-1,27,-1,29,-1,-1,-1,-1,-1,31,-1,-1,-1],"loss_changes":[1.983472E4,1.2162012E2,6.2524414E1,2.3632812E0,7.1716415E1,0E0,1.3541016E1,3.1445312E-1,2.0901415E1,2.6139069E0,8.623848E-1,3.299954E0,4.185547E0,0E0,0E0,0E0,0E0,1.0786991E0,0E0,0E0,0E0,5.186597E0,0E0,3.841063E1,0E0,0E0,0E0,0E0,0E0,1.3616605E1,0E0,0E0,0E0],"parents":[2147483647,0,0,1,1,2,2,3,3,4,4,6,6,7,7,8,8,9,9,10,10,11,11,12,12,17,17,21,21,23,23,29,29],"right_children":[2,4,6,8,10,-1,12,14,16,18,20,22,24,-1,-1,-1,-1,26,-1,-1,-1,28,-1,30,-1,-1,-1,-1,-1,32,-1,-1,-1],"split_conditions":[7.070661E-1,4.37E-1,4E0,5.2758807E-1,8.056604E1,-3.632333E-2,1E0,3.94E-1,5E0,7.0058E-1,9.346988E-1,9.525595E-1,7.632631E-1,-4E-2,-1.6125409E-2,-4E-2,3.0349813E-2,5.4595857E0,-4.958472E-3,4E-2,1.271353E-2,3.995158E-1,2.2413954E-2,3.94E-1,4E-2,-1.121588E-2,-4E-2,1.3608288E-2,-2.6963577E-2,5.2758807E-1,4E-2,-4E-2,1.1588698E-2],"split_indices":[35,15,30,7,5,0,8,15,30,6,32,32,35,0,0,0,0,9,0,0,0,0,0,15,0,0,0,0,0,7,0,0,0],"split_type":[0,0,0,0,0,0,0,0,0,0,0,0,0,0,0,0,0,0,0,0,0,0,0,0,0,0,0,0,0,0,0,0,0],"sum_hessian":[1.3616292E4,6.80926E3,6.8070327E3,6.7350713E3,7.418861E1,1.4682915E1,6.7923496E3,6.711106E3,2.3965473E1,2.9784386E1,4.440422E1,1.7476725E1,6.774873E3,6.703798E3,7.308049E0,1.7845783E1,6.1196895E0,2.4164917E1,5.619468E0,3.822461E1,6.1796107E0,1.2137538E1,5.339188E0,5.488726E1,6.7199854E3,5.7100096E0,1.8454906E1,6.1929674E0,5.9445705E0,1.3325564E1,4.15617E1,6.0643735E0,7.2611904E0],"tree_param":{"num_deleted":"0","num_feature":"36","num_nodes":"33","size_leaf_vector":"0"}},{"base_weights":[-2.680337E-3,-1E0,1E0,-1E0,2.2785768E-1,-3.3748694E-2,1E0,-1E0,-2.8487071E-3,-9.0547174E-1,9.1600686E-1,2.2697383E-1,1E0,-4E-2,-6.353449E-1,-8.5700685E-3,-3.9848357E-2,2.596566E-1,4E-2,-1.65098E-2,4.844838E-1,6.1655986E-1,4E-2,-4E-2,2.0072302E-2,2.4476558E-2,-1.1208166E-2,-7.262287E-3,3.0592838E-2,-6.3803977E-1,4E-2,-3.0884556E-3,-3.658165E-2],"categories":[],"categories_nodes":[],"categories_segments":[],"categories_sizes":[],"default_left":[0,0,0,0,0,0,0,0,0,0,0,0,0,0,0,0,0,0,0,0,0,0,0,0,0,0,0,0,0,0,0,0,0],"id":36,"left_children":[1,3,5,7,9,-1,11,13,-1,15,17,19,21,-1,23,-1,-1,25,-1,-1,27,29,-1,-1,-1,-1,-1,-1,-1,31,-1,-1,-1],"loss_changes":[1.9060781E4,1.261543E2,5.179004E1,3.5517578E0,6.987785E1,0E0,1.2675781E1,1.2792969E-1,0E0,1.2821369E0,5.681488E0,5.472642E0,5.0507812E0,0E0,1.5181286E1,0E0,0E0,4.2758904E0,0E0,0E0,4.7842503E0,3.5060974E1,0E0,0E0,0E0,0E0,0E0,0E0,0E0,2.31103E0,0E0,0E0,0E0],"parents":[2147483647,0,0,1,1,2,2,3,3,4,4,6,6,7,7,9,9,10,10,11,11,12,12,14,14,17,17,20,20,21,21,29,29],"right_children":[2,4,6,8,10,-1,12,14,-1,16,18,20,22,-1,24,-1,-1,26,-1,-1,28,30,-1,-1,-1,-1,-1,-1,-1,32,-1,-1,-1],"split_conditions":[7.070661E-1,3.94E-1,4E0,9.96425E-1,0E0,-3.3748694E-2,3.93E1,7.556606E-1,-2.8487071E-3,5.433722E0,7.53607E-1,8.23E-1,7.632631E-1,-4E-2,9.86E1,-8.5700685E-3,-3.9848357E-2,5.6664267E0,4E-2,-1.65098E-2,8.70967E-1,4.37E-1,4E-2,-4E-2,2.0072302E-2,2.4476558E-2,-1.1208166E-2,-7.262287E-3,3.0592838E-2,8.032064E-1,4E-2,-3.0884556E-3,-3.658165E-2],"split_indices":[35,15,30,12,4,0,3,1,0,9,12,14,35,0,3,0,0,9,0,0,12,15,0,0,0,0,0,0,0,28,0,0,0],"split_type":[0,0,0,0,0,0,0,0,0,0,0,0,0,0,0,0,0,0,0,0,0,0,0,0,0,0,0,0,0,0,0,0,0],"sum_hessian":[1.3267131E4,6.6613477E3,6.605783E3,6.5791694E3,8.2177956E1,1.2792803E1,6.5929907E3,6.5739277E3,5.24208E0,3.052395E1,5.1654003E1,2.4007559E1,6.568983E3,6.551765E3,2.2162252E1,5.0957093E0,2.5428242E1,1.4260966E1,3.7393036E1,6.0369E0,1.797066E1,5.3323437E1,6.5156597E3,1.6114153E1,6.0481E0,8.72393E0,5.537036E0,5.319422E0,1.2651238E1,1.3819301E1,3.9504135E1,6.1889544E0,7.6303463E0],"tree_param":{"num_deleted":"0","num_feature":"36","num_nodes":"33","size_leaf_vector":"0"}},{"base_weights":[-4.559491E-4,-1E0,1E0,-1E0,1.303285E-2,-4.3136665E-1,1E0,-4E-2,-1.329004E-2,-3.638153E-2,8.5301673E-1,-7.7752864E-1,4.9150866E-1,5.158014E-1,1E0,3.9715756E-2,1.031694E-2,-9.204515E-1,6.219584E-3,7.548911E-4,2.8087515E-2,-4E-2,7.9743594E-1,1.36716105E-2,4E-2,-2.564264E-3,-1E0,-5.5844635E-1,1E0,-4E-2,-1.3918116E-2,-4E-2,2.0710357E-2,9.769537E-3,4E-2],"categories":[],"categories_nodes":[],"categories_segments":[],"categories_sizes":[],"default_left":[0,0,0,0,0,0,0,0,0,0,0,0,0,0,0,0,0,0,0,0,0,0,0,0,0,0,0,0,0,0,0,0,0,0,0],"id":37,"left_children":[1,3,5,7,9,11,13,-1,-1,-1,15,17,19,21,23,-1,-1,25,-1,-1,-1,-1,27,-1,-1,-1,29,31,33,-1,-1,-1,-1,-1,-1],"loss_changes":[1.838266E4,3.4916992E1,1.15274414E2,3.4960938E-1,3.1533487E1,2.0043015E1,1.938379E1,0E0,0E0,0E0,8.2218933E-1,6.58189E0,1.5977354E0,5.0816574E1,1.4453125E-1,0E0,0E0,3.3876877E0,0E0,0E0,0E0,0E0,2.953321E1,0E0,0E0,0E0,3.653183E-1,1.598138E1,4.7077026E0,0E0,0E0,0E0,0E0,0E0,0E0],"parents":[2147483647,0,0,1,1,2,2,3,3,4,4,5,5,6,6,10,10,11,11,12,12,13,13,14,14,17,17,22,22,26,26,27,27,28,28],"right_children":[2,4,6,8,10,12,14,-1,-1,-1,16,18,20,22,24,-1,-1,26,-1,-1,-1,-1,28,-1,-1,-1,30,32,34,-1,-1,-1,-1,-1,-1],"split_conditions":[6.366888E-1,6.71E-1,3.93E1,6.17E-1,8.056604E1,9.82146E-1,3.94E-1,-4E-2,-1.329004E-2,-3.638153E-2,5.6970935E0,9.46E-1,9.1E-1,4.8327193E-1,4.178627E-1,3.9715756E-2,1.031694E-2,5.6970935E0,6.219584E-3,7.548911E-4,2.8087515E-2,-4E-2,9.55E1,1.36716105E-2,4E-2,-2.564264E-3,8.425023E-1,9.37E1,8.6852E-1,-4E-2,-1.3918116E-2,-4E-2,2.0710357E-2,9.769537E-3,4E-2],"split_indices":[35,13,3,13,5,12,15,0,0,0,9,14,14,7,26,0,0,9,0,0,0,0,5,0,0,0,7,3,6,0,0,0,0,0,0],"split_type":[0,0,0,0,0,0,0,0,0,0,0,0,0,0,0,0,0,0,0,0,0,0,0,0,0,0,0,0,0,0,0,0,0,0,0],"sum_hessian":[1.2947375E4,6.426392E3,6.520983E3,6.393037E3,3.335507E1,5.4308792E1,6.4666743E3,6.3876255E3,5.411939E0,1.5607488E1,1.774758E1,4.0074696E1,1.4234097E1,9.371308E1,6.3729614E3,1.2337997E1,5.4095826E0,3.5065228E1,5.009465E0,5.835492E0,8.398604E0,1.1327778E1,8.23853E1,5.1712227E0,6.36779E3,5.154353E0,2.9910877E1,1.1402505E1,7.0982796E1,2.4075378E1,5.8354983E0,5.453939E0,5.9485655E0,1.128834E1,5.9694458E1],"tree_param":{"num_deleted":"0","num_feature":"36","num_nodes":"35","size_leaf_vector":"0"}},{"base_weights":[-1.7666371E-3,-1E0,1E0,-1E0,1.899875E-1,-3.4049116E-2,1E0,-4E-2,-1.3136817E-2,-8.423765E-1,9.1308576E-1,2.1975304E-1,1E0,-9.971993E-1,-4.819003E-3,2.100514E-1,4E-2,-1.14211604E-1,2.82664E-2,6.428693E-1,4E-2,-1.331564E-2,-4E-2,2.3112569E-2,-1.1333395E-2,-2.1413203E-2,1.6200615E-2,-4.7559133E-1,4E-2,-4E-2,1.6770672E-2],"categories":[],"categories_nodes":[],"categories_segments":[],"categories_sizes":[],"default_left":[0,0,0,0,0,0,0,0,0,0,0,0,0,0,0,0,0,0,0,0,0,0,0,0,0,0,0,0,0,0,0],"id":38,"left_children":[1,3,5,7,9,-1,11,-1,-1,13,15,17,19,21,-1,23,-1,25,-1,27,-1,-1,-1,-1,-1,-1,-1,29,-1,-1,-1],"loss_changes":[1.7694912E4,1.1357715E2,5.376758E1,2.841797E-1,6.434615E1,0E0,1.2994141E1,0E0,0E0,3.3915844E0,5.75029E0,5.177565E0,3.5927734E0,6.790371E-1,0E0,3.7463956E0,0E0,5.177094E0,0E0,2.569645E1,0E0,0E0,0E0,0E0,0E0,0E0,0E0,1.5239263E1,0E0,0E0,0E0],"parents":[2147483647,0,0,1,1,2,2,3,3,4,4,6,6,9,9,10,10,11,11,12,12,13,13,15,15,17,17,19,19,27,27],"right_children":[2,4,6,8,10,-1,12,-1,-1,14,16,18,20,22,-1,24,-1,26,-1,28,-1,-1,-1,-1,-1,-1,-1,30,-1,-1,-1],"split_conditions":[7.070661E-1,3.94E-1,4E0,9.5264584E-1,8.056604E1,-3.4049116E-2,3.93E1,-4E-2,-1.3136817E-2,6.7429E-1,7.53607E-1,9.6E-1,7.632631E-1,5.4595857E0,-4.819003E-3,5.6240177E0,4E-2,9.82146E-1,2.82664E-2,3.94E-1,4E-2,-1.331564E-2,-4E-2,2.3112569E-2,-1.1333395E-2,-2.1413203E-2,1.6200615E-2,5.2758807E-1,4E-2,-4E-2,1.6770672E-2],"split_indices":[35,15,30,1,5,0,3,0,0,6,12,14,35,9,0,9,0,12,0,15,0,0,0,0,0,0,0,7,0,0,0],"split_type":[0,0,0,0,0,0,0,0,0,0,0,0,0,0,0,0,0,0,0,0,0,0,0,0,0,0,0,0,0,0,0],"sum_hessian":[1.2621789E4,6.3313843E3,6.2904053E3,6.252565E3,7.881933E1,1.3240782E1,6.2771646E3,6.247386E3,5.178612E0,3.209199E1,4.6727333E1,2.4040403E1,6.253124E3,2.5140587E1,6.951406E0,1.2300423E1,3.442691E1,1.5256376E1,8.784027E0,5.0372715E1,6.202751E3,6.1629863E0,1.89776E1,7.101646E0,5.1987767E0,8.691713E0,6.564663E0,1.28007555E1,3.7571957E1,5.167711E0,7.633045E0],"tree_param":{"num_deleted":"0","num_feature":"36","num_nodes":"31","size_leaf_vector":"0"}},{"base_weights":[-4.3251887E-3,-1E0,1E0,-1E0,2.5318903E-1,-1.9741558E-1,1E0,-1E0,-3.3222425E-1,-8.208887E-1,9.449378E-1,-6.8820256E-1,2.328174E-2,5.9059566E-1,1E0,-4E-2,-7.8229355E-3,-3.5552923E-2,1.5247795E-2,-1.1560644E-2,-3.982199E-2,4E-2,4.9744765E-3,-3.599989E-2,-5.714229E-4,-6.0521656E-1,1E0,5.029771E-1,4E-2,-4E-2,1.0805894E-2,1.2249817E-2,4E-2,-0E0,3.1425394E-2],"categories":[],"categories_nodes":[],"categories_segments":[],"categories_sizes":[],"default_left":[0,0,0,0,0,0,0,0,0,0,0,0,0,0,0,0,0,0,0,0,0,0,0,0,0,0,0,0,0,0,0,0,0,0,0],"id":39,"left_children":[1,3,5,7,9,11,13,15,17,19,21,23,-1,25,27,-1,-1,-1,-1,-1,-1,-1,-1,-1,-1,29,31,33,-1,-1,-1,-1,-1,-1,-1],"loss_changes":[1.6995613E4,1.0847656E2,5.0835938E1,4.9345703E0,5.565493E1,1.6049208E1,5.758789E0,1.7460938E0,9.15401E0,1.7287273E0,2.8483925E0,3.2973833E0,0E0,2.934954E1,2.685547E-1,0E0,0E0,0E0,0E0,0E0,0E0,0E0,0E0,0E0,0E0,1.1954177E1,6.049042E-1,2.2312748E0,0E0,0E0,0E0,0E0,0E0,0E0,0E0],"parents":[2147483647,0,0,1,1,2,2,3,3,4,4,5,5,6,6,7,7,8,8,9,9,10,10,11,11,13,13,14,14,25,25,26,26,27,27],"right_children":[2,4,6,8,10,12,14,16,18,20,22,24,-1,26,28,-1,-1,-1,-1,-1,-1,-1,-1,-1,-1,30,32,34,-1,-1,-1,-1,-1,-1,-1],"split_conditions":[7.070661E-1,4.37E-1,3.93E1,4.99E-1,6.0194176E1,9.82146E-1,7.632631E-1,9.96425E-1,9.6107056E1,5.590987E0,9.346988E-1,8.425023E-1,2.328174E-2,3.94E-1,4.79E1,-4E-2,-7.8229355E-3,-3.5552923E-2,1.5247795E-2,-1.1560644E-2,-3.982199E-2,4E-2,4.9744765E-3,-3.599989E-2,-5.714229E-4,5.2758807E-1,5.81E-1,9.34E-1,4E-2,-4E-2,1.0805894E-2,1.2249817E-2,4E-2,-0E0,3.1425394E-2],"split_indices":[35,15,3,13,5,12,35,12,5,9,32,7,0,15,3,0,0,0,0,0,0,0,0,0,0,7,13,13,0,0,0,0,0,0,0],"split_type":[0,0,0,0,0,0,0,0,0,0,0,0,0,0,0,0,0,0,0,0,0,0,0,0,0,0,0,0,0,0,0,0,0,0,0],"sum_hessian":[1.2288309E4,6.1757134E3,6.1125957E3,6.1082104E3,6.750288E1,3.4046223E1,6.0785493E3,6.0925176E3,1.5692568E1,2.6054434E1,4.1448437E1,2.134343E1,1.2702792E1,5.0722797E1,6.0278267E3,6.0874385E3,5.0792317E0,8.637016E0,7.055552E0,8.834293E0,1.722014E1,3.600297E1,5.445466E0,1.513524E1,6.2081904E0,1.2580018E1,3.814278E1,1.1439971E1,6.0163867E3,5.424631E0,7.155387E0,5.3548536E0,3.2787926E1,5.181086E0,6.258885E0],"tree_param":{"num_deleted":"0","num_feature":"36","num_nodes":"35","size_leaf_vector":"0"}},{"base_weights":[-2.3249306E-3,-1E0,1E0,-1E0,2.6226591E-2,-5.203922E-1,1E0,-1E0,7.0656687E-3,-5.4965234E-1,7.1497893E-1,-8.277129E-1,3.2024986E-1,4.2075253E-1,1E0,-4E-2,-5.5212444E-3,-3.5661597E-2,5.9149307E-3,3.7823632E-2,6.8584003E-4,-1.8556435E-3,-4E-2,5.732672E-4,2.1428298E-2,-6.6766447E-1,9.356631E-1,1.4796376E-2,4E-2,-4E-2,7.107991E-2,-2.0765306E-2,4E-2,3.448095E-2,-2.6294542E-2],"categories":[],"categories_nodes":[],"categories_segments":[],"categories_sizes":[],"default_left":[0,0,0,0,0,0,0,0,0,0,0,0,0,0,0,0,0,0,0,0,0,0,0,0,0,0,0,0,0,0,0,0,0,0,0],"id":40,"left_children":[1,3,5,7,9,11,13,15,-1,17,19,21,23,25,27,-1,-1,-1,-1,-1,-1,-1,-1,-1,-1,29,31,-1,-1,-1,33,-1,-1,-1,-1],"loss_changes":[1.639791E4,3.8004883E1,1.0950244E2,8.941406E0,1.7183676E1,1.3795481E1,2.779004E1,2.5205078E0,0E0,6.241595E0,2.8697739E0,4.9555626E0,9.2699456E-1,5.467263E1,4.794922E-1,0E0,0E0,0E0,0E0,0E0,0E0,0E0,0E0,0E0,0E0,1.2808346E1,1.6706276E1,0E0,0E0,0E0,1.1886682E1,0E0,0E0,0E0,0E0],"parents":[2147483647,0,0,1,1,2,2,3,3,4,4,5,5,6,6,7,7,9,9,10,10,11,11,12,12,13,13,14,14,25,25,26,26,30,30],"right_children":[2,4,6,8,10,12,14,16,-1,18,20,22,24,26,28,-1,-1,-1,-1,-1,-1,-1,-1,-1,-1,30,32,-1,-1,-1,34,-1,-1,-1,-1],"split_conditions":[6.366888E-1,5E0,1E0,9.39E-1,5.3764623E-1,8.3893394E-1,3.94E-1,7.359488E-1,7.0656687E-3,4.99E-1,5.7930136E0,5.755742E0,9.9631E-1,7.632631E-1,4.3990475E-1,-4E-2,-5.5212444E-3,-3.5661597E-2,5.9149307E-3,3.7823632E-2,6.8584003E-4,-1.8556435E-3,-4E-2,5.732672E-4,2.1428298E-2,5.2758807E-1,8.764706E1,1.4796376E-2,4E-2,-4E-2,6.206728E-1,-2.0765306E-2,4E-2,3.448095E-2,-2.6294542E-2],"split_indices":[35,30,8,13,26,35,15,26,0,13,9,9,6,35,26,0,0,0,0,0,0,0,0,0,0,7,5,0,0,0,7,0,0,0,0],"split_type":[0,0,0,0,0,0,0,0,0,0,0,0,0,0,0,0,0,0,0,0,0,0,0,0,0,0,0,0,0,0,0,0,0,0,0],"sum_hessian":[1.2004078E4,5.9673643E3,6.0367134E3,5.932012E3,3.5352512E1,4.5274193E1,5.991439E3,5.926897E3,5.1151195E0,1.9346687E1,1.6005825E1,3.3448975E1,1.1825218E1,8.979995E1,5.901639E3,5.92177E3,5.1268077E0,1.2711757E1,6.634931E0,1.0906538E1,5.0992875E0,7.453679E0,2.5995295E1,6.7843604E0,5.040858E0,2.8366432E1,6.1433517E1,6.7206397E0,5.8949185E3,1.5300856E1,1.3065577E1,5.242993E0,5.6190525E1,6.1977572E0,6.86782E0],"tree_param":{"num_deleted":"0","num_feature":"36","num_nodes":"35","size_leaf_vector":"0"}},{"base_weights":[-2.760186E-3,-1E0,1E0,-1E0,1.3341665E-1,-4.5766807E-1,1E0,-1E0,1.2997646E-2,-7.5743175E-1,8.249806E-1,-9.334539E-1,2.6866597E-1,3.217601E-1,1E0,-4E-2,-4.7050554E-1,-3.6614385E-2,-5.0038877E-3,7.3929145E-3,3.7562434E-2,-2.6731516E-4,-4E-2,-1.4294834E-2,5.6405836E-1,-6.5663517E-1,9.6058947E-1,1.193316E-2,4E-2,1.2345801E-2,-3.7352044E-2,3.8328784E-4,3.2810647E-2,-1E0,9.311585E-3,5.2960687E-3,4E-2,-4E-2,-1.5740415E-2],"categories":[],"categories_nodes":[],"categories_segments":[],"categories_sizes":[],"default_left":[0,0,0,0,0,0,0,0,0,0,0,0,0,0,0,0,0,0,0,0,0,0,0,0,0,0,0,0,0,0,0,0,0,0,0,0,0,0,0],"id":41,"left_children":[1,3,5,7,9,11,13,15,-1,17,19,21,23,25,27,-1,29,-1,-1,-1,-1,-1,-1,-1,31,33,35,-1,-1,-1,-1,-1,-1,37,-1,-1,-1,-1,-1],"loss_changes":[1.574169E4,6.236035E1,1.1960889E2,2.0026855E1,3.3783405E1,2.119728E1,2.2682617E1,1.6264648E0,0E0,1.8488235E0,1.5102348E0,4.2058277E0,5.63632E0,3.821079E1,1.7592773E0,0E0,7.8810806E0,0E0,0E0,0E0,0E0,0E0,0E0,0E0,2.4878497E0,8.893319E0,2.5056953E0,0E0,0E0,0E0,0E0,0E0,0E0,4.814911E-1,0E0,0E0,0E0,0E0,0E0],"parents":[2147483647,0,0,1,1,2,2,3,3,4,4,5,5,6,6,7,7,9,9,10,10,11,11,12,12,13,13,14,14,16,16,24,24,25,25,26,26,33,33],"right_children":[2,4,6,8,10,12,14,16,-1,18,20,22,24,26,28,-1,30,-1,-1,-1,-1,-1,-1,-1,32,34,36,-1,-1,-1,-1,-1,-1,38,-1,-1,-1,-1,-1],"split_conditions":[5.627759E-1,4.37E-1,3.93E1,9.605018E-1,0E0,8.9744E-1,2.38E-1,5.0759006E-1,1.2997646E-2,7.0058E-1,6.3674E-1,5.755742E0,9.03528E-1,9.6066E-1,3.8396937E-1,-4E-2,1E0,-3.6614385E-2,-5.0038877E-3,7.3929145E-3,3.7562434E-2,-2.6731516E-4,-4E-2,-1.4294834E-2,8.865994E-1,9.86763E-1,9.913043E1,1.193316E-2,4E-2,1.2345801E-2,-3.7352044E-2,3.8328784E-4,3.2810647E-2,9.96E1,9.311585E-3,5.2960687E-3,4E-2,-4E-2,-1.5740415E-2],"split_indices":[26,15,3,1,4,6,15,7,0,6,6,9,12,6,27,0,21,0,0,0,0,0,0,0,27,12,5,0,0,0,0,0,0,3,0,0,0,0,0],"split_type":[0,0,0,0,0,0,0,0,0,0,0,0,0,0,0,0,0,0,0,0,0,0,0,0,0,0,0,0,0,0,0,0,0,0,0,0,0,0,0],"sum_hessian":[1.1700295E4,5.834928E3,5.8653667E3,5.787579E3,4.7349327E1,5.429162E1,5.8110747E3,5.7779146E3,9.664614E0,2.0378687E1,2.6970642E1,3.2536263E1,2.1755354E1,5.3717583E1,5.7573574E3,5.76328E3,1.4634729E1,1.4852119E1,5.526567E0,5.666021E0,2.130462E1,5.0261765E0,2.7510088E1,6.4469748E0,1.530838E1,2.1000763E1,3.271682E1,7.5209446E0,5.7498364E3,5.589101E0,9.045629E0,6.191681E0,9.116699E0,1.4935378E1,6.0653853E0,5.048173E0,2.7668648E1,7.4811273E0,7.4542513E0],"tree_param":{"num_deleted":"0","num_feature":"36","num_nodes":"39","size_leaf_vector":"0"}},{"base_weights":[-3.2690966E-3,-1E0,1E0,-1E0,1.9800171E-1,-2.4010755E-1,1E0,-4E-2,-5.369697E-1,-7.809102E-1,8.690793E-1,-8.043388E-1,3.3821487E-1,5.336135E-1,4E-2,-4E-2,2.1036346E-2,-9.3905926E-1,-3.4921663E-3,2.1894884E-1,4E-2,-4E-2,-1.7237706E-3,-1.04921935E-2,2.8987844E-2,-4.9989408E-1,3.986522E-2,-8.6173555E-3,-4E-2,-8.663427E-3,2.4022529E-2,-4E-2,1.3811803E-2],"categories":[],"categories_nodes":[],"categories_segments":[],"categories_sizes":[],"default_left":[0,0,0,0,0,0,0,0,0,0,0,0,0,0,0,0,0,0,0,0,0,0,0,0,0,0,0,0,0,0,0,0,0],"id":42,"left_children":[1,3,5,7,9,11,13,-1,15,17,19,21,23,25,-1,-1,-1,27,-1,29,-1,-1,-1,-1,-1,31,-1,-1,-1,-1,-1,-1,-1],"loss_changes":[1.5157261E4,1.0742676E2,5.4188965E1,2.8139648E0,5.3149467E1,1.3473917E1,7.364258E0,0E0,1.7411003E1,3.1571217E0,4.7874146E0,3.29247E0,5.734157E0,2.5639566E1,0E0,0E0,0E0,1.5328579E0,0E0,3.3115625E0,0E0,0E0,0E0,0E0,0E0,1.3123022E1,0E0,0E0,0E0,0E0,0E0,0E0,0E0],"parents":[2147483647,0,0,1,1,2,2,3,3,4,4,5,5,6,6,8,8,9,9,10,10,11,11,12,12,13,13,17,17,19,19,25,25],"right_children":[2,4,6,8,10,12,14,-1,16,18,20,22,24,26,-1,-1,-1,28,-1,30,-1,-1,-1,-1,-1,32,-1,-1,-1,-1,-1,-1,-1],"split_conditions":[7.070661E-1,3.94E-1,3.93E1,5.0759006E-1,8.056604E1,6.42E-1,7.632631E-1,-4E-2,9.96E1,6.7429E-1,7.53607E-1,8.425023E-1,9.49474E-1,4.37E-1,4E-2,-4E-2,2.1036346E-2,5.4595857E0,-3.4921663E-3,8.4E-1,4E-2,-4E-2,-1.7237706E-3,-1.04921935E-2,2.8987844E-2,5.0759006E-1,3.986522E-2,-8.6173555E-3,-4E-2,-8.663427E-3,2.4022529E-2,-4E-2,1.3811803E-2],"split_indices":[35,15,3,7,5,15,35,0,3,6,12,7,12,15,0,0,0,9,0,13,0,0,0,0,0,7,0,0,0,0,0,0,0],"split_type":[0,0,0,0,0,0,0,0,0,0,0,0,0,0,0,0,0,0,0,0,0,0,0,0,0,0,0,0,0,0,0,0,0],"sum_hessian":[1.1361439E4,5.7041514E3,5.657288E3,5.6307104E3,7.344059E1,3.3703083E1,5.623585E3,5.6052993E3,2.5411184E1,2.9487968E1,4.3952625E1,1.672849E1,1.6974592E1,4.5937565E1,5.5776475E3,1.7541513E1,7.869672E0,2.2796076E1,6.6918917E0,1.1724052E1,3.2228573E1,1.1532855E1,5.1956353E0,6.720247E0,1.0254345E1,1.3938457E1,3.1999107E1,5.224984E0,1.7571093E1,5.7139564E0,6.010096E0,6.300824E0,7.637632E0],"tree_param":{"num_deleted":"0","num_feature":"36","num_nodes":"33","size_leaf_vector":"0"}},{"base_weights":[-1.6850855E-3,-1E0,1E0,-1E0,2.1485314E-1,-3.110763E-1,1E0,-1E0,-8.323954E-3,-8.5202634E-1,8.3344525E-1,-3.7855297E-2,3.4504998E-1,5.0260097E-1,1E0,-4E-2,-8.058676E-3,-3.7712093E-2,-9.531216E-3,2.107971E-1,4E-2,-4.6694023E-3,2.4898013E-2,-5.087335E-1,3.976809E-2,4.9435887E-1,4E-2,2.2343304E-2,-1.1864791E-2,-4E-2,1.2683136E-2,-1.306606E-2,3.4108493E-2],"categories":[],"categories_nodes":[],"categories_segments":[],"categories_sizes":[],"default_left":[0,0,0,0,0,0,0,0,0,0,0,0,0,0,0,0,0,0,0,0,0,0,0,0,0,0,0,0,0,0,0,0,0],"id":43,"left_children":[1,3,5,7,9,11,13,15,-1,17,19,-1,21,23,25,-1,-1,-1,-1,27,-1,-1,-1,29,-1,31,-1,-1,-1,-1,-1,-1,-1],"loss_changes":[1.4585011E4,1.0993555E2,4.9114258E1,4.033203E0,5.318244E1,1.4195268E1,9.461426E0,1.9262695E0,0E0,7.964668E-1,5.289337E0,0E0,2.7397532E0,2.7905659E1,1.8383789E0,0E0,0E0,0E0,0E0,3.8083642E0,0E0,0E0,0E0,1.3243208E1,0E0,7.320653E0,0E0,0E0,0E0,0E0,0E0,0E0,0E0],"parents":[2147483647,0,0,1,1,2,2,3,3,4,4,5,5,6,6,7,7,9,9,10,10,12,12,13,13,14,14,19,19,23,23,25,25],"right_children":[2,4,6,8,10,12,14,16,-1,18,20,-1,22,24,26,-1,-1,-1,-1,28,-1,-1,-1,30,-1,32,-1,-1,-1,-1,-1,-1,-1],"split_conditions":[7.070661E-1,3.94E-1,1E0,9.91845E-1,0E0,8.05E-1,7.632631E-1,9.946524E1,-8.323954E-3,6.7429E-1,7.53607E-1,-3.7855297E-2,9.43172E-1,4.37E-1,4.79E1,-4E-2,-8.058676E-3,-3.7712093E-2,-9.531216E-3,5.6664267E0,4E-2,-4.6694023E-3,2.4898013E-2,5.2758807E-1,3.976809E-2,8.558559E1,4E-2,2.2343304E-2,-1.1864791E-2,-4E-2,1.2683136E-2,-1.306606E-2,3.4108493E-2],"split_indices":[35,15,8,12,4,14,35,5,0,6,12,0,12,15,3,0,0,0,0,9,0,0,0,7,0,5,0,0,0,0,0,0,0],"split_type":[0,0,0,0,0,0,0,0,0,0,0,0,0,0,0,0,0,0,0,0,0,0,0,0,0,0,0,0,0,0,0,0,0],"sum_hessian":[1.1062741E4,5.5473364E3,5.515405E3,5.474309E3,7.302741E1,2.6860313E1,5.4885444E3,5.4653354E3,8.973317E0,2.6208616E1,4.6818794E1,1.3204709E1,1.3655605E1,4.8576523E1,5.439968E3,5.4598594E3,5.476415E0,2.1004684E1,5.2039313E0,1.3127595E1,3.36912E1,5.3708663E0,8.284739E0,1.5655282E1,3.292124E1,1.7108673E1,5.422859E3,7.9602985E0,5.1672964E0,7.321582E0,8.3337E0,5.024793E0,1.208388E1],"tree_param":{"num_deleted":"0","num_feature":"36","num_nodes":"33","size_leaf_vector":"0"}},{"base_weights":[-2.618594E-3,-1E0,1E0,-4E-2,-7.331088E-2,-3.872679E-1,1E0,-3.7349418E-2,7.0485526E-1,-7.407465E-1,4.640916E-1,4.2576203E-1,4E-2,3.7853613E-2,-2.8045864E-3,-4E-2,-7.9446286E-2,5.3808945E-3,2.6499318E-2,-4.6610767E-1,9.358329E-1,-1.8621232E-2,9.933395E-3,-4E-2,1.3244824E-1,-5.5792317E-4,4E-2,-3.6271818E-2,3.464201E-2],"categories":[],"categories_nodes":[],"categories_segments":[],"categories_sizes":[],"default_left":[0,0,0,0,0,0,0,0,0,0,0,0,0,0,0,0,0,0,0,0,0,0,0,0,0,0,0,0,0],"id":44,"left_children":[1,3,5,-1,7,9,11,-1,13,15,17,19,-1,-1,-1,-1,21,-1,-1,23,25,-1,-1,-1,27,-1,-1,-1,-1],"loss_changes":[1.4016823E4,3.620703E1,9.869092E1,0E0,3.398504E1,1.7376112E1,2.5175293E1,0E0,5.484771E0,7.26013E0,8.029015E-1,4.1380398E1,0E0,0E0,0E0,0E0,2.769904E0,0E0,0E0,1.7946169E1,7.242775E0,0E0,0E0,0E0,2.0821144E1,0E0,0E0,0E0,0E0],"parents":[2147483647,0,0,1,1,2,2,4,4,5,5,6,6,8,8,9,9,10,10,11,11,16,16,19,19,20,20,24,24],"right_children":[2,4,6,-1,8,10,12,-1,14,16,18,20,-1,-1,-1,-1,22,-1,-1,24,26,-1,-1,-1,28,-1,-1,-1,-1],"split_conditions":[6.366888E-1,3.94E-1,3.93E1,-4E-2,8.056604E1,9.82146E-1,3.94E-1,-3.7349418E-2,9.90566E1,8.05E-1,9.9571E-1,9.9206345E1,4E-2,3.7853613E-2,-2.8045864E-3,-4E-2,5.382159E-1,5.3808945E-3,2.6499318E-2,9.49E1,8.351E-1,-1.8621232E-2,9.933395E-3,-4E-2,5.2758807E-1,-5.5792317E-4,4E-2,-3.6271818E-2,3.464201E-2],"split_indices":[35,15,3,0,5,12,15,0,5,14,6,5,0,0,0,0,1,0,0,3,6,0,0,0,7,0,0,0,0],"split_type":[0,0,0,0,0,0,0,0,0,0,0,0,0,0,0,0,0,0,0,0,0,0,0,0,0,0,0,0,0],"sum_hessian":[1.0739606E4,5.336403E3,5.403204E3,5.293099E3,4.3303654E1,4.94071E1,5.353797E3,2.046315E1,2.2840504E1,3.5436333E1,1.3970769E1,8.348872E1,5.270308E3,1.720351E1,5.636994E0,2.2812063E1,1.26242695E1,7.709707E0,6.261062E0,3.0255959E1,5.3232765E1,5.6379642E0,6.9863057E0,1.0310869E1,1.994509E1,6.5589285E0,4.6673836E1,7.7909646E0,1.2154125E1],"tree_param":{"num_deleted":"0","num_feature":"36","num_nodes":"29","size_leaf_vector":"0"}},{"base_weights":[-1.5728078E-3,-1E0,1E0,-1E0,-9.130768E-2,-4.8766217E-1,1E0,-4E-2,-1.1230175E-2,-3.6678243E-2,6.7845017E-1,-7.779972E-1,1.6582442E-2,3.9629284E-1,4E-2,3.851971E-2,-7.6779523E-3,9.520528E-4,-3.736215E-2,-5.456412E-1,8.8994175E-1,-4E-2,-2.560827E-2,-1.4942356E-2,4E-2,1.6169483E-2,-2.846775E-2],"categories":[],"categories_nodes":[],"categories_segments":[],"categories_sizes":[],"default_left":[0,0,0,0,0,0,0,0,0,0,0,0,0,0,0,0,0,0,0,0,0,0,0,0,0,0,0],"id":45,"left_children":[1,3,5,7,9,11,13,-1,-1,-1,15,17,-1,19,-1,-1,-1,-1,-1,21,23,-1,25,-1,-1,-1,-1],"loss_changes":[1.3510608E4,3.2804688E1,9.65625E1,9.692383E-1,3.0818373E1,1.3177989E1,2.8228516E1,0E0,0E0,0E0,7.0945244E0,4.8300495E0,0E0,4.2488377E1,0E0,0E0,0E0,0E0,0E0,9.396414E0,1.4309311E1,0E0,7.5740986E0,0E0,0E0,0E0,0E0],"parents":[2147483647,0,0,1,1,2,2,3,3,4,4,5,5,6,6,10,10,11,11,13,13,19,19,20,20,22,22],"right_children":[2,4,6,8,10,12,14,-1,-1,-1,16,18,-1,20,-1,-1,-1,-1,-1,22,24,-1,26,-1,-1,-1,-1],"split_conditions":[6.366888E-1,3.94E-1,1E0,5.9893024E-1,8.056604E1,9.88799E-1,3.94E-1,-4E-2,-1.1230175E-2,-3.6678243E-2,5.7365723E0,5.6664267E0,1.6582442E-2,7.632631E-1,4E-2,3.851971E-2,-7.6779523E-3,9.520528E-4,-3.736215E-2,4.8327193E-1,9.55E1,-4E-2,6.1944056E0,-1.4942356E-2,4E-2,1.6169483E-2,-2.846775E-2],"split_indices":[35,15,8,7,5,12,15,0,0,0,9,9,0,35,0,0,0,0,0,7,5,0,9,0,0,0,0],"split_type":[0,0,0,0,0,0,0,0,0,0,0,0,0,0,0,0,0,0,0,0,0,0,0,0,0,0,0],"sum_hessian":[1.046055E4,5.193299E3,5.267251E3,5.1522773E3,4.1021812E1,4.1583202E1,5.2256675E3,5.14677E3,5.5073013E0,1.9703613E1,2.13182E1,3.20236E1,9.559602E0,8.367972E1,5.141988E3,1.608528E1,5.23292E0,5.3184056E0,2.6705196E1,2.845703E1,5.522269E1,1.1231954E1,1.7225075E1,6.0765405E0,4.914615E1,1.107902E1,6.146056E0],"tree_param":{"num_deleted":"0","num_feature":"36","num_nodes":"27","size_leaf_vector":"0"}},{"base_weights":[-2.1016777E-3,-1E0,1E0,-1E0,1.0926461E-1,-9.143989E-1,1E0,-1E0,1.8231778E-1,-6.5367115E-1,7.8010845E-1,-4E-2,-1.05079645E-2,-6.6848025E-2,1E0,-4E-2,-9.400681E-3,-1.6625272E-2,3.1087952E-2,-3.48957E-2,-9.353636E-3,6.2982715E-3,3.7680313E-2,-2.6135407E-2,2.0450825E-2,1.2856689E-1,1E0,-2.4570078E-1,2.1772273E-2,5.420677E-1,4E-2,-2.063457E-2,5.13681E-3,-2.9789893E-2,3.4459252E-2],"categories":[],"categories_nodes":[],"categories_segments":[],"categories_sizes":[],"default_left":[0,0,0,0,0,0,0,0,0,0,0,0,0,0,0,0,0,0,0,0,0,0,0,0,0,0,0,0,0,0,0,0,0,0,0],"id":46,"left_children":[1,3,5,7,9,11,13,15,17,19,21,-1,-1,23,25,-1,-1,-1,-1,-1,-1,-1,-1,-1,-1,27,29,31,-1,33,-1,-1,-1,-1,-1],"loss_changes":[1.2948436E4,5.3303223E1,1.0053369E2,1.6738281E1,2.5504623E1,8.2374763E-1,2.1589355E1,1.875E0,6.526059E0,1.4010057E0,2.0012112E0,0E0,0E0,8.838722E0,1.5036621E1,0E0,0E0,0E0,0E0,0E0,0E0,0E0,0E0,0E0,0E0,4.690501E0,5.626953E0,2.0246308E0,0E0,2.0046501E1,0E0,0E0,0E0,0E0,0E0],"parents":[2147483647,0,0,1,1,2,2,3,3,4,4,5,5,6,6,7,7,8,8,9,9,10,10,13,13,14,14,25,25,26,26,27,27,29,29],"right_children":[2,4,6,8,10,12,14,16,18,20,22,-1,-1,24,26,-1,-1,-1,-1,-1,-1,-1,-1,-1,-1,28,30,32,-1,34,-1,-1,-1,-1,-1],"split_conditions":[5.627759E-1,4.37E-1,4E0,9.4988966E-1,8.056604E1,8.808438E-1,4.3195683E-1,5.9893024E-1,9.929078E1,4.6605048E-1,4.3990475E-1,-4E-2,-1.05079645E-2,3.48E-1,3.93E1,-4E-2,-9.400681E-3,-1.6625272E-2,3.1087952E-2,-3.48957E-2,-9.353636E-3,6.2982715E-3,3.7680313E-2,-2.6135407E-2,2.0450825E-2,9.2485857E-1,1.7E-1,9.24E-1,2.1772273E-2,9.55E1,4E-2,-2.063457E-2,5.13681E-3,-2.9789893E-2,3.4459252E-2],"split_indices":[26,15,30,1,5,27,27,7,5,26,26,0,0,15,3,0,0,0,0,0,0,0,0,0,0,1,15,14,0,5,0,0,0,0,0],"split_type":[0,0,0,0,0,0,0,0,0,0,0,0,0,0,0,0,0,0,0,0,0,0,0,0,0,0,0,0,0,0,0,0,0,0,0],"sum_hessian":[1.0156179E4,5.0617856E3,5.094393E3,5.0195693E3,4.2216286E1,2.4936293E1,5.0694565E3,5.0089565E3,1.0612808E1,1.9579058E1,2.2637228E1,1.9806479E1,5.129815E0,1.8042418E1,5.0514146E3,5.0028423E3,6.114026E0,5.4920673E0,5.120741E0,1.0276684E1,9.302373E0,6.2749557E0,1.6362272E1,9.019711E0,9.022707E0,2.144019E1,5.029974E3,1.1548826E1,9.891363E0,3.94504E1,4.990524E3,6.5117645E0,5.0370617E0,6.8639007E0,3.25865E1],"tree_param":{"num_deleted":"0","num_feature":"36","num_nodes":"35","size_leaf_vector":"0"}},{"base_weights":[-1.1576806E-3,-1E0,1E0,-1E0,2.2294682E-1,-3.931688E-1,1E0,-1E0,1.4737198E-2,-6.9199204E-1,8.2727623E-1,-3.608062E-2,2.6393282E-1,3.1883177E-1,1E0,-1E0,-3.8128904E-1,-3.609989E-2,-0E0,4.7149807E-3,3.703128E-2,-1.4724829E-2,5.436744E-1,-5.1072925E-1,8.500093E-1,1.774335E-2,4E-2,-4E-2,-1.2465298E-2,-3.741512E-2,1.3744293E-2,1.1250036E-3,3.042581E-2,-4E-2,5.859835E-3,7.2714715E-4,4E-2],"categories":[],"categories_nodes":[],"categories_segments":[],"categories_sizes":[],"default_left":[0,0,0,0,0,0,0,0,0,0,0,0,0,0,0,0,0,0,0,0,0,0,0,0,0,0,0,0,0,0,0,0,0,0,0,0,0],"id":47,"left_children":[1,3,5,7,9,11,13,15,-1,17,19,-1,21,23,25,27,29,-1,-1,-1,-1,-1,31,33,35,-1,-1,-1,-1,-1,-1,-1,-1,-1,-1,-1,-1],"loss_changes":[1.2455311E4,8.018457E1,8.460547E1,2.0190918E1,3.301796E1,1.63171E1,1.8618164E1,4.3242188E0,0E0,3.5491924E0,1.9186573E0,0E0,4.8563232E0,2.2947876E1,2.0410156E-1,7.9248047E-1,9.755167E0,0E0,0E0,0E0,0E0,0E0,1.6913886E0,9.434933E0,3.6997414E0,0E0,0E0,0E0,0E0,0E0,0E0,0E0,0E0,0E0,0E0,0E0,0E0],"parents":[2147483647,0,0,1,1,2,2,3,3,4,4,5,5,6,6,7,7,9,9,10,10,12,12,13,13,14,14,15,15,16,16,22,22,23,23,24,24],"right_children":[2,4,6,8,10,12,14,16,-1,18,20,-1,22,24,26,28,30,-1,-1,-1,-1,-1,32,34,36,-1,-1,-1,-1,-1,-1,-1,-1,-1,-1,-1,-1],"split_conditions":[5.86841E-1,4.37E-1,3.93E1,9.6433294E-1,8.056604E1,8.9744E-1,2.38E-1,5.0759006E-1,1.4737198E-2,7.3294E-1,4.178627E-1,-3.608062E-2,8.23E-1,9.6066E-1,4.3195683E-1,3.94E-1,6.39E1,-3.609989E-2,-0E0,4.7149807E-3,3.703128E-2,-1.4724829E-2,9.82146E-1,9.96E1,9.923077E1,1.774335E-2,4E-2,-4E-2,-1.2465298E-2,-3.741512E-2,1.3744293E-2,1.1250036E-3,3.042581E-2,-4E-2,5.859835E-3,7.2714715E-4,4E-2],"split_indices":[26,15,3,1,5,6,15,7,0,6,26,0,14,6,27,15,3,0,0,0,0,0,12,3,5,0,0,0,0,0,0,0,0,0,0,0,0],"split_type":[0,0,0,0,0,0,0,0,0,0,0,0,0,0,0,0,0,0,0,0,0,0,0,0,0,0,0,0,0,0,0,0,0,0,0,0,0],"sum_hessian":[9.883147E3,4.9392524E3,4.9438945E3,4.8871235E3,5.2129005E1,4.1705147E1,4.9021895E3,4.8781777E3,8.945781E0,2.0365135E1,3.1763872E1,2.3131193E1,1.8573952E1,4.4472725E1,4.8577163E3,4.861074E3,1.7103743E1,1.4939014E1,5.4261203E0,5.047694E0,2.6716177E1,5.0787387E0,1.34952135E1,1.7184975E1,2.728775E1,8.427777E0,4.8492886E3,4.8551987E3,5.8755956E0,9.43482E0,7.6689224E0,5.410576E0,8.084638E0,7.7954316E0,9.389543E0,5.174735E0,2.2113014E1],"tree_param":{"num_deleted":"0","num_feature":"36","num_nodes":"37","size_leaf_vector":"0"}},{"base_weights":[-3.4615134E-3,-1E0,1E0,-1E0,2.6126283E-1,-1.742276E-1,1E0,-4E-2,-4.503506E-1,-6.6759175E-1,8.9793783E-1,-7.4976563E-1,3.7250698E-1,4.377025E-1,1E0,-8.427623E-1,2.7123852E-2,-3.3791788E-2,-3.0716935E-3,1.450142E-2,3.927269E-2,-3.9538816E-2,-1.6404755E-3,-0E0,2.760751E-2,-5.139332E-1,3.7497982E-2,4.1305345E-1,4E-2,-3.953363E-2,-7.7552614E-3,-4E-2,7.181541E-3,-0E0,2.7602086E-2],"categories":[],"categories_nodes":[],"categories_segments":[],"categories_sizes":[],"default_left":[0,0,0,0,0,0,0,0,0,0,0,0,0,0,0,0,0,0,0,0,0,0,0,0,0,0,0,0,0,0,0,0,0,0,0],"id":48,"left_children":[1,3,5,7,9,11,13,-1,15,17,19,21,23,25,27,29,-1,-1,-1,-1,-1,-1,-1,-1,-1,31,-1,33,-1,-1,-1,-1,-1,-1,-1],"loss_changes":[1.1983922E4,9.030615E1,4.5614746E1,5.73584E0,3.7055435E1,1.2453877E1,1.11640625E1,0E0,1.5694797E1,2.3183966E0,4.1295624E-1,2.8149939E0,2.496815E0,2.3992294E1,1.2304688E0,1.5224895E0,0E0,0E0,0E0,0E0,0E0,0E0,0E0,0E0,0E0,9.084283E0,0E0,1.774204E0,0E0,0E0,0E0,0E0,0E0,0E0,0E0],"parents":[2147483647,0,0,1,1,2,2,3,3,4,4,5,5,6,6,8,8,9,9,10,10,11,11,12,12,13,13,14,14,15,15,25,25,27,27],"right_children":[2,4,6,8,10,12,14,-1,16,18,20,22,24,26,28,30,-1,-1,-1,-1,-1,-1,-1,-1,-1,32,-1,34,-1,-1,-1,-1,-1,-1,-1],"split_conditions":[7.070661E-1,6.17E-1,3.93E1,5E0,8.056604E1,8.23E-1,7.632631E-1,-4E-2,5.0759006E-1,6.366888E-1,5.8245534E-1,8.425023E-1,9.75E-1,4.37E-1,4.79E1,4.45E-1,2.7123852E-2,-3.3791788E-2,-3.0716935E-3,1.450142E-2,3.927269E-2,-3.9538816E-2,-1.6404755E-3,-0E0,2.760751E-2,5.2758807E-1,3.7497982E-2,7.78E-1,4E-2,-3.953363E-2,-7.7552614E-3,-4E-2,7.181541E-3,-0E0,2.7602086E-2],"split_indices":[35,13,3,30,5,14,35,0,7,35,35,7,14,15,3,14,0,0,0,0,0,0,0,0,0,7,0,15,0,0,0,0,0,0,0],"split_type":[0,0,0,0,0,0,0,0,0,0,0,0,0,0,0,0,0,0,0,0,0,0,0,0,0,0,0,0,0,0,0,0,0,0,0],"sum_hessian":[9.574314E3,4.805004E3,4.76931E3,4.7498257E3,5.517831E1,3.1747875E1,4.7375625E3,4.7228164E3,2.700948E1,2.2189234E1,3.298908E1,1.5191111E1,1.6556765E1,4.2863586E1,4.6946987E3,2.0801287E1,6.2081914E0,1.568667E1,6.502563E0,7.1152573E0,2.587382E1,1.0161508E1,5.029603E0,9.018641E0,7.5381236E0,1.4522974E1,2.8340614E1,1.03036995E1,4.684395E3,1.5330145E1,5.4711423E0,6.58012E0,7.9428535E0,5.1600227E0,5.1436768E0],"tree_param":{"num_deleted":"0","num_feature":"36","num_nodes":"35","size_leaf_vector":"0"}},{"base_weights":[-1.289424E-3,-1E0,1E0,-1E0,1.6135503E-1,-1.095819E-1,1E0,-4E-2,-5.1932114E-1,-7.4048096E-1,7.712507E-1,-3.165889E-2,2.6745844E-1,4.3625215E-1,1E0,-8.9098996E-1,2.9798169E-2,-9.31017E-1,-0E0,1.6081439E-1,3.9632272E-2,-1.3354912E-2,6.0788953E-1,-5.840482E-1,8.952502E-1,5.2420866E-1,4E-2,-4E-2,-8.937069E-3,-1.3052359E-2,-4E-2,2.0933218E-2,-1.2531448E-2,2.9727565E-2,6.231028E-3,-4E-2,6.563442E-3,1.0978261E-2,3.888055E-2,-0E0,3.188224E-2],"categories":[],"categories_nodes":[],"categories_segments":[],"categories_sizes":[],"default_left":[0,0,0,0,0,0,0,0,0,0,0,0,0,0,0,0,0,0,0,0,0,0,0,0,0,0,0,0,0,0,0,0,0,0,0,0,0,0,0,0,0],"id":49,"left_children":[1,3,5,7,9,11,13,-1,15,17,19,-1,21,23,25,27,-1,29,-1,31,-1,-1,33,35,37,39,-1,-1,-1,-1,-1,-1,-1,-1,-1,-1,-1,-1,-1,-1,-1],"loss_changes":[1.1535655E4,8.959473E1,4.1328613E1,3.9418945E0,4.000962E1,1.0479865E1,1.1009277E1,0E0,1.7409805E1,4.321989E0,5.0760384E0,0E0,6.171742E0,2.3428337E1,2.7734375E-1,1.2515182E0,0E0,2.973156E-1,0E0,3.5618122E0,0E0,0E0,6.1069345E-1,8.750591E0,5.862942E-1,2.6217504E0,0E0,0E0,0E0,0E0,0E0,0E0,0E0,0E0,0E0,0E0,0E0,0E0,0E0,0E0,0E0],"parents":[2147483647,0,0,1,1,2,2,3,3,4,4,5,5,6,6,8,8,9,9,10,10,12,12,13,13,14,14,15,15,17,17,19,19,22,22,23,23,24,24,25,25],"right_children":[2,4,6,8,10,12,14,-1,16,18,20,-1,22,24,26,28,-1,30,-1,32,-1,-1,34,36,38,40,-1,-1,-1,-1,-1,-1,-1,-1,-1,-1,-1,-1,-1,-1,-1],"split_conditions":[7.070661E-1,3.94E-1,3.93E1,4.8327193E-1,8.056604E1,3.48E-1,7.632631E-1,-4E-2,5E0,6.7429E-1,7.53607E-1,-3.165889E-2,8.8823E-1,3.94E-1,4.96E1,9.16E1,2.9798169E-2,5.4722705E0,-0E0,5.6240177E0,3.9632272E-2,-1.3354912E-2,9.307662E-1,5.2758807E-1,6.17E-1,9.5431E-1,4E-2,-4E-2,-8.937069E-3,-1.3052359E-2,-4E-2,2.0933218E-2,-1.2531448E-2,2.9727565E-2,6.231028E-3,-4E-2,6.563442E-3,1.0978261E-2,3.888055E-2,-0E0,3.188224E-2],"split_indices":[35,15,3,7,5,15,35,0,30,6,12,0,12,15,3,3,0,9,0,9,0,0,0,7,13,12,0,0,0,0,0,0,0,0,0,0,0,0,0,0,0],"split_type":[0,0,0,0,0,0,0,0,0,0,0,0,0,0,0,0,0,0,0,0,0,0,0,0,0,0,0,0,0,0,0,0,0,0,0,0,0,0,0,0,0],"sum_hessian":[9.298338E3,4.6606475E3,4.63769E3,4.595511E3,6.513655E1,3.2464745E1,4.605225E3,4.5672173E3,2.8293976E1,2.5821215E1,3.931534E1,1.0668518E1,2.1796225E1,4.2141632E1,4.5630835E3,2.2733803E1,5.560172E0,2.0085896E1,5.7353187E0,1.2136295E1,2.7179043E1,7.581305E0,1.421492E1,1.2619344E1,2.9522287E1,1.2737556E1,4.5503457E3,1.7512724E1,5.2210784E0,5.306528E0,1.4779367E1,7.059548E0,5.076747E0,8.943506E0,5.2714143E0,5.6532893E0,6.9660544E0,5.18939E0,2.4332897E1,5.0612507E0,7.6763062E0],"tree_param":{"num_deleted":"0","num_feature":"36","num_nodes":"41","size_leaf_vector":"0"}},{"base_weights":[-1.113815E-3,-1E0,1E0,