{"learner":{"attributes":{"best_iteration":"76","best_score":"0.03211267710175059","scikit_learn":"{\"_estimator_type\": \"classifier\"}"},"feature_names":["tai_start_score","tai_stop_score","inner_stops","orf_type","blast_pid","neg_log10_blast_evalue","blast_offset","blast_percentage_aligned","rna_score","tai_mean_score","blast_match","log_orf_len","has_canonical_start","has_canonical_stop"],"feature_types":["float","float","int","int","float","float","float","float","float","float","int","float","int","int"],"gradient_booster":{"model":{"gbtree_model_param":{"num_parallel_tree":"1","num_trees":"127"},"iteration_indptr":[0,1,2,3,4,5,6,7,8,9,10,11,12,13,14,15,16,17,18,19,20,21,22,23,24,25,26,27,28,29,30,31,32,33,34,35,36,37,38,39,40,41,42,43,44,45,46,47,48,49,50,51,52,53,54,55,56,57,58,59,60,61,62,63,64,65,66,67,68,69,70,71,72,73,74,75,76,77,78,79,80,81,82,83,84,85,86,87,88,89,90,91,92,93,94,95,96,97,98,99,100,101,102,103,104,105,106,107,108,109,110,111,112,113,114,115,116,117,118,119,120,121,122,123,124,125,126,127],"tree_info":[0,0,0,0,0,0,0,0,0,0,0,0,0,0,0,0,0,0,0,0,0,0,0,0,0,0,0,0,0,0,0,0,0,0,0,0,0,0,0,0,0,0,0,0,0,0,0,0,0,0,0,0,0,0,0,0,0,0,0,0,0,0,0,0,0,0,0,0,0,0,0,0,0,0,0,0,0,0,0,0,0,0,0,0,0,0,0,0,0,0,0,0,0,0,0,0,0,0,0,0,0,0,0,0,0,0,0,0,0,0,0,0,0,0,0,0,0,0,0,0,0,0,0,0,0,0,0],"trees":[{"base_weights":[-5.1437416E-3,-1.8393351E0,1.9417791E0,-1.9010499E0,-7.061685E-1,-4.490132E-1,1.9864709E0,-1.5799569E0,-1.9576459E0,-1.7959158E0,2.989552E-1,-1.8266855E0,1.2151378E0,1.9935387E0,-1.8367347E-1,-4.4129574E-1,-1.9946034E-1,-1.7796215E0,-1.9694642E0,-1.938049E-1,-1.1557634E0,6.2666047E-1,-1.9175258E-1,-3.989086E-3,-1.8803355E-1,-9.174145E-1,1.3765913E0,1.0105171E0,1.9987325E-1,-1.7840756E0,1.3345662E-1,-1.8126246E0,-2.7410507E-1,-1.9953707E-1,-1.9364265E0,-4.8278028E-1,-1.4836372E0,1.3970044E0,-4.289282E-1,-1.3333334E-1,-3.5830312E-3,1.4436793E0,-1E-1,-6.40651E-1,1.5235188E0,-1.8164329E-1,-3.5830312E-3,-1.3999212E0,6.0809135E-1,-1.9170109E0,-1.5247933E0,7.3752594E-1,-1.5294118E-1,-1.9627141E0,-1.7463088E0,-5.4231245E-2,-1.4666668E-1,-1.6741154E-1,-5.8684367E-1,-2.3750676E-1,1.7104686E0,8.840212E-1,-1.1045184E0,2.8296748E-1,1.5605042E0,5.429824E-1,-1.3497095E0,1.8009093E-1,6.57227E-1,-1.7839997E-1,-7.676274E-1,-9.532189E-2,1.2315916E0,-1.9565074E-1,-1.5949304E0,-1.816957E0,-9.7574866E-1,-2.172946E-2,1.2184789E-1,-1.6704987E0,-1.9711334E-1,-1.9568695E0,-1.2701821E0,1.3061982E-1,-5.466889E-1,-1.0221623E0,3.6155142E-2,7.9562086E-1,-1.393665E0,3.681467E-1,1.8596427E-1,-1.585835E-1,1.4349812E0,-1.2315407E0,1.0423497E-1,1.1092639E-1,-6.041664E-1,5.429824E-1,1.6225408E0,9.645655E-2,-2.5157586E-2,-1.5789475E-1,-2.5157586E-2,2.565516E-1,1.3061982E-1,1.8196557E-2,-1.3999401E-1,-9.620087E-2,1.5927926E-2,3.9155208E-2,1.5175472E-1,-8.6305045E-2,-1.773387E-1,-7.944523E-2,-1.8415059E-1,-4.3663178E-2,-1.6827567E-1,-1.337818E-1,-1.8500225E-1,-1.9753192E-1,-7.710669E-2,-1.7715055E-1,-2.0187056E-2,2.6764875E-2,-1.3055249E-1,-1.2727273E-1,-2.5157586E-2,-6.92998E-2,1.3019364E-1,-6.041664E-2,-1.6363637E-1,-4.9532097E-2,7.1170956E-2,1.17081285E-1,-5.4668892E-2,1.5854256E-1,-3.5830312E-3,-1.6421436E-1,-5.7805743E-2,-1.1111112E-1,1.8676369E-2,1.17081285E-1,-2.172946E-2,-2.172946E-2,1.7050342E-1,8.175013E-2,-2.9202003E-2],"categories":[],"categories_nodes":[],"categories_segments":[],"categories_sizes":[],"default_left":[1,1,0,0,1,1,0,0,0,0,0,0,0,0,0,0,0,1,1,0,0,0,0,0,0,0,0,1,0,1,0,0,0,0,0,0,0,0,0,0,0,0,0,1,0,0,0,1,0,1,0,0,0,0,0,0,0,0,0,0,0,0,0,0,0,0,0,0,0,0,0,0,0,0,0,0,0,0,0,0,0,1,0,0,0,0,0,0,0,0,0,0,0,0,0,0,0,0,0,0,0,0,0,0,0,0,0,0,0,0,0,0,0,0,0,0,0,0,0,0,0,0,0,0,0,0,0,0,0,0,0,0,0,0,0,0,0,0,0,0,0,0,0,0,0,0,0],"id":0,"left_children":[1,3,5,7,9,11,13,15,17,19,21,23,25,27,-1,29,-1,31,33,-1,35,37,-1,-1,-1,39,41,43,-1,45,47,49,51,-1,53,55,57,59,61,-1,-1,63,-1,65,67,-1,-1,69,71,73,75,77,-1,79,81,83,-1,-1,85,87,89,91,93,95,97,99,101,-1,103,-1,105,107,109,-1,111,113,115,-1,-1,117,-1,119,121,-1,123,125,-1,127,129,131,-1,133,135,137,-1,-1,139,141,143,-1,-1,-1,-1,145,-1,-1,-1,-1,-1,-1,-1,-1,-1,-1,-1,-1,-1,-1,-1,-1,-1,-1,-1,-1,-1,-1,-1,-1,-1,-1,-1,-1,-1,-1,-1,-1,-1,-1,-1,-1,-1,-1,-1,-1,-1,-1,-1],"loss_changes":[4.7668496E4,4.7933008E2,6.9277734E2,1.15353516E2,3.9112402E2,2.7651294E2,1.7542578E2,4.6269482E2,8.142578E0,1.3340332E1,1.365618E2,6.2377777E0,2.0126396E1,3.0376953E1,0E0,2.0350945E2,0E0,1.7145142E1,5.7421875E-1,0E0,6.695339E0,1.3323154E2,0E0,0E0,0E0,1.5860965E0,9.627899E0,3.0937977E1,0E0,4.404709E0,1.3576207E2,7.510742E0,1.2296393E1,0E0,8.125977E0,5.1851034E0,2.7932358E0,4.8838715E1,6.269322E1,0E0,0E0,6.3832626E0,0E0,8.360674E0,5.372612E0,0E0,0E0,9.344795E0,6.250548E1,7.1899414E-2,1.3836792E1,2.8110118E0,0E0,1.6835938E0,2.6576477E1,7.236757E0,0E0,0E0,2.603931E0,2.0326881E1,1.5222137E1,1.4125414E1,1.3932617E1,4.9393806E0,1.991539E0,1.6220775E0,1.105793E0,0E0,1.795033E0,0E0,1.1319246E1,1.5107323E1,1.7537323E1,0E0,2.7565842E0,1.0218811E-1,1.2970757E1,0E0,0E0,1.2999725E0,0E0,2.8337402E0,4.877446E1,0E0,5.2023797E0,4.4647646E-1,0E0,7.7861314E0,5.3581524E-1,3.0793822E0,0E0,5.4204826E0,3.5814323E0,1.0924362E1,0E0,0E0,1.5932255E0,2.2200365E0,6.8040085E0,0E0,0E0,0E0,0E0,2.1802425E0,0E0,0E0,0E0,0E0,0E0,0E0,0E0,0E0,0E0,0E0,0E0,0E0,0E0,0E0,0E0,0E0,0E0,0E0,0E0,0E0,0E0,0E0,0E0,0E0,0E0,0E0,0E0,0E0,0E0,0E0,0E0,0E0,0E0,0E0,0E0,0E0,0E0,0E0,0E0,0E0,0E0,0E0,0E0],"parents":[2147483647,0,0,1,1,2,2,3,3,4,4,5,5,6,6,7,7,8,8,9,9,10,10,11,11,12,12,13,13,15,15,17,17,18,18,20,20,21,21,25,25,26,26,27,27,29,29,30,30,31,31,32,32,34,34,35,35,36,36,37,37,38,38,41,41,43,43,44,44,47,47,48,48,49,49,50,50,51,51,53,53,54,54,55,55,58,58,59,59,60,60,61,61,62,62,63,63,64,64,65,65,66,66,68,68,70,70,71,71,72,72,74,74,75,75,76,76,79,79,81,81,82,82,84,84,85,85,87,87,88,88,89,89,91,91,92,92,93,93,96,96,97,97,98,98,103,103],"right_children":[2,4,6,8,10,12,14,16,18,20,22,24,26,28,-1,30,-1,32,34,-1,36,38,-1,-1,-1,40,42,44,-1,46,48,50,52,-1,54,56,58,60,62,-1,-1,64,-1,66,68,-1,-1,70,72,74,76,78,-1,80,82,84,-1,-1,86,88,90,92,94,96,98,100,102,-1,104,-1,106,108,110,-1,112,114,116,-1,-1,118,-1,120,122,-1,124,126,-1,128,130,132,-1,134,136,138,-1,-1,140,142,144,-1,-1,-1,-1,146,-1,-1,-1,-1,-1,-1,-1,-1,-1,-1,-1,-1,-1,-1,-1,-1,-1,-1,-1,-1,-1,-1,-1,-1,-1,-1,-1,-1,-1,-1,-1,-1,-1,-1,-1,-1,-1,-1,-1,-1,-1,-1,-1],"split_conditions":[7.8569627E-1,6.096977E-1,4.9069E-1,1E0,0E0,2.4131355E1,2E0,3E0,8.16038E1,5.9471E-1,2E0,4E0,0E0,6.966858E-1,-1.8367347E-1,0E0,-1.9946034E-1,5.742491E-1,4.13E-1,-1.938049E-1,9.9809E-1,1E0,-1.9175258E-1,-3.989086E-3,-1.8803355E-1,8.89133E-1,5.12E2,-9E0,1.9987325E-1,6.966858E-1,2.5032E-1,9.98E1,2.04E2,-1.9953707E-1,5.660659E-1,2E0,7.329979E-1,3.4585E-1,6.206576E0,-1.3333334E-1,-3.5830312E-3,7.809E-2,-1E-1,1E2,7.5E1,-1.8164329E-1,-3.5830312E-3,3.6898082E-1,2.0231397E-1,2.1564639E-1,8.5498564E-2,9.15E1,-1.5294118E-1,8.7785E-1,9.0278E-1,-4.1E1,-1.4666668E-1,-1.6741154E-1,2E0,5.8021183E0,3.2203105E-1,4.5113E-1,6.966858E-1,7.946725E1,7.277097E-1,-2.7E1,8.3239627E-1,1.8009093E-1,7.1252832E0,-1.7839997E-1,5.342251E1,9.95E1,4.6522796E-1,-1.9565074E-1,2.4E1,4.9972124E0,9.8254E-1,-2.172946E-2,1.2184789E-1,5.7365723E0,-1.9711334E-1,4.2491275E-1,9.979702E-1,1.3061982E-1,6.3578424E0,9.9968E-1,3.6155142E-2,9.093E-2,9.4306274E1,9.92E1,1.8596427E-1,4.498995E-1,4.46E2,1.01E2,1.0423497E-1,1.1092639E-1,9.4306274E1,6.966858E-1,8.115732E-1,9.645655E-2,-2.5157586E-2,-1.5789475E-1,-2.5157586E-2,9.9889E-1,1.3061982E-1,1.8196557E-2,-1.3999401E-1,-9.620087E-2,1.5927926E-2,3.9155208E-2,1.5175472E-1,-8.6305045E-2,-1.773387E-1,-7.944523E-2,-1.8415059E-1,-4.3663178E-2,-1.6827567E-1,-1.337818E-1,-1.8500225E-1,-1.9753192E-1,-7.710669E-2,-1.7715055E-1,-2.0187056E-2,2.6764875E-2,-1.3055249E-1,-1.2727273E-1,-2.5157586E-2,-6.92998E-2,1.3019364E-1,-6.041664E-2,-1.6363637E-1,-4.9532097E-2,7.1170956E-2,1.17081285E-1,-5.4668892E-2,1.5854256E-1,-3.5830312E-3,-1.6421436E-1,-5.7805743E-2,-1.1111112E-1,1.8676369E-2,1.17081285E-1,-2.172946E-2,-2.172946E-2,1.7050342E-1,8.175013E-2,-2.9202003E-2],"split_indices":[9,9,8,6,6,5,2,3,5,8,2,6,6,0,0,6,0,9,8,0,8,6,0,0,0,9,6,6,0,0,8,4,6,0,9,2,9,8,11,0,0,8,0,4,6,0,0,9,0,0,0,4,0,8,8,6,0,0,3,11,0,8,0,5,0,6,9,0,11,0,5,4,9,0,6,11,8,0,0,11,0,0,0,0,11,8,0,8,5,4,0,0,6,6,0,0,5,0,9,0,0,0,0,8,0,0,0,0,0,0,0,0,0,0,0,0,0,0,0,0,0,0,0,0,0,0,0,0,0,0,0,0,0,0,0,0,0,0,0,0,0,0,0,0,0,0,0],"split_type":[0,0,0,0,0,0,0,0,0,0,0,0,0,0,0,0,0,0,0,0,0,0,0,0,0,0,0,0,0,0,0,0,0,0,0,0,0,0,0,0,0,0,0,0,0,0,0,0,0,0,0,0,0,0,0,0,0,0,0,0,0,0,0,0,0,0,0,0,0,0,0,0,0,0,0,0,0,0,0,0,0,0,0,0,0,0,0,0,0,0,0,0,0,0,0,0,0,0,0,0,0,0,0,0,0,0,0,0,0,0,0,0,0,0,0,0,0,0,0,0,0,0,0,0,0,0,0,0,0,0,0,0,0,0,0,0,0,0,0,0,0,0,0,0,0,0,0],"sum_hessian":[1.3346672E4,6.8723257E3,6.474346E3,6.516733E3,3.555927E2,1.1864002E2,6.355706E3,9.808554E2,5.5358774E3,1.7023666E2,1.8535606E2,6.485333E1,5.378669E1,6.344456E3,1.125E1,2.6238474E2,7.1847064E2,3.54062E2,5.1818154E3,1.3764734E2,3.2589336E1,1.6210606E2,2.325E1,1.9413338E0,6.2912003E1,3.4560003E0,5.033069E1,3.4372013E1,6.310084E3,7.8015335E1,1.8436938E2,3.4626733E2,7.794668E0,2.871074E3,2.3107415E3,1.1486002E1,2.1103334E1,9.3528046E1,6.857801E1,2E0,1.4560003E0,4.933069E1,1E0,8.088668E0,2.6283346E1,7.655933E1,1.4560003E0,4.311867E1,1.4125072E2,2.4995667E2,9.631067E1,4.544668E0,3.25E0,2.021856E3,2.8888535E2,8.736002E0,2.75E0,1.6691334E1,4.4120007E0,1.5089336E1,7.8438705E1,2.319401E1,4.5384007E1,4.8240013E0,4.4506687E1,3.1180012E0,4.970667E0,1.9091343E1,7.192003E0,2.5691334E1,1.7427336E1,6.677002E1,7.44807E1,2.1813268E2,3.1824001E1,6.1353336E1,3.4957336E1,1.7060003E0,2.838668E0,6.220667E1,1.9596493E3,1.9814734E2,9.073801E1,1.8826677E0,6.8533344E0,2.970667E0,1.4413338E0,8.133336E0,6.9560003E0,8.192002E0,7.0246704E1,8.265335E0,1.4928674E1,4.325134E1,2.1326675E0,2.3680012E0,2.4560003E0,3.1180012E0,4.1388687E1,1.8973342E0,1.2206669E0,3.75E0,1.2206669E0,5.3093348E0,1.8826677E0,7.250669E0,1.0176667E1,1.4530002E1,5.2240013E1,1.9516672E1,5.4964027E1,7.3826675E0,2.4441334E1,2.220667E0,5.9132668E1,2.0751337E1,1.4206E1,2.4765335E1,3.7441334E1,1.94456E2,3.6913338E0,6.1309334E1,2.9428673E1,3.6180012E0,3.2353334E0,1.75E0,1.2206669E0,1.9706669E0,6.1626697E0,2.4560003E0,4.5E0,2.2060003E0,5.9860024E0,1.4120008E0,6.8533344E0,1.3472673E1,1.4560003E0,2.5632668E1,1.761867E1,1.25E0,1.2060003E0,1.4120008E0,1.7060003E0,1.7060003E0,3.9682686E1,2.3826675E0,2.9266672E0],"tree_param":{"num_deleted":"0","num_feature":"14","num_nodes":"147","size_leaf_vector":"1"}},{"base_weights":[-5.2549075E-3,-1.6829051E0,1.756721E0,-1.7281159E0,-7.419179E-1,1.7980063E0,-9.8705184E-1,-1.436261E0,-1.7793484E0,7.709811E-2,-1.6779201E0,1.8052448E0,-1.7058471E-1,-1.7013983E0,1.7322008E-1,-3.893815E-1,-1.8139926E-1,-1.8103442E-1,-1.7434632E0,4.512664E-1,-1.7495151E-1,-1.7376889E0,-1.072896E0,6.248149E-1,1.8103523E0,-1.7159586E-1,-6.6697836E-2,-1.6310103E0,1.4092018E-1,-1.7705164E0,-1.5829562E0,9.614959E-1,-5.1199454E-1,-1.7649251E-1,-1.1093386E0,8.4548615E-2,-1.358608E0,1.0557917E-1,1.5768382E-1,1.425872E0,1.8177164E-1,-1.7606565E-1,-1.3607335E0,-1.2279932E0,4.791436E-1,-1.5294265E0,-1.7905736E-1,-1.7322037E0,-9.030566E-1,-5.81969E-1,1.2378247E0,7.4579585E-1,-1.0483141E0,1.1937176E-2,-1.5762715E-1,-1.4908616E-1,-4.416117E-2,7.333346E-1,-6.7987365E-1,1.993173E-1,1.553298E0,-7.183433E-1,-1.5399526E-1,-1.6015469E-1,-1.8076171E-1,1.8468672E-1,1.1481771E0,-1.2651795E0,-1.6832079E-1,-1.7840444E0,-1.1210661E0,-1.4493823E0,1.0570316E0,1.191932E-1,-1.1536802E0,-3.4985536E-1,1.5697411E0,-7.37745E-1,1.2808983E0,-1.4351914E0,-1.5726076E-1,1.9069552E-1,1.13075115E-1,-9.1566193E-1,3.599368E-2,1.3817427E-1,-3.1048208E-1,1.6490813E0,2.2696368E-1,-1.2828949E-1,9.747132E-2,4.6621557E-2,-7.8564525E-2,9.719516E-2,-3.1350177E-2,-8.946269E-2,1.5404695E-1,-1.4998059E-1,-3.6944367E-2,-1.7935863E-1,-1.1543266E-2,-1.633758E-1,-2.1866692E-2,8.532342E-2,-1.6227557E-1,-7.25232E-2,1.8517572E-1,-2.4447246E-2,-1.2853977E-1,9.76867E-2,-6.292751E-2,1.6601555E-1,3.5747256E-2,-1.0671403E-1,-3.430217E-4,1.4862697E-1,4.2928155E-3,3.281704E-2,-1.5607916E-1,-4.487246E-2,7.777419E-2,1.113261E-1,-3.2785613E-2,-1.4810918E-1,-2.0018615E-2,-6.9322236E-2,1.14602625E-1,1.6982087E-1,4.1030604E-2,1.0746509E-1,-8.328368E-3],"categories":[],"categories_nodes":[],"categories_segments":[],"categories_sizes":[],"default_left":[1,1,0,0,0,0,0,0,1,0,1,0,0,0,0,0,0,0,0,0,0,0,0,0,0,0,0,0,0,0,1,0,0,0,0,0,0,0,0,0,0,0,1,1,0,0,0,0,0,0,0,0,0,0,0,0,0,0,0,0,0,0,0,0,0,0,0,1,0,0,0,0,0,0,0,0,0,0,0,0,0,0,0,0,0,0,0,0,0,0,0,0,0,0,0,0,0,0,0,0,0,0,0,0,0,0,0,0,0,0,0,0,0,0,0,0,0,0,0,0,0,0,0,0,0,0,0,0,0,0,0],"id":1,"left_children":[1,3,5,7,9,11,13,15,17,19,21,23,-1,25,-1,27,-1,-1,29,31,-1,33,35,37,39,-1,-1,41,43,45,47,49,51,-1,53,-1,55,57,-1,59,-1,-1,61,63,65,67,-1,69,71,73,75,77,79,-1,-1,-1,-1,81,83,85,87,89,-1,-1,91,93,95,97,-1,99,101,103,105,-1,107,109,111,113,115,117,119,121,-1,123,-1,-1,125,127,129,-1,-1,-1,-1,-1,-1,-1,-1,-1,-1,-1,-1,-1,-1,-1,-1,-1,-1,-1,-1,-1,-1,-1,-1,-1,-1,-1,-1,-1,-1,-1,-1,-1,-1,-1,-1,-1,-1,-1,-1,-1,-1],"loss_changes":[3.9193156E4,2.8766797E2,7.34334E2,9.433594E1,2.4016873E2,1.6467578E2,1.9041812E2,3.8398145E2,2.96875E0,1.1557879E2,3.4213562E0,3.720703E1,0E0,1.4251709E-2,0E0,1.709044E2,0E0,0E0,8.398926E0,6.939503E1,0E0,2.9107666E-1,9.78425E0,1.4130472E1,1.5332031E1,0E0,0E0,3.2531738E-1,8.511121E1,7.895996E0,3.7151672E1,3.9956856E1,3.3969437E1,0E0,4.8649874E0,0E0,1.051199E0,1.0254877E1,0E0,1.9011078E1,0E0,0E0,2.2989235E0,1.396928E1,2.8768082E1,5.0129395E0,0E0,7.8775024E0,7.731201E1,1.6231918E1,4.1835854E1,1.308378E1,1.1807552E1,0E0,0E0,0E0,0E0,2.2597408E0,2.6117473E0,8.133418E0,1.3833466E1,9.208557E0,0E0,0E0,4.557769E0,4.0835327E1,3.7252663E1,1.388118E1,0E0,4.341736E0,1.2166515E1,2.364592E1,2.4010191E1,0E0,1.0733929E0,5.9398355E0,6.528946E0,1.1302505E0,2.886242E0,5.875519E0,3.534896E0,3.2619126E0,0E0,2.8872786E0,0E0,0E0,6.2281437E0,5.641144E0,2.3754432E0,0E0,0E0,0E0,0E0,0E0,0E0,0E0,0E0,0E0,0E0,0E0,0E0,0E0,0E0,0E0,0E0,0E0,0E0,0E0,0E0,0E0,0E0,0E0,0E0,0E0,0E0,0E0,0E0,0E0,0E0,0E0,0E0,0E0,0E0,0E0,0E0,0E0,0E0,0E0,0E0,0E0,0E0],"parents":[2147483647,0,0,1,1,2,2,3,3,4,4,5,5,6,6,7,7,8,8,9,9,10,10,11,11,13,13,15,15,18,18,19,19,21,21,22,22,23,23,24,24,27,27,28,28,29,29,30,30,31,31,32,32,34,34,36,36,37,37,39,39,42,42,43,43,44,44,45,45,47,47,48,48,49,49,50,50,51,51,52,52,57,57,58,58,59,59,60,60,61,61,64,64,65,65,66,66,67,67,69,69,70,70,71,71,72,72,74,74,75,75,76,76,77,77,78,78,79,79,80,80,81,81,83,83,86,86,87,87,88,88],"right_children":[2,4,6,8,10,12,14,16,18,20,22,24,-1,26,-1,28,-1,-1,30,32,-1,34,36,38,40,-1,-1,42,44,46,48,50,52,-1,54,-1,56,58,-1,60,-1,-1,62,64,66,68,-1,70,72,74,76,78,80,-1,-1,-1,-1,82,84,86,88,90,-1,-1,92,94,96,98,-1,100,102,104,106,-1,108,110,112,114,116,118,120,122,-1,124,-1,-1,126,128,130,-1,-1,-1,-1,-1,-1,-1,-1,-1,-1,-1,-1,-1,-1,-1,-1,-1,-1,-1,-1,-1,-1,-1,-1,-1,-1,-1,-1,-1,-1,-1,-1,-1,-1,-1,-1,-1,-1,-1,-1,-1,-1],"split_conditions":[7.6241267E-1,6.096977E-1,2E2,1E0,2.24E2,2E0,5.3816E-1,3E0,3.4585E-1,3E0,9.38E1,2.329E-1,-1.7058471E-1,4.9069E-1,1.7322008E-1,0E0,-1.8139926E-1,-1.8103442E-1,5.660659E-1,1E0,-1.7495151E-1,5.9471E-1,5.913503E0,9.15647E-1,8.509601E-1,-1.7159586E-1,-6.6697836E-2,2E0,1.8055E-1,9.7578E-1,9.79E1,3.4585E-1,6.206576E0,-1.7649251E-1,9.8689E-1,8.4548615E-2,7.329979E-1,5.8289456E0,1.5768382E-1,-2E0,1.8177164E-1,-1.7606565E-1,2.6059967E-1,4.369642E-1,5.742491E-1,5.7365723E0,-1.7905736E-1,9.7578E-1,1.9999962E0,5.365976E0,0E0,1.4922E-1,7.5E1,1.1937176E-2,-1.5762715E-1,-1.4908616E-1,-4.416117E-2,8.509601E-1,6.1441855E0,9.495484E-1,1.86E2,6.3044486E0,-1.5399526E-1,-1.6015469E-1,5.590987E0,9.917E-1,6.5558E-1,3.4E1,-1.6832079E-1,6.408529E0,9.998443E-1,5.976351E0,8.4561E-1,1.191932E-1,5.484797E0,7.894594E-1,9.9744374E-1,9.38E1,1.49E2,6.574669E-1,7.676937E0,5.4071717E0,1.13075115E-1,1.07E-1,3.599368E-2,1.3817427E-1,7.676937E0,9.984224E-1,5.976351E0,-1.2828949E-1,9.747132E-2,4.6621557E-2,-7.8564525E-2,9.719516E-2,-3.1350177E-2,-8.946269E-2,1.5404695E-1,-1.4998059E-1,-3.6944367E-2,-1.7935863E-1,-1.1543266E-2,-1.633758E-1,-2.1866692E-2,8.532342E-2,-1.6227557E-1,-7.25232E-2,1.8517572E-1,-2.4447246E-2,-1.2853977E-1,9.76867E-2,-6.292751E-2,1.6601555E-1,3.5747256E-2,-1.0671403E-1,-3.430217E-4,1.4862697E-1,4.2928155E-3,3.281704E-2,-1.5607916E-1,-4.487246E-2,7.777419E-2,1.113261E-1,-3.2785613E-2,-1.4810918E-1,-2.0018615E-2,-6.9322236E-2,1.14602625E-1,1.6982087E-1,4.1030604E-2,1.0746509E-1,-8.328368E-3],"split_indices":[9,9,4,6,6,2,8,3,8,3,4,8,0,8,0,6,0,0,9,6,0,8,11,9,9,0,0,3,8,8,4,8,11,0,8,0,9,11,0,6,0,0,1,1,9,11,0,8,1,11,6,8,6,0,0,0,0,9,11,1,6,11,0,0,11,8,8,6,0,11,1,11,8,0,11,1,1,4,6,1,11,11,0,8,0,0,11,1,11,0,0,0,0,0,0,0,0,0,0,0,0,0,0,0,0,0,0,0,0,0,0,0,0,0,0,0,0,0,0,0,0,0,0,0,0,0,0,0,0,0,0],"split_type":[0,0,0,0,0,0,0,0,0,0,0,0,0,0,0,0,0,0,0,0,0,0,0,0,0,0,0,0,0,0,0,0,0,0,0,0,0,0,0,0,0,0,0,0,0,0,0,0,0,0,0,0,0,0,0,0,0,0,0,0,0,0,0,0,0,0,0,0,0,0,0,0,0,0,0,0,0,0,0,0,0,0,0,0,0,0,0,0,0,0,0,0,0,0,0,0,0,0,0,0,0,0,0,0,0,0,0,0,0,0,0,0,0,0,0,0,0,0,0,0,0,0,0,0,0,0,0,0,0,0,0],"sum_hessian":[1.3256943E4,6.7909976E3,6.4659453E3,6.478876E3,3.1212173E2,6.3704346E3,9.551072E1,9.718109E2,5.507065E3,1.66953E2,1.4516875E2,6.357785E3,1.2649477E1,7.593654E1,1.957418E1,2.5821133E2,7.135996E2,2.9283037E3,2.5787612E3,1.3919324E2,2.7759764E1,1.3041344E2,1.4755316E1,2.7922203E1,6.329863E3,7.4232796E1,1.7037432E0,7.665605E1,1.8155528E2,2.1982236E3,3.8053778E2,9.099562E1,4.8197613E1,1.2326176E2,7.1516795E0,1.6587298E0,1.3096586E1,1.878676E1,9.135444E0,1.22616844E2,6.207246E3,4.8079193E1,2.857686E1,3.544911E1,1.4610617E2,1.7476578E2,2.0234578E3,3.1077136E2,6.976641E1,1.3649389E1,7.734623E1,1.4291124E1,3.390649E1,2.1743462E0,4.977333E0,1.0898887E1,2.1976988E0,1.047845E1,8.3083105E0,1.178105E1,1.1083579E2,7.3259645E0,2.1250896E1,2.5738663E1,9.710444E0,1.0234004E2,4.376613E1,6.768606E1,1.0707971E2,2.8470187E2,2.6069479E1,5.476311E1,1.5003297E1,3.062436E0,1.0586953E1,1.3364552E1,6.3981678E1,3.6879094E0,1.0603214E1,2.3215935E1,1.0690557E1,5.0554676E0,5.4229817E0,6.8698845E0,1.4384255E0,3.033893E0,8.747156E0,1.0314376E2,7.692036E0,5.675668E0,1.6502964E0,4.8027353E0,4.9077096E0,3.9294205E1,6.304584E1,6.844404E0,3.6921726E1,5.310224E1,1.4583816E1,2.8300864E2,1.6932626E0,1.61076E1,9.961882E0,3.5600317E0,5.120308E1,4.6538796E0,1.0349417E1,1.7010609E0,8.885892E0,1.8907865E0,1.1473765E1,5.9197132E1,4.784547E0,2.2329962E0,1.4549131E0,8.922464E0,1.6807499E0,1.4364259E0,2.1779509E1,8.546484E0,2.1440723E0,1.4064171E0,3.6490507E0,3.2395985E0,3.6302862E0,7.341907E0,1.4052495E0,9.88526E1,4.291163E0,1.4007962E0,6.2912397E0],"tree_param":{"num_deleted":"0","num_feature":"14","num_nodes":"131","size_leaf_vector":"1"}},{"base_weights":[-5.694605E-3,-1.5459889E0,1.6343864E0,-1.5979297E0,-5.920221E-1,-6.157954E-1,1.665665E0,-1.3313316E0,-1.6450337E0,-1.5096914E0,2.523413E-1,-1.2271487E0,1.1455157E0,1.6711174E0,-1.5533441E-1,-4.1001588E-1,-1.6781233E-1,-1.4793136E0,-1.6558519E-1,-1.6032362E0,-8.931456E-1,8.5063136E-1,-5.795371E-1,-1.2863792E0,2.488991E-2,1.2519052E0,6.946181E-3,8.631303E-1,1.6752957E0,-1.4731514E0,3.989636E-2,-1.5096408E0,-3.5182685E-1,-1.6138695E-1,-6.964809E-1,6.854526E-2,-1.0588509E0,1.1798605E0,-1.5644963E-1,3.6431524E-1,-1.0596275E0,-1.3608271E0,-4.651036E-1,6.9387454E-1,1.4569513E-1,-6.238704E-1,1.2294786E0,1.4947116E0,1.680263E-1,-1.5029646E0,6.1535197E-3,-1.1608719E0,2.7260187E-1,-1.6014847E0,-1.262151E0,-1.0342128E0,5.49042E-1,-9.2942715E-2,-1.4632878E-2,-1.2009547E0,1.8110543E-2,3.357834E-1,1.2770916E0,-6.4848894E-1,8.028166E-1,-1.4293737E0,-6.3686466E-1,-1.3811004E0,-2.2238685E-2,-4.776171E-2,-1.0678132E-1,1.1213378E-1,5.4600403E-2,9.632326E-3,-8.5518104E-1,1.4573728E0,-3.9228454E-1,9.6434724E-1,1.5476583E0,-1.6087322E0,-1.1625661E0,-1.346135E0,1.6653179E-1,-1.0436562E-1,7.014338E-1,-1.1961894E0,-1.6276618E0,-1.4726863E0,-6.9061714E-1,9.580541E-3,-1.4010859E-1,-2.3444397E-2,1.2220087E-1,-3.2922093E-2,-1.2512055E-1,-4.7562137E-1,6.5266806E-1,1.4850583E0,1.0267609E0,5.771541E-1,-1.2838E0,9.547933E-1,-4.7025915E-2,-2.4674882E-1,-1.5504412E-1,-2.0450722E-1,-1.5092666E-1,-1.3999173E-1,-4.8309874E-2,-2.9495303E-2,1.9838681E-2,-3.1241417E-2,5.226488E-2,-1.2522851E-1,-2.3186209E-2,1.5482236E-1,6.2495196E-1,-1.2504716E-1,7.402271E-2,5.08499E-1,1.4841686E-1,1.5569277E0,5.1152658E-2,-1.6239275E-1,-4.9939435E-2,2.7583396E-2,-1.3731533E-1,-1.4336173E-1,-3.344127E-2,-2.5671167E-2,5.046233E-2,9.902754E-2,-2.8550735E-2,1.6770396E-2,9.667301E-2,4.973411E-2,-1.4233856E-1,-1.6354482E-1,-7.1670264E-2,-1.5693901E-1,-1.0177932E-1,-6.5717897E-3,-1.570034E-1,-6.866841E-2,-8.985356E-3,4.1271467E-3,8.00348E-2,8.641225E-2,1.5496801E-1,6.810662E-2,1.4136997E-1,9.813029E-2,-1.6660081E-3,-2.2500623E-2,-1.506825E-1,1.1404806E-1,1.8963076E-2,3.2101434E-2,-6.506644E-2,2.2269947E-2,-1.18581645E-1,1.5785027E-2,9.634751E-2,-4.9511115E-3,1.0840012E-1,1.1896588E-1,1.5919946E-1],"categories":[],"categories_nodes":[],"categories_segments":[],"categories_sizes":[],"default_left":[1,1,1,0,1,0,0,0,0,1,0,0,1,0,0,0,0,1,0,0,0,0,0,0,0,0,0,0,0,1,0,0,0,0,0,0,0,0,0,0,0,1,0,0,0,0,0,0,0,0,0,1,0,0,0,0,0,0,0,0,0,0,0,0,0,0,0,0,0,0,0,0,0,0,0,0,0,0,0,0,1,0,0,0,0,0,0,0,1,0,0,0,0,0,0,0,0,0,0,0,0,0,0,0,0,0,0,0,0,0,0,0,0,0,0,0,0,0,0,0,0,0,0,0,0,0,0,0,0,0,0,0,0,0,0,0,0,0,0,0,0,0,0,0,0,0,0,0,0,0,0,0,0,0,0,0,0,0,0,0,0,0,0,0,0,0,0],"id":2,"left_children":[1,3,5,7,9,11,13,15,17,19,21,23,25,27,-1,29,-1,31,-1,33,35,37,39,41,-1,43,-1,45,47,49,51,53,55,-1,57,-1,59,61,-1,63,65,67,69,71,-1,73,75,77,-1,79,-1,81,83,85,87,89,91,-1,-1,93,-1,95,97,99,101,103,105,107,-1,109,-1,-1,111,-1,113,115,117,119,121,123,125,127,129,131,133,135,137,139,141,-1,-1,-1,-1,-1,-1,143,145,147,149,151,153,155,-1,157,-1,159,-1,-1,-1,-1,-1,-1,-1,-1,-1,-1,161,-1,-1,163,-1,165,-1,-1,-1,-1,-1,-1,-1,-1,-1,-1,-1,-1,-1,-1,-1,-1,-1,-1,-1,-1,-1,-1,-1,-1,-1,-1,-1,-1,-1,-1,-1,-1,-1,-1,-1,-1,-1,-1,-1,-1,-1,-1,-1,-1,-1],"loss_changes":[3.2620152E4,3.290039E2,4.4118164E2,7.710547E1,2.6803406E2,9.451378E1,1.10859375E2,3.039264E2,7.165039E0,8.123077E0,9.045598E1,5.974228E0,2.5228844E0,1.934375E1,0E0,1.2540208E2,0E0,1.10251465E1,0E0,2.508545E-1,7.025408E0,8.576751E1,3.492002E1,3.1785965E0,0E0,1.3561401E0,0E0,1.9149954E1,2.9824219E0,3.6589203E0,5.203865E1,5.4526367E0,6.8113413E0,0E0,3.012569E-1,0E0,4.1270676E0,7.240921E0,0E0,1.2262708E1,7.026123E0,1.0000534E0,1.6344208E0,1.9795773E0,0E0,1.3040836E0,1.070266E1,3.3666992E0,0E0,8.84079E-1,0E0,7.6605225E0,2.526934E1,5.578613E-1,1.025943E1,2.673792E0,2.93894E0,0E0,0E0,4.6582794E-1,0E0,3.1412835E0,2.8192596E0,7.391985E0,4.105275E0,3.3802376E0,9.306431E0,2.607727E-1,0E0,3.631029E-1,0E0,0E0,8.5793585E-1,0E0,1.108666E0,8.6606216E-1,4.9738464E0,3.5958729E0,6.98761E-1,1.2896729E-1,6.964365E0,1.8789253E0,7.8683794E-1,1.6902584E1,1.0180798E1,7.6706257E0,3.812256E-1,1.3765564E0,1.479577E1,0E0,0E0,0E0,0E0,0E0,0E0,2.3716414E-1,7.199235E-1,3.9985657E-1,4.5355263E0,8.8171995E-1,1.0625992E0,2.2292662E0,0E0,1.0412959E0,0E0,7.894365E0,0E0,0E0,0E0,0E0,0E0,0E0,0E0,0E0,0E0,0E0,4.9033248E-1,0E0,0E0,3.683495E0,0E0,8.703613E-2,0E0,0E0,0E0,0E0,0E0,0E0,0E0,0E0,0E0,0E0,0E0,0E0,0E0,0E0,0E0,0E0,0E0,0E0,0E0,0E0,0E0,0E0,0E0,0E0,0E0,0E0,0E0,0E0,0E0,0E0,0E0,0E0,0E0,0E0,0E0,0E0,0E0,0E0,0E0,0E0,0E0,0E0,0E0,0E0,0E0],"parents":[2147483647,0,0,1,1,2,2,3,3,4,4,5,5,6,6,7,7,8,8,9,9,10,10,11,11,12,12,13,13,15,15,17,17,19,19,20,20,21,21,22,22,23,23,25,25,27,27,28,28,29,29,30,30,31,31,32,32,34,34,36,36,37,37,39,39,40,40,41,41,42,42,43,43,45,45,46,46,47,47,49,49,51,51,52,52,53,53,54,54,55,55,56,56,59,59,61,61,62,62,63,63,64,64,65,65,66,66,67,67,69,69,72,72,74,74,75,75,76,76,77,77,78,78,79,79,80,80,81,81,82,82,83,83,84,84,85,85,86,86,87,87,88,88,95,95,96,96,97,97,98,98,99,99,100,100,101,101,103,103,105,105,116,116,119,119,121,121],"right_children":[2,4,6,8,10,12,14,16,18,20,22,24,26,28,-1,30,-1,32,-1,34,36,38,40,42,-1,44,-1,46,48,50,52,54,56,-1,58,-1,60,62,-1,64,66,68,70,72,-1,74,76,78,-1,80,-1,82,84,86,88,90,92,-1,-1,94,-1,96,98,100,102,104,106,108,-1,110,-1,-1,112,-1,114,116,118,120,122,124,126,128,130,132,134,136,138,140,142,-1,-1,-1,-1,-1,-1,144,146,148,150,152,154,156,-1,158,-1,160,-1,-1,-1,-1,-1,-1,-1,-1,-1,-1,162,-1,-1,164,-1,166,-1,-1,-1,-1,-1,-1,-1,-1,-1,-1,-1,-1,-1,-1,-1,-1,-1,-1,-1,-1,-1,-1,-1,-1,-1,-1,-1,-1,-1,-1,-1,-1,-1,-1,-1,-1,-1,-1,-1,-1,-1,-1,-1,-1,-1],"split_conditions":[7.8569627E-1,6.096977E-1,-1.95E2,1E0,-6E0,9.5688844E-1,2E0,3E0,8.16038E1,5.2592594E1,1E0,9.7280073E-1,2.2427002E2,6.966858E-1,-1.5533441E-1,0E0,-1.6781233E-1,5.742491E-1,-1.6558519E-1,9.518391E-1,7.1471085E1,2E0,1.13692505E2,9.391421E-1,2.488991E-2,9.766104E-1,6.946181E-3,-9E0,8.89133E-1,6.966858E-1,9.5E1,9.91E1,9.21E1,-1.6138695E-1,6.88054E-1,6.854526E-2,6.093835E-1,3.2203105E-1,-1.5644963E-1,8.6E1,7.9E1,4.53E1,9.399421E-1,9.6095616E-1,1.4569513E-1,1E2,1.72E2,3.8221848E1,1.680263E-1,2.1070334E2,6.1535197E-3,4.498995E-1,5.3140104E-1,1.2E1,2.5528222E-1,2E0,2.707714E-1,-9.2942715E-2,-1.4632878E-2,8.84E1,1.8110543E-2,9.9393936E1,9.8765434E1,2.6E1,3E0,9.533527E1,3E0,9.624794E-1,-2.2238685E-2,9.1591394E-1,-1.0678132E-1,1.1213378E-1,9.7443235E-1,9.632326E-3,2.4735458E2,7.5E1,1.774023E2,9.186876E1,5.12E2,-1E0,1.0283004E-2,9.965871E1,4.5272073E-1,3.0522879E1,2E0,3.171894E-1,9.913793E1,5.098473E-1,6.966858E-1,9.580541E-3,-1.4010859E-1,-2.3444397E-2,1.2220087E-1,-3.2922093E-2,-1.2512055E-1,2.707714E-1,2.431688E-1,2.4131355E1,9.9604744E1,6.093835E-1,4.498995E-1,9.214448E1,-4.7025915E-2,6.88054E-1,-1.5504412E-1,3.9E2,-1.5092666E-1,-1.3999173E-1,-4.8309874E-2,-2.9495303E-2,1.9838681E-2,-3.1241417E-2,5.226488E-2,-1.2522851E-1,-2.3186209E-2,1.5482236E-1,1.16E2,-1.2504716E-1,7.402271E-2,8.88E1,1.4841686E-1,8.115732E-1,5.1152658E-2,-1.6239275E-1,-4.9939435E-2,2.7583396E-2,-1.3731533E-1,-1.4336173E-1,-3.344127E-2,-2.5671167E-2,5.046233E-2,9.902754E-2,-2.8550735E-2,1.6770396E-2,9.667301E-2,4.973411E-2,-1.4233856E-1,-1.6354482E-1,-7.1670264E-2,-1.5693901E-1,-1.0177932E-1,-6.5717897E-3,-1.570034E-1,-6.866841E-2,-8.985356E-3,4.1271467E-3,8.00348E-2,8.641225E-2,1.5496801E-1,6.810662E-2,1.4136997E-1,9.813029E-2,-1.6660081E-3,-2.2500623E-2,-1.506825E-1,1.1404806E-1,1.8963076E-2,3.2101434E-2,-6.506644E-2,2.2269947E-2,-1.18581645E-1,1.5785027E-2,9.634751E-2,-4.9511115E-3,1.0840012E-1,1.1896588E-1,1.5919946E-1],"split_indices":[9,9,6,6,6,9,2,3,5,7,6,0,5,0,0,6,0,9,0,0,5,2,5,9,0,0,0,6,9,0,4,4,4,0,9,0,0,0,0,4,6,4,0,0,0,4,6,5,0,5,0,0,9,6,0,3,0,0,0,4,0,7,7,6,3,7,3,0,0,0,0,0,0,0,5,6,5,7,6,6,0,7,9,5,3,9,7,9,0,0,0,0,0,0,0,0,0,5,7,0,0,5,0,9,0,6,0,0,0,0,0,0,0,0,0,0,6,0,0,4,0,9,0,0,0,0,0,0,0,0,0,0,0,0,0,0,0,0,0,0,0,0,0,0,0,0,0,0,0,0,0,0,0,0,0,0,0,0,0,0,0,0,0,0,0,0,0],"split_type":[0,0,0,0,0,0,0,0,0,0,0,0,0,0,0,0,0,0,0,0,0,0,0,0,0,0,0,0,0,0,0,0,0,0,0,0,0,0,0,0,0,0,0,0,0,0,0,0,0,0,0,0,0,0,0,0,0,0,0,0,0,0,0,0,0,0,0,0,0,0,0,0,0,0,0,0,0,0,0,0,0,0,0,0,0,0,0,0,0,0,0,0,0,0,0,0,0,0,0,0,0,0,0,0,0,0,0,0,0,0,0,0,0,0,0,0,0,0,0,0,0,0,0,0,0,0,0,0,0,0,0,0,0,0,0,0,0,0,0,0,0,0,0,0,0,0,0,0,0,0,0,0,0,0,0,0,0,0,0,0,0,0,0,0,0,0,0],"sum_hessian":[1.2910696E4,6.6579194E3,6.2527773E3,6.313492E3,3.444273E2,8.546872E1,6.1673086E3,9.523959E2,5.361096E3,1.6467146E2,1.7975584E2,6.367153E1,2.1797192E1,6.15736E3,9.948599E0,2.6105032E2,6.913455E2,3.3696527E2,5.024131E3,1.4158871E2,2.3082756E1,1.045445E2,7.521134E1,6.1338642E1,2.332888E0,1.9687284E1,2.1099062E0,3.2744984E1,6.1246147E3,7.6948326E1,1.8410199E2,3.2780893E2,9.156347E0,1.3917677E2,2.4119303E0,1.8948463E0,2.118791E1,9.245284E1,1.2091658E1,2.543924E1,4.9772102E1,5.5638123E1,5.700519E0,6.4681873E0,1.3219097E1,6.333695E0,2.6411287E1,1.7204039E2,5.9525747E3,7.550227E1,1.4460526E0,2.923903E1,1.5486296E2,2.3509422E2,9.271471E1,5.125722E0,4.0306253E0,1.2101334E0,1.201797E0,1.9037582E1,2.1503263E0,1.0009808E1,8.244303E1,7.541592E0,1.7897648E1,2.5280703E1,2.4491398E1,5.445524E1,1.1828859E0,4.0059047E0,1.6946144E0,3.424349E0,3.0438385E0,1.6815886E0,4.6521063E0,2.3246058E1,3.1652286E0,1.7359959E1,1.5468042E2,5.4761055E1,2.0741217E1,2.5645613E1,3.5934184E0,8.281794E1,7.204502E1,1.7096094E1,2.1799812E2,6.660337E1,2.6111332E1,1.43735E0,3.688372E0,2.1634755E0,1.86715E0,1.4491843E0,1.75884E1,2.6706073E0,7.3392005E0,4.233779E1,4.0105244E1,2.605875E0,4.935717E0,1.6212276E1,1.6853712E0,2.6298306E0,2.2650873E1,1.7201067E1,7.2903314E0,5.279014E1,1.6650994E0,1.8997918E0,2.1061127E0,1.8924297E0,1.1514088E0,2.225332E0,2.4267745E0,2.0183334E1,3.0627248E0,1.7414479E0,1.4237806E0,1.0303076E1,7.056883E0,1.5281071E2,1.8697078E0,5.356349E1,1.1975632E0,2.609232E0,1.8131985E1,2.322074E1,2.4248738E0,1.7026461E0,1.8907722E0,1.1124661E1,7.1693275E1,2.4462631E1,4.7582394E1,1.8815902E0,1.5214503E1,2.1536206E2,2.6360686E0,5.2906223E1,1.3697151E1,1.5892857E1,1.0218474E1,1.2219853E0,1.4486219E0,1.6767796E0,5.6624207E0,5.345558E0,3.6992233E1,2.2639254E1,1.746599E1,1.1622844E0,1.4435906E0,1.2082978E0,3.7274191E0,1.2651535E1,3.5607421E0,1.1785077E0,1.4513229E0,1.2522525E1,4.6785426E0,1.90309E0,1.159635E0,5.6950717E0,4.608004E0,1.6362774E1,1.3644794E2],"tree_param":{"num_deleted":"0","num_feature":"14","num_nodes":"167","size_leaf_vector":"1"}},{"base_weights":[-4.196135E-3,-1.4339985E0,1.259748E0,-7.7652085E-1,-1.5162894E0,1.5086048E0,-1.579607E-1,-1.4831043E0,1.9933641E-1,-1.5362728E0,-1.2432146E0,-6.6404366E-1,1.5710189E0,-1.5548971E-1,-6.704255E-1,3.834267E-1,-1.5191643E-1,-1.405394E0,-1.5492822E0,-1.4858888E0,2.3448011E-1,6.639926E-1,-1.5133508E-1,-1.3753988E-1,1.5746173E-1,-4.1262272E-1,-1.4236076E-1,-1.1068578E0,6.498542E-1,-1.462081E0,-4.8955023E-1,-1.5566674E-1,-1.4284049E0,-1.54875E0,-9.6089196E-1,4.42644E-1,-1.362217E-1,1.1811694E0,1.955765E-1,-1.3322616E-1,-2.0213428E-1,-1.1870506E0,-1.6315089E-1,-1.7718059E-1,1.0955571E0,-5.9327555E-1,-1.4674511E0,-1.3784331E-1,9.810064E-3,-1.4938956E0,-4.72431E-2,-5.2006986E-2,-1.5520499E0,3.2418802E-1,-1.1189111E0,8.390101E-1,8.531248E-2,-8.949115E-2,1.3303066E0,-5.0576144E-1,1.1493679E0,4.9423963E-1,-4.7432366E-1,-8.5876805E-1,-1.4670981E-1,8.394291E-2,-1.16429165E-1,-1.0298376E0,1.3022511E-2,1.8443957E-2,1.2185767E0,-1.0712185E-1,3.6111765E-2,-1.4907482E-1,-1.2008897E0,6.504868E-1,-1.0998147E0,-1.503982E0,-8.7892324E-1,-1.3033642E-1,7.022338E-1,-1.5547654E-1,-5.0022304E-2,6.834759E-2,-4.143601E-2,-8.9667225E-1,-1.4680205E-1,-8.8130094E-2,1.0508647E0,-1.8495072E-1,9.5366025E-1,2.677413E-1,1.4802577E0,-1.0752935E0,1.09931685E-1,-1.5762503E-3,1.2431195E0,8.199212E-2,-5.5600572E-2,-6.232645E-2,8.324927E-2,-1.09986804E-1,3.5557026E-4,-1.7602857E-2,-1.2424158E-1,-1.13366365E-1,8.099321E-3,4.460928E-2,-8.910812E-2,-2.7023783E-2,1.2717362E-1,-3.8016716E-3,-1.3587737E-1,1.002407E-1,9.41852E-3,-1.789261E-2,-1.251375E-1,-1.507376E-1,-5.222689E-2,1.0254564E-2,-1.3059013E-1,1.0557387E-1,-8.628235E-2,-1.3328525E-1,-2.9682094E-2,1.2534277E-1,-7.287522E-2,1.0692669E-2,-6.2069E-2,-3.051284E-2,1.3143642E-1,-3.6782485E-2,7.865109E-2,4.5685314E-2,1.509385E-1,-3.5284035E-2,-1.3793592E-1,1.2883191E-1,3.672437E-2],"categories":[],"categories_nodes":[],"categories_segments":[],"categories_sizes":[],"default_left":[1,0,0,0,1,0,0,1,0,0,1,0,0,0,0,0,0,1,1,0,0,0,0,0,0,0,0,1,0,0,0,0,0,0,0,0,0,0,0,0,0,0,0,0,0,0,1,0,0,0,0,0,1,0,0,0,0,0,0,0,0,0,0,0,0,0,0,0,0,0,0,0,0,0,0,0,0,0,0,0,0,0,0,0,0,0,0,0,0,0,0,0,0,0,0,0,0,0,0,0,0,0,0,0,0,0,0,0,0,0,0,0,0,0,0,0,0,0,0,0,0,0,0,0,0,0,0,0,0,0,0,0,0,0,0,0,0,0,0],"id":3,"left_children":[1,3,5,7,9,11,-1,13,15,17,19,21,23,-1,25,27,-1,29,31,33,35,37,-1,-1,-1,39,-1,41,43,45,47,-1,49,51,53,55,-1,57,59,-1,61,63,65,67,69,71,73,-1,75,77,79,-1,81,83,85,87,89,-1,91,93,95,97,99,101,-1,-1,-1,103,105,107,109,-1,-1,-1,111,113,115,117,119,-1,121,-1,-1,-1,-1,123,-1,-1,125,127,129,131,133,135,-1,-1,137,-1,-1,-1,-1,-1,-1,-1,-1,-1,-1,-1,-1,-1,-1,-1,-1,-1,-1,-1,-1,-1,-1,-1,-1,-1,-1,-1,-1,-1,-1,-1,-1,-1,-1,-1,-1,-1,-1,-1,-1,-1,-1],"loss_changes":[2.2491352E4,3.147705E2,4.6700547E3,4.4961615E2,2.6405273E1,8.247119E2,0E0,2.1016663E1,8.744E1,6.048828E0,1.2911157E2,1.9311229E2,6.477051E1,0E0,5.7129374E0,9.950076E1,0E0,2.251892E1,1.6904297E0,8.694885E0,1.7725054E1,1.6031895E1,0E0,0E0,0E0,4.6825523E0,0E0,2.689804E0,7.8223785E1,1.0935059E0,1.2259863E1,0E0,2.3861633E1,1.22558594E-1,7.59795E0,6.4900055E0,0E0,1.100758E1,2.4947002E1,0E0,4.4035892E0,1.9539604E0,5.1362658E0,1.2175352E1,1.8222763E1,2.3321295E0,8.036499E-1,0E0,1.3979922E1,2.4468994E-1,1.3163641E1,0E0,7.9345703E-4,1.5241982E0,1.1627502E0,8.889849E0,6.1553187E0,0E0,4.381092E0,2.100508E1,1.7389259E0,2.7376642E0,3.6962476E0,3.8511724E0,0E0,0E0,0E0,2.2660227E0,4.9476604E0,6.2823E0,1.0123123E1,0E0,0E0,0E0,7.0562363E0,2.3443651E0,7.811899E-1,3.6010742E-2,2.850192E0,0E0,5.778644E0,0E0,0E0,0E0,0E0,5.3849792E0,0E0,0E0,8.091129E0,2.6439843E0,3.2205386E0,1.9144188E0,8.710861E-2,3.140337E0,0E0,0E0,1.0410118E-1,0E0,0E0,0E0,0E0,0E0,0E0,0E0,0E0,0E0,0E0,0E0,0E0,0E0,0E0,0E0,0E0,0E0,0E0,0E0,0E0,0E0,0E0,0E0,0E0,0E0,0E0,0E0,0E0,0E0,0E0,0E0,0E0,0E0,0E0,0E0,0E0,0E0,0E0,0E0,0E0,0E0,0E0],"parents":[2147483647,0,0,1,1,2,2,3,3,4,4,5,5,7,7,8,8,9,9,10,10,11,11,12,12,14,14,15,15,17,17,18,18,19,19,20,20,21,21,25,25,27,27,28,28,29,29,30,30,32,32,33,33,34,34,35,35,37,37,38,38,40,40,41,41,42,42,43,43,44,44,45,45,46,46,48,48,49,49,50,50,52,52,53,53,54,54,55,55,56,56,58,58,59,59,60,60,61,61,62,62,63,63,67,67,68,68,69,69,70,70,74,74,75,75,76,76,77,77,78,78,80,80,85,85,88,88,89,89,90,90,91,91,92,92,93,93,96,96],"right_children":[2,4,6,8,10,12,-1,14,16,18,20,22,24,-1,26,28,-1,30,32,34,36,38,-1,-1,-1,40,-1,42,44,46,48,-1,50,52,54,56,-1,58,60,-1,62,64,66,68,70,72,74,-1,76,78,80,-1,82,84,86,88,90,-1,92,94,96,98,100,102,-1,-1,-1,104,106,108,110,-1,-1,-1,112,114,116,118,120,-1,122,-1,-1,-1,-1,124,-1,-1,126,128,130,132,134,136,-1,-1,138,-1,-1,-1,-1,-1,-1,-1,-1,-1,-1,-1,-1,-1,-1,-1,-1,-1,-1,-1,-1,-1,-1,-1,-1,-1,-1,-1,-1,-1,-1,-1,-1,-1,-1,-1,-1,-1,-1,-1,-1,-1,-1],"split_conditions":[7.277097E-1,1E0,2E0,0E0,4.2491275E-1,4.9069E-1,-1.579607E-1,3.407062E-1,2E0,1.231261E2,7.5E1,5.12E2,1E0,-1.5548971E-1,2E0,1.8055E-1,-1.5191643E-1,2.2974636E-1,1.41E2,4.13E-1,2E0,5.8289456E0,-1.5133508E-1,-1.3753988E-1,1.5746173E-1,3.1925E-1,-1.4236076E-1,6.6844803E-1,2.0231397E-1,4.691348E0,2.7186E-1,-1.5566674E-1,3.0465326E-1,5.056246E0,5.4071717E0,8.804672E1,-1.362217E-1,1.4177832E1,2.9478E-1,-1.3322616E-1,7.758621E1,5.0274906E1,9.8765434E1,9.92E1,3.4585E-1,9.27E1,1.0113671E-1,-1.3784331E-1,9.9451E-1,2.2974636E-1,9.8254E-1,-5.2006986E-2,1.5772113E1,7.106E-1,9.9698E-1,1.1312E-1,6.6844803E-1,-8.949115E-2,8.029557E1,9.624794E-1,5.94E1,9.9876E-1,6.966858E-1,9.785714E1,-1.4670981E-1,8.394291E-2,-1.16429165E-1,5.7170277E0,1E0,9.883495E1,5.0369525E0,-1.0712185E-1,3.6111765E-2,-1.4907482E-1,5.293305E0,5.888878E0,9.9765E-1,9.996123E1,2.04E2,-1.3033642E-1,2E0,-1.5547654E-1,-5.0022304E-2,6.834759E-2,-4.143601E-2,7.106E-1,-1.4680205E-1,-8.8130094E-2,9.9799E-1,1.86E2,9.7161E-1,9.87E1,3.894E-2,8.601547E1,1.09931685E-1,-1.5762503E-3,9.8947746E-1,8.199212E-2,-5.5600572E-2,-6.232645E-2,8.324927E-2,-1.09986804E-1,3.5557026E-4,-1.7602857E-2,-1.2424158E-1,-1.13366365E-1,8.099321E-3,4.460928E-2,-8.910812E-2,-2.7023783E-2,1.2717362E-1,-3.8016716E-3,-1.3587737E-1,1.002407E-1,9.41852E-3,-1.789261E-2,-1.251375E-1,-1.507376E-1,-5.222689E-2,1.0254564E-2,-1.3059013E-1,1.0557387E-1,-8.628235E-2,-1.3328525E-1,-2.9682094E-2,1.2534277E-1,-7.287522E-2,1.0692669E-2,-6.2069E-2,-3.051284E-2,1.3143642E-1,-3.6782485E-2,7.865109E-2,4.5685314E-2,1.509385E-1,-3.5284035E-2,-1.3793592E-1,1.2883191E-1,3.672437E-2],"split_indices":[0,6,2,6,0,8,0,0,2,5,4,6,13,0,2,8,0,0,6,8,2,11,0,0,0,8,0,0,0,11,8,0,0,11,11,5,0,5,8,0,7,5,7,4,8,4,0,0,8,0,8,0,5,8,8,8,0,0,7,0,4,8,0,7,0,0,0,11,12,7,11,0,0,0,11,11,8,7,6,0,2,0,0,0,0,8,0,0,8,6,8,4,8,5,0,0,0,0,0,0,0,0,0,0,0,0,0,0,0,0,0,0,0,0,0,0,0,0,0,0,0,0,0,0,0,0,0,0,0,0,0,0,0,0,0,0,0,0,0],"split_type":[0,0,0,0,0,0,0,0,0,0,0,0,0,0,0,0,0,0,0,0,0,0,0,0,0,0,0,0,0,0,0,0,0,0,0,0,0,0,0,0,0,0,0,0,0,0,0,0,0,0,0,0,0,0,0,0,0,0,0,0,0,0,0,0,0,0,0,0,0,0,0,0,0,0,0,0,0,0,0,0,0,0,0,0,0,0,0,0,0,0,0,0,0,0,0,0,0,0,0,0,0,0,0,0,0,0,0,0,0,0,0,0,0,0,0,0,0,0,0,0,0,0,0,0,0,0,0,0,0,0,0,0,0,0,0,0,0,0,0],"sum_hessian":[1.2443481E4,5.8385947E3,6.604886E3,6.506382E2,5.1879565E3,6.0730767E3,5.318096E2,3.7708475E2,2.7355344E2,4.8298833E3,3.580734E2,1.693215E2,5.9037554E3,3.4563754E2,3.1447199E1,2.4778676E2,2.5766682E1,4.4654227E2,4.383341E3,3.0755902E2,5.0514374E1,6.613163E1,1.0318987E2,6.7362475E0,5.897019E3,2.4581251E1,6.8659472E0,3.7101574E1,2.1068518E2,4.199525E2,2.6589756E1,4.1197607E3,2.635801E2,2.7292938E2,3.462962E1,4.5327705E1,5.1866684E0,3.070676E1,3.542487E1,3.585699E0,2.0995552E1,3.3958076E1,3.1434963E0,7.399131E1,1.3669388E2,3.2646346E0,4.1668787E2,8.931286E0,1.7658472E1,2.5156976E2,1.2010342E1,1.3798519E0,2.7154956E2,3.6767929E0,3.0952826E1,2.0850986E1,2.4476719E1,1.7228633E0,2.8983898E1,2.0684769E1,1.4740102E1,5.6709933E0,1.5324559E1,1.750479E1,1.6453289E1,1.6513249E0,1.4921714E0,1.2689854E1,6.1301453E1,1.4129666E1,1.2256421E2,2.0937262E0,1.1709083E0,3.7897366E2,3.7714203E1,1.145712E1,6.201351E0,2.4608801E2,5.4817486E0,4.2120037E0,7.7983375E0,2.7037335E2,1.1761913E0,2.5236564E0,1.1531365E0,2.1093443E1,9.859382E0,1.939757E0,1.891123E1,1.9267073E1,5.2096453E0,3.9289038E0,2.5054995E1,1.5511035E1,5.173733E0,1.1596769E0,1.3580425E1,4.496066E0,1.174927E0,1.422623E1,1.0983293E0,1.3464682E1,4.0401063E0,2.8940647E0,9.795789E0,2.5529926E0,5.8748463E1,9.957357E0,4.172309E0,4.0846186E0,1.1847958E2,4.656702E0,3.3057503E1,6.5264993E0,4.9306207E0,1.1845455E0,5.0168056E0,2.4470656E2,1.3814651E0,1.892168E0,3.5895808E0,6.626923E0,1.1714146E0,1.1505373E1,9.588071E0,1.7244112E1,1.6671177E0,1.19901495E1,7.276923E0,1.1946428E0,4.0150027E0,1.8964505E0,2.0324533E0,1.1550835E0,2.389991E1,5.2344656E0,1.0276569E1,1.2466215E1,1.1142094E0],"tree_param":{"num_deleted":"0","num_feature":"14","num_nodes":"139","size_leaf_vector":"1"}},{"base_weights":[4.899254E-3,-1.3498148E0,1.1941961E0,-7.1720773E-1,-1.4317341E0,-1.3440369E0,1.4442058E0,-1.3984851E0,1.8020163E-1,-1.4424965E0,-9.497934E-1,-2.253427E-1,-1.4941673E-1,-4.5628724E-1,1.4867553E0,-1.466822E-1,-5.983236E-1,3.9006677E-1,-1.4565913E-1,-1.3082024E0,-1.4626776E0,-1.3602536E0,6.4851075E-1,-1.2290269E0,1.1098876E0,7.307923E-1,-1.4052696E0,1.4919455E0,1.3771218E-1,-7.2207177E-1,6.803765E-1,-7.598337E-1,6.906458E-1,-1.3901198E0,-2.9620644E-1,-1.4699155E0,-1.3251555E0,-1.4147162E0,-4.624105E-1,8.814429E-1,-9.033582E-2,-2.4215199E-1,-1.462801E-1,1.3784356E0,-2.64167E-1,1.1705022E0,2.8328586E-1,-1.4337287E0,-5.6853056E-1,9.5937663E-1,1.4927067E-1,-1.345031E-1,8.4619296E-1,-8.920102E-1,2.4788706E-1,1.5896918E-2,8.752421E-2,-1.21408E0,-1.345094E-1,-7.046972E-2,1.1248494E0,2.7005428E-2,-1.3939248E0,-8.565585E-1,1.5061034E-1,-1.4875472E-1,-1.436263E0,-1.3660383E0,9.142635E-1,-4.4727217E-2,-1.4248977E0,6.7025565E-2,-9.6844876E-1,-1.6634965E-2,9.8338574E-1,-7.0464635E-1,8.62238E-2,4.9283087E-2,1.4289443E-1,-7.539127E-1,9.240813E-2,1.246675E0,-3.3142872E-2,-1.9724822E-1,1.2346151E0,-1.444342E-1,-4.464294E-2,3.7302546E-2,-1.05978094E-1,1.3393359E-1,-8.7147504E-2,1.2448189E0,-1.248892E-1,-3.9337364E-1,-1.0283163E0,-4.231869E-1,1.14539266E-1,-1.356937E-1,-4.3853322E-1,8.560986E-1,-6.800935E-1,-9.860788E-1,1.4904739E-1,-5.5147076E-1,1.207783E0,-1.4495872E-1,-1.2953178E0,8.514966E-2,-1.0117038E0,6.4465314E-1,-4.386844E-1,-1.4662482E0,-1.239022E0,-1.4032408E0,-6.529399E-1,-1.4587419E-2,1.332546E-1,-1.4525607E-1,-8.578166E-1,-1.493323E-2,-1.1801143E-1,1.2503088E0,5.4871404E-1,-1.00594815E-2,-9.6094236E-2,-9.322129E-2,-1.3483216E-2,7.717553E-1,1.378606E0,-5.882218E-1,7.457109E-1,2.7154753E-2,1.3782424E-1,1.2277505E-2,1.3490658E-1,-6.074338E-2,3.1743228E-1,-1.1491803E-1,3.9975476E-2,-3.5409495E-2,-1.1544601E-1,-6.184381E-2,-6.589384E-4,3.3275705E-2,-7.4667595E-2,-4.856349E-2,1.5523145E-1,-1.5640235E-2,-1.1285188E-1,2.4209375E-2,-1.17184535E-1,-4.482751E-2,2.6534408E-2,7.2924785E-2,-1.1229881E-1,4.9193498E-2,1.2888351E-1,-1.4315991E-1,-9.24376E-2,-1.1474007E-1,-3.210343E-2,8.233717E-2,-6.687815E-2,3.8847942E-2,-8.525248E-2,-6.91794E-2,-1.4684092E-1,3.564416E-2,-1.3490635E-1,-1.01100855E-1,-1.4300694E-1,-1.0014887E-1,5.0501388E-2,1.8839904E-3,-1.0586905E-1,1.376911E-1,7.1301917E-3,-4.42687E-2,7.907049E-2,2.2962776E-3,1.030931E-1,4.343411E-2,1.4127018E-1,-9.754095E-2,1.823766E-2,9.244125E-2,2.9886928E-3,8.292454E-2,-3.1756636E-2],"categories":[],"categories_nodes":[],"categories_segments":[],"categories_sizes":[],"default_left":[1,0,0,0,1,0,0,1,0,0,1,0,0,0,0,0,0,0,0,1,1,0,0,0,0,0,0,0,0,0,0,1,0,0,0,1,0,0,0,0,0,0,0,0,1,0,0,0,0,0,0,0,0,0,0,0,0,0,0,0,0,0,0,0,0,0,0,0,0,0,0,0,0,0,0,0,0,0,0,0,0,0,0,0,0,0,0,0,0,0,0,0,0,0,0,0,0,0,0,0,0,0,0,0,0,0,0,0,0,0,0,0,0,0,0,0,0,0,0,0,0,0,0,0,0,0,0,0,0,0,0,0,0,0,0,0,0,0,0,0,0,0,0,0,0,0,0,0,0,0,0,0,0,0,0,0,0,0,0,0,0,0,0,0,0,0,0,0,0,0,0,0,0,0,0,0,0,0,0,0,0,0,0,0,0,0,0,0,0],"id":4,"left_children":[1,3,5,7,9,11,13,15,17,19,21,23,-1,25,27,-1,29,31,-1,33,35,37,39,41,43,45,47,49,51,53,55,57,59,61,63,65,67,69,71,73,-1,75,-1,77,79,81,83,85,87,89,-1,-1,91,93,95,-1,-1,97,99,101,103,-1,105,107,109,-1,111,113,115,-1,117,-1,119,-1,121,123,-1,-1,-1,125,-1,127,-1,129,131,-1,-1,-1,-1,-1,-1,133,135,137,139,141,-1,-1,143,145,147,149,151,153,155,-1,157,-1,159,161,163,165,167,169,171,-1,-1,-1,173,-1,-1,175,177,-1,-1,-1,-1,179,181,183,185,-1,-1,-1,-1,-1,187,-1,-1,-1,-1,-1,-1,-1,-1,-1,-1,-1,-1,-1,-1,-1,-1,-1,-1,-1,-1,-1,-1,-1,-1,-1,-1,-1,-1,-1,-1,-1,-1,-1,-1,-1,-1,-1,-1,-1,-1,-1,-1,-1,-1,-1,-1,-1,-1,-1,-1,-1,-1],"loss_changes":[1.9193514E4,2.8758105E2,4.0275674E3,3.9184183E2,2.4201172E1,9.528284E1,4.6770508E2,1.9037415E1,9.5818954E1,1.11484375E1,7.344657E1,9.322125E1,0E0,1.4436188E2,3.9350586E1,0E0,5.293165E0,8.574689E1,0E0,5.257556E1,2.2148438E0,3.6651154E0,9.2109995E0,8.782604E0,1.1411503E1,1.0920916E1,8.7683105E-1,8.496094E-1,2.5040133E1,4.8617783E0,1.8523836E-1,1.4485613E1,6.485142E1,4.1101074E0,1.2431155E1,2.1484375E-1,2.132138E1,1.7819214E-1,4.396083E0,2.3796349E0,0E0,5.0937786E0,0E0,4.232025E-1,4.0334206E0,3.676571E0,1.380277E1,6.8359375E-2,2.2428164E0,8.700657E0,0E0,0E0,6.352996E0,1.2385197E0,3.4839792E0,0E0,0E0,2.7007065E0,1.2917721E1,1.4645875E1,1.80242E1,0E0,1.3599854E0,6.6775055E0,8.489179E0,0E0,6.4143066E0,4.8063965E0,2.203059E0,0E0,3.2058716E-2,0E0,6.78102E-1,0E0,1.5244026E0,9.4693804E-1,0E0,0E0,0E0,3.8328457E-1,0E0,6.501961E-1,0E0,8.021768E0,1.0216789E0,0E0,0E0,0E0,0E0,0E0,0E0,1.1727257E0,1.3813101E0,4.5410976E0,1.153122E0,2.870862E-1,0E0,0E0,1.6993431E0,8.739565E0,3.4106927E0,3.4964437E0,4.221316E0,5.629697E0,6.287033E0,0E0,9.910492E0,0E0,1.5601635E0,4.2448707E0,4.935159E0,9.968262E-1,3.38573E1,7.024231E-1,5.5774364E0,0E0,0E0,0E0,1.1173639E0,0E0,0E0,1.5469322E0,2.5165145E0,0E0,0E0,0E0,0E0,1.5714526E0,3.4770966E-2,4.6829586E0,7.999611E-1,0E0,0E0,0E0,0E0,0E0,1.4209929E0,0E0,0E0,0E0,0E0,0E0,0E0,0E0,0E0,0E0,0E0,0E0,0E0,0E0,0E0,0E0,0E0,0E0,0E0,0E0,0E0,0E0,0E0,0E0,0E0,0E0,0E0,0E0,0E0,0E0,0E0,0E0,0E0,0E0,0E0,0E0,0E0,0E0,0E0,0E0,0E0,0E0,0E0,0E0,0E0,0E0,0E0,0E0,0E0,0E0,0E0,0E0,0E0],"parents":[2147483647,0,0,1,1,2,2,3,3,4,4,5,5,6,6,7,7,8,8,9,9,10,10,11,11,13,13,14,14,16,16,17,17,19,19,20,20,21,21,22,22,23,23,24,24,25,25,26,26,27,27,28,28,29,29,30,30,31,31,32,32,33,33,34,34,35,35,36,36,37,37,38,38,39,39,41,41,43,43,44,44,45,45,46,46,47,47,48,48,49,49,52,52,53,53,54,54,57,57,58,58,59,59,60,60,62,62,63,63,64,64,66,66,67,67,68,68,70,70,72,72,74,74,75,75,79,79,81,81,83,83,84,84,91,91,92,92,93,93,94,94,95,95,98,98,99,99,100,100,101,101,102,102,103,103,104,104,106,106,108,108,109,109,110,110,111,111,112,112,113,113,114,114,118,118,121,121,122,122,127,127,128,128,129,129,130,130,136,136],"right_children":[2,4,6,8,10,12,14,16,18,20,22,24,-1,26,28,-1,30,32,-1,34,36,38,40,42,44,46,48,50,52,54,56,58,60,62,64,66,68,70,72,74,-1,76,-1,78,80,82,84,86,88,90,-1,-1,92,94,96,-1,-1,98,100,102,104,-1,106,108,110,-1,112,114,116,-1,118,-1,120,-1,122,124,-1,-1,-1,126,-1,128,-1,130,132,-1,-1,-1,-1,-1,-1,134,136,138,140,142,-1,-1,144,146,148,150,152,154,156,-1,158,-1,160,162,164,166,168,170,172,-1,-1,-1,174,-1,-1,176,178,-1,-1,-1,-1,180,182,184,186,-1,-1,-1,-1,-1,188,-1,-1,-1,-1,-1,-1,-1,-1,-1,-1,-1,-1,-1,-1,-1,-1,-1,-1,-1,-1,-1,-1,-1,-1,-1,-1,-1,-1,-1,-1,-1,-1,-1,-1,-1,-1,-1,-1,-1,-1,-1,-1,-1,-1,-1,-1,-1,-1,-1,-1,-1,-1],"split_conditions":[7.277097E-1,1E0,5.415008E-1,0E0,6.093835E-1,3E0,4.9069E-1,3.407062E-1,3E0,9.9333336E1,7.436974E1,4.9069E-1,-1.4941673E-1,2.04E2,3E0,-1.466822E-1,6.966858E-1,3.4585E-1,-1.4565913E-1,2.5528222E-1,1.41E2,5.9471E-1,3E0,9.942197E1,5E1,5.8289456E0,9.800817E-1,5.3816E-1,9.1230917E-1,9.9898094E-1,-3.3E1,4.369642E-1,2.0231397E-1,4.6634393E0,9.48E1,4.9069E-1,6.093835E-1,5.214936E0,9.5857E-1,2.7186E-1,-9.033582E-2,2.5032E-1,-1.462801E-1,1.0899507E-1,9.801136E1,3.1E1,9.694281E-1,9.8057985E-1,5.8289456E0,2E2,1.4927067E-1,-1.345031E-1,7.351158E0,9.81E1,5.2404666E-1,1.5896918E-2,8.752421E-2,1.8055E-1,5.433722E0,9.92E1,1.0899507E-1,2.7005428E-2,8.5498564E-2,9E0,6.0844994E0,-1.4875472E-1,3.2203105E-1,2.431688E-1,9.9858E-1,-4.4727217E-2,4.13E-1,6.7025565E-2,2E2,-1.6634965E-2,9.9166664E1,5.8289456E0,8.62238E-2,4.9283087E-2,1.4289443E-1,9.399421E-1,9.240813E-2,9.186876E1,-3.3142872E-2,9.4913256E-1,9.913793E1,-1.444342E-1,-4.464294E-2,3.7302546E-2,-1.05978094E-1,1.3393359E-1,-8.7147504E-2,9.3225175E-1,8.727273E1,6.0000004E1,6.163315E0,7.4289274E0,1.14539266E-1,-1.356937E-1,7.902098E1,5.728E-2,9.883495E1,2E0,9.656121E1,9.6556E-1,9.3E1,-1.4495872E-1,9.89E1,8.514966E-2,8.5691583E-1,9.9651E-1,9.99E1,4.912655E0,9.987937E1,9.41E1,9.98062E1,-1.4587419E-2,1.332546E-1,-1.4525607E-1,5.4595857E0,-1.493323E-2,-1.1801143E-1,9.9952E-1,9.942197E1,-1.00594815E-2,-9.6094236E-2,-9.322129E-2,-1.3483216E-2,8.88E1,3.894E-2,2.9478E-1,9.919355E1,2.7154753E-2,1.3782424E-1,1.2277505E-2,1.3490658E-1,-6.074338E-2,1E0,-1.1491803E-1,3.9975476E-2,-3.5409495E-2,-1.1544601E-1,-6.184381E-2,-6.589384E-4,3.3275705E-2,-7.4667595E-2,-4.856349E-2,1.5523145E-1,-1.5640235E-2,-1.1285188E-1,2.4209375E-2,-1.17184535E-1,-4.482751E-2,2.6534408E-2,7.2924785E-2,-1.1229881E-1,4.9193498E-2,1.2888351E-1,-1.4315991E-1,-9.24376E-2,-1.1474007E-1,-3.210343E-2,8.233717E-2,-6.687815E-2,3.8847942E-2,-8.525248E-2,-6.91794E-2,-1.4684092E-1,3.564416E-2,-1.3490635E-1,-1.01100855E-1,-1.4300694E-1,-1.0014887E-1,5.0501388E-2,1.8839904E-3,-1.0586905E-1,1.376911E-1,7.1301917E-3,-4.42687E-2,7.907049E-2,2.2962776E-3,1.030931E-1,4.343411E-2,1.4127018E-1,-9.754095E-2,1.823766E-2,9.244125E-2,2.9886928E-3,8.292454E-2,-3.1756636E-2],"split_indices":[0,6,1,6,0,3,8,0,3,7,7,8,0,6,3,0,0,8,0,0,6,8,3,7,6,11,1,8,1,1,6,1,0,11,4,8,0,11,8,8,0,8,0,1,7,6,1,0,11,4,0,0,11,4,0,0,0,8,11,4,1,0,0,6,11,0,0,0,8,0,8,0,4,0,7,11,0,0,0,0,0,7,0,0,7,0,0,0,0,0,0,0,7,7,11,11,0,0,7,8,7,3,7,8,4,0,4,0,1,8,4,11,7,4,7,0,0,0,11,0,0,8,7,0,0,0,0,4,8,8,7,0,0,0,0,0,6,0,0,0,0,0,0,0,0,0,0,0,0,0,0,0,0,0,0,0,0,0,0,0,0,0,0,0,0,0,0,0,0,0,0,0,0,0,0,0,0,0,0,0,0,0,0,0,0,0,0,0,0],"split_type":[0,0,0,0,0,0,0,0,0,0,0,0,0,0,0,0,0,0,0,0,0,0,0,0,0,0,0,0,0,0,0,0,0,0,0,0,0,0,0,0,0,0,0,0,0,0,0,0,0,0,0,0,0,0,0,0,0,0,0,0,0,0,0,0,0,0,0,0,0,0,0,0,0,0,0,0,0,0,0,0,0,0,0,0,0,0,0,0,0,0,0,0,0,0,0,0,0,0,0,0,0,0,0,0,0,0,0,0,0,0,0,0,0,0,0,0,0,0,0,0,0,0,0,0,0,0,0,0,0,0,0,0,0,0,0,0,0,0,0,0,0,0,0,0,0,0,0,0,0,0,0,0,0,0,0,0,0,0,0,0,0,0,0,0,0,0,0,0,0,0,0,0,0,0,0,0,0,0,0,0,0,0,0,0,0,0,0,0,0],"sum_hessian":[1.1910875E4,5.5681387E3,6.3427363E3,6.394967E2,4.928642E3,5.683334E2,5.774403E3,3.632065E2,2.762902E2,4.819032E3,1.0960973E2,6.754248E1,5.007909E2,1.26237175E2,5.648166E3,3.3386032E2,2.9346188E1,2.4556609E2,3.0724125E1,6.381722E2,4.1808604E3,8.733117E1,2.227856E1,3.8603794E1,2.8938688E1,5.618519E1,7.005199E1,5.6264126E3,2.1753061E1,2.7153658E1,2.1925297E0,5.0571384E1,1.9499469E2,5.9003723E2,4.8134956E1,3.9626184E3,2.1824184E2,8.1793915E1,5.5372562E0,1.9746643E1,2.5319161E0,7.7831492E0,3.0820644E1,2.4204855E1,4.7338333E0,2.7524557E1,2.8660631E1,6.7057755E1,2.9942324E0,9.829399E0,5.6165835E3,6.7428417E0,1.501022E1,2.3173912E1,3.9797451E0,1.090483E0,1.1020467E0,2.8747322E1,2.1824064E1,7.1136765E1,1.2385793E2,1.1892639E0,5.8884796E2,2.0947594E1,2.718736E1,2.5719019E3,1.3907166E3,2.1471205E2,3.529785E0,1.3197659E0,8.047415E1,1.6097145E0,3.9275417E0,1.6948438E0,1.80518E1,5.7409315E0,2.0422175E0,1.8864088E0,2.2318445E1,3.611041E0,1.1227924E0,2.6357735E1,1.1668234E0,1.956875E1,9.09188E0,6.588656E1,1.1711931E0,1.1091118E0,1.8851205E0,8.362401E0,1.4669976E0,1.0441947E1,4.568272E0,5.8090687E0,1.7364843E1,2.579507E0,1.400238E0,2.3642653E1,5.1046686E0,7.548762E0,1.4275302E1,1.308152E1,5.8055244E1,5.5725E0,1.1828543E2,3.6762692E2,2.2122101E2,1.3705293E0,1.9577065E1,1.4737799E1,1.2449563E1,1.2016102E3,1.8910626E2,2.0314607E2,1.1565976E1,1.1829219E0,2.346863E0,7.524226E1,5.2318864E0,1.1567171E0,2.7708247E0,1.0021412E1,8.030388E0,2.1250346E0,3.615897E0,2.4108844E0,1.2001567E0,7.2193832E0,1.9138351E1,1.4099114E1,5.4696364E0,1.5550967E0,7.5367837E0,1.072797E0,9.36915E0,2.0062718E0,2.5620005E0,2.7446506E0,3.0644183E0,3.3368583E0,1.4027985E1,1.4264568E0,1.1530504E0,1.4344126E0,3.6702564E0,2.6821806E0,4.8665814E0,7.2071958E0,7.0681057E0,1.6788431E0,1.1402677E1,8.995911E0,4.9059334E1,1.6342678E0,3.9382322E0,1.2749729E1,1.055357E2,1.59692E2,6.1529003E1,1.5809634E1,3.7674303E0,1.3301045E1,1.4367529E0,4.1720185E0,8.277544E0,4.2370143E0,1.1973732E3,1.2056921E1,1.7704935E2,1.5482093E1,1.8766399E2,8.993898E0,2.5720775E0,1.1442676E0,4.087619E0,8.898077E0,1.123335E0,1.412839E0,6.617549E0,2.1362052E0,5.083178E0,1.1457673E0,1.7992584E1,9.207178E0,4.891936E0,4.14377E0,1.3258661E0,1.24922E0,1.3127805E0],"tree_param":{"num_deleted":"0","num_feature":"14","num_nodes":"189","size_leaf_vector":"1"}},{"base_weights":[6.9045476E-3,-1.30135E0,1.3753766E0,-1.3480152E0,-6.754913E-1,-4.3137932E-1,1.4134574E0,-1.0786303E0,-1.3744217E0,4.228891E-1,-1.0011511E0,-1.2484814E0,6.3008136E-1,1.4193643E0,-1.3455057E-1,-1.2681593E0,-6.9358414E-1,-1.403184E0,-1.2854543E0,7.010147E-1,-6.963005E-1,-1.3851468E-1,-6.8540496E-1,-8.5824184E-2,-1.2983508E0,-1.15065224E-1,8.934313E-1,6.534094E-1,1.4236164E-1,-1.3790976E-1,-1.0209154E0,-2.5856298E-1,-1.30524E0,-1.4206164E-1,-1.3707365E0,-1.3405975E0,1.2238581E0,-5.334082E-1,1.0052155E0,-1.0800388E0,1.7132135E-1,-3.5823646E-1,-1.4225267E-1,-6.703371E-2,5.571496E-2,-1.3560875E-1,-7.535748E-1,3.028378E-1,-1.10416904E-1,-3.4501734E-1,9.9410814E-1,1.1469294E0,4.8340115E-1,-1.2768979E0,-3.3664495E-1,-1.2534242E0,1.7952517E-1,-1.038119E0,-1.4087412E-1,-1.391941E0,-1.2434258E0,-1.3814785E-1,-1.2488112E0,-1.03371635E-1,1.6011392E-1,3.201055E-1,-1.022152E0,1.0830692E0,-5.7290745E-1,-1.2230366E0,3.0677674E-2,-5.133549E-1,6.515943E-1,-5.8175844E-1,1.376076E0,5.1154673E-2,-1.0234126E-1,-4.622513E-1,7.425596E-1,4.5093797E-2,-8.973386E-2,8.89347E-2,1.1036116E0,1.2720047E-1,3.3715267E-2,1.9316106E-1,8.4296554E-1,-4.8154446E-1,-1.3309614E-1,-1.031418E0,7.8834563E-1,-1.4411221E-1,-4.872828E-1,4.3678996E-1,-1.6814335E-1,-6.2928003E-1,-1.2927027E0,-1.112E0,-1.4034809E-1,-1.3878598E0,-7.49335E-2,-4.3971714E-1,-1.2595191E0,-6.536286E-2,8.954566E-1,-9.3965E-3,-1.1346415E0,4.322915E-1,1.2300088E0,-1.20840386E-1,2.647767E-2,-1.3683452E-1,-5.2746034E-1,1.8789096E-2,-9.456729E-2,1.0328491E-1,-2.4820777E-2,-6.9607514E-1,4.6252844E-1,4.0459532E-2,1.4231716E-1,-9.588749E-2,2.7881945E-2,-1.7098254E-2,1.0960566E-1,-7.046462E-2,9.746626E-2,7.007132E-3,1.1402353E0,5.944895E-1,-1.1868409E-1,-2.839177E-2,1.028891E0,2.1215713E-2,-1.0664169E-1,-1.2988903E-1,-4.2781074E-2,1.2728386E-1,-5.3199466E-2,-1.18638135E-1,5.999444E-2,6.332023E-2,-1.22062884E-1,-1.1245769E-1,-1.4943541E-3,-5.4696735E-2,-1.412478E-1,-4.5125723E-2,-1.1765303E-1,-1.4012532E-1,3.7446495E-2,-1.16698064E-1,1.0468018E-1,-1.14826754E-1,1.20214615E-2,-1.1292157E-1,-1.3032961E-1,1.5672032E-2,1.1779841E-1,-1.2652007E-1,-1.4841623E-2,1.0804514E-1,-1.1633729E-2,3.1077398E-2,1.3756743E-1,3.142189E-2,-1.00982845E-1,-1.1008555E-2,-7.948713E-2,-6.0856003E-2,9.311463E-2,5.6426387E-2,1.1899351E-1,1.2517502E-2,1.2226435E-1,-1.2268168E-1,3.3660695E-2,1.1584558E-1,1.258407E-2],"categories":[],"categories_nodes":[],"categories_segments":[],"categories_sizes":[],"default_left":[1,1,0,0,0,1,0,1,1,0,0,0,0,0,0,0,0,1,0,0,0,0,0,0,0,0,0,0,0,0,0,0,0,0,0,0,0,0,0,0,0,0,0,0,0,0,0,0,0,0,0,0,0,0,0,0,0,0,0,0,0,0,0,0,0,0,0,0,0,0,0,0,0,0,0,0,0,0,0,0,0,0,0,0,0,0,0,0,0,0,1,0,0,0,0,0,0,0,0,1,0,0,0,0,0,0,0,0,0,0,0,0,0,0,0,0,0,0,0,0,0,0,0,0,0,0,0,0,0,0,0,0,0,0,0,0,0,0,0,0,0,0,0,0,0,0,0,0,0,0,0,0,0,0,0,0,0,0,0,0,0,0,0,0,0,0,0,0,0,0,0,0,0,0,0,0,0,0,0],"id":5,"left_children":[1,3,5,7,9,11,13,15,17,19,21,23,25,27,-1,29,31,33,35,37,39,-1,41,43,45,47,49,51,-1,-1,53,55,57,-1,59,61,63,65,67,69,71,73,-1,-1,-1,-1,75,77,-1,79,81,83,85,87,89,91,93,95,-1,97,99,-1,101,-1,-1,103,105,107,109,111,-1,113,115,117,119,-1,-1,121,123,-1,-1,125,127,-1,-1,129,131,133,-1,135,137,-1,139,141,-1,143,145,147,-1,149,151,153,155,-1,157,-1,159,161,163,-1,-1,-1,165,-1,-1,-1,-1,167,169,-1,-1,-1,-1,-1,-1,-1,-1,-1,171,173,175,-1,177,-1,-1,-1,-1,-1,-1,-1,-1,-1,-1,-1,-1,-1,-1,-1,-1,-1,-1,-1,-1,-1,-1,-1,-1,-1,-1,-1,-1,-1,-1,-1,-1,-1,-1,-1,-1,-1,-1,-1,-1,-1,-1,-1,-1,-1,-1],"loss_changes":[2.0197455E4,1.6753906E2,3.7997852E2,3.669336E1,1.442943E2,1.00166794E2,8.9918945E1,3.4421936E1,1.0693359E1,2.933835E1,3.6700745E1,3.6619263E0,1.0013355E1,1.6621094E1,0E0,7.4504395E0,4.2706947E1,1.3330078E-1,1.6838611E2,2.859983E1,6.4941664E0,0E0,4.1063927E1,1.7818457E0,9.3862915E-1,6.15186E0,5.0098324E0,2.096918E0,0E0,0E0,1.7765862E1,4.197048E1,3.896103E-1,0E0,1.8178711E0,2.701416E0,2.4170834E1,6.7633963E0,8.029751E0,3.007906E0,2.5291767E0,4.7602905E1,0E0,0E0,0E0,0E0,3.3309264E0,3.935798E0,0E0,1.9681011E0,3.3584824E0,3.1739902E-1,2.4704113E0,2.5943909E0,2.3979473E1,3.5267715E0,3.2990345E1,1.5292816E0,0E0,2.0524902E0,3.3151794E1,0E0,2.6855469E0,0E0,0E0,4.159362E0,9.4266224E-1,4.9969406E0,2.1774216E0,5.149021E-1,0E0,1.1814166E0,1.7532021E0,1.3173229E1,6.8424225E-2,0E0,0E0,1.9285445E0,2.501186E0,0E0,0E0,4.096658E0,1.0943565E0,0E0,0E0,1.9802988E0,2.5911255E0,2.804973E0,0E0,2.4724998E0,8.278525E0,0E0,6.258727E0,2.030027E1,0E0,3.2042785E0,3.8165665E-1,1.5623436E0,0E0,4.6627197E0,2.9070658E1,2.685177E0,6.3031006E-1,0E0,7.404108E-1,0E0,9.5470524E-1,4.461032E0,5.8155136E0,0E0,0E0,0E0,1.8363795E0,0E0,0E0,0E0,0E0,5.552952E0,6.199542E0,0E0,0E0,0E0,0E0,0E0,0E0,0E0,0E0,0E0,1.8432999E-1,1.8630393E0,5.1658444E0,0E0,9.815655E-1,0E0,0E0,0E0,0E0,0E0,0E0,0E0,0E0,0E0,0E0,0E0,0E0,0E0,0E0,0E0,0E0,0E0,0E0,0E0,0E0,0E0,0E0,0E0,0E0,0E0,0E0,0E0,0E0,0E0,0E0,0E0,0E0,0E0,0E0,0E0,0E0,0E0,0E0,0E0,0E0,0E0,0E0,0E0,0E0,0E0,0E0],"parents":[2147483647,0,0,1,1,2,2,3,3,4,4,5,5,6,6,7,7,8,8,9,9,10,10,11,11,12,12,13,13,15,15,16,16,17,17,18,18,19,19,20,20,22,22,23,23,24,24,25,25,26,26,27,27,30,30,31,31,32,32,34,34,35,35,36,36,37,37,38,38,39,39,40,40,41,41,46,46,47,47,49,49,50,50,51,51,52,52,53,53,54,54,55,55,56,56,57,57,59,59,60,60,62,62,65,65,66,66,67,67,68,68,69,69,71,71,72,72,73,73,74,74,77,77,78,78,81,81,82,82,85,85,86,86,87,87,89,89,90,90,92,92,93,93,95,95,96,96,97,97,99,99,100,100,101,101,102,102,104,104,106,106,107,107,108,108,112,112,117,117,118,118,128,128,129,129,130,130,132,132],"right_children":[2,4,6,8,10,12,14,16,18,20,22,24,26,28,-1,30,32,34,36,38,40,-1,42,44,46,48,50,52,-1,-1,54,56,58,-1,60,62,64,66,68,70,72,74,-1,-1,-1,-1,76,78,-1,80,82,84,86,88,90,92,94,96,-1,98,100,-1,102,-1,-1,104,106,108,110,112,-1,114,116,118,120,-1,-1,122,124,-1,-1,126,128,-1,-1,130,132,134,-1,136,138,-1,140,142,-1,144,146,148,-1,150,152,154,156,-1,158,-1,160,162,164,-1,-1,-1,166,-1,-1,-1,-1,168,170,-1,-1,-1,-1,-1,-1,-1,-1,-1,172,174,176,-1,178,-1,-1,-1,-1,-1,-1,-1,-1,-1,-1,-1,-1,-1,-1,-1,-1,-1,-1,-1,-1,-1,-1,-1,-1,-1,-1,-1,-1,-1,-1,-1,-1,-1,-1,-1,-1,-1,-1,-1,-1,-1,-1,-1,-1,-1,-1],"split_conditions":[7.6241267E-1,5.742491E-1,4.9069E-1,9.003621E1,1.1937469E2,5.7608692E1,2E0,8.5498564E-2,9.902912E1,6.2878585E0,6.5558E-1,3.0522879E1,8.509601E-1,6.6844803E-1,-1.3455057E-1,9.91E1,5.976351E0,4.13E-1,1.9995562E0,1.5877E-1,6.88054E-1,-1.3851468E-1,2E0,8.21E1,9.391421E-1,8.601547E1,2.7241846E1,9.766153E-1,1.4236164E-1,-1.3790976E-1,6.8299346E-2,1.1955E-1,3E0,-1.4206164E-1,5.660659E-1,5.139277E-1,8.4561E-1,5.4595857E0,9.9916E-1,1.13692505E2,6.3881254E-1,8.242392E-1,-1.4225267E-1,-6.703371E-2,5.571496E-2,-1.3560875E-1,9.4586796E-1,8.6570045E1,-1.10416904E-1,5.676754E0,8.216E-2,2.8527246E2,9.961977E1,5.214936E0,6.5558E-1,5.415008E-1,9.9932E-1,9.9089E-1,-1.4087412E-1,8.7785E-1,9.797E-1,-1.3814785E-1,9.3814E-1,-1.03371635E-1,1.6011392E-1,5.728E-2,5.415008E-1,4.13E-1,7.420066E1,6.44186E-1,3.0677674E-2,9.9089E-1,6.8522425E0,7.329979E-1,8.6E1,5.1154673E-2,-1.0234126E-1,9.08E1,7.277097E-1,4.5093797E-2,-8.973386E-2,8.9861465E-1,5.94E1,1.2720047E-1,3.3715267E-2,6.498282E0,5.518936E-1,1.3885415E-1,-1.3309614E-1,2E0,7.187462E-2,-1.4411221E-1,7.387E-2,3E0,-1.6814335E-1,9.93E1,3.9986515E1,5.09375E0,-1.4034809E-1,7.601919E1,1.9995562E0,2.1825E-1,9.9923E-1,-6.536286E-2,5.3375382E0,-9.3965E-3,8.431574E-1,5.521461E0,3.8068983E-1,-1.20840386E-1,2.647767E-2,-1.3683452E-1,5.2404666E-1,1.8789096E-2,-9.456729E-2,1.0328491E-1,-2.4820777E-2,9.9716E-1,9.96E1,4.0459532E-2,1.4231716E-1,-9.588749E-2,2.7881945E-2,-1.7098254E-2,1.0960566E-1,-7.046462E-2,9.746626E-2,7.007132E-3,7.902098E1,6.3578424E0,6.886532E0,-2.839177E-2,9.9921495E-1,2.1215713E-2,-1.0664169E-1,-1.2988903E-1,-4.2781074E-2,1.2728386E-1,-5.3199466E-2,-1.18638135E-1,5.999444E-2,6.332023E-2,-1.22062884E-1,-1.1245769E-1,-1.4943541E-3,-5.4696735E-2,-1.412478E-1,-4.5125723E-2,-1.1765303E-1,-1.4012532E-1,3.7446495E-2,-1.16698064E-1,1.0468018E-1,-1.14826754E-1,1.20214615E-2,-1.1292157E-1,-1.3032961E-1,1.5672032E-2,1.1779841E-1,-1.2652007E-1,-1.4841623E-2,1.0804514E-1,-1.1633729E-2,3.1077398E-2,1.3756743E-1,3.142189E-2,-1.00982845E-1,-1.1008555E-2,-7.948713E-2,-6.0856003E-2,9.311463E-2,5.6426387E-2,1.1899351E-1,1.2517502E-2,1.2226435E-1,-1.2268168E-1,3.3660695E-2,1.1584558E-1,1.258407E-2],"split_indices":[9,9,8,5,5,7,2,0,7,11,8,5,9,0,0,4,11,8,0,8,9,0,2,4,9,5,5,1,0,0,0,8,3,0,9,9,8,11,8,5,0,0,0,0,0,0,9,7,0,11,8,5,7,11,8,1,8,8,0,8,8,0,8,0,0,8,1,8,5,9,0,8,11,9,4,0,0,4,0,0,0,9,4,0,0,11,0,1,0,3,0,0,8,3,0,4,7,11,0,7,0,8,8,0,11,0,1,11,0,0,0,0,0,0,0,0,0,8,4,0,0,0,0,0,0,0,0,0,7,11,11,0,1,0,0,0,0,0,0,0,0,0,0,0,0,0,0,0,0,0,0,0,0,0,0,0,0,0,0,0,0,0,0,0,0,0,0,0,0,0,0,0,0,0,0,0,0,0,0],"split_type":[0,0,0,0,0,0,0,0,0,0,0,0,0,0,0,0,0,0,0,0,0,0,0,0,0,0,0,0,0,0,0,0,0,0,0,0,0,0,0,0,0,0,0,0,0,0,0,0,0,0,0,0,0,0,0,0,0,0,0,0,0,0,0,0,0,0,0,0,0,0,0,0,0,0,0,0,0,0,0,0,0,0,0,0,0,0,0,0,0,0,0,0,0,0,0,0,0,0,0,0,0,0,0,0,0,0,0,0,0,0,0,0,0,0,0,0,0,0,0,0,0,0,0,0,0,0,0,0,0,0,0,0,0,0,0,0,0,0,0,0,0,0,0,0,0,0,0,0,0,0,0,0,0,0,0,0,0,0,0,0,0,0,0,0,0,0,0,0,0,0,0,0,0,0,0,0,0,0,0],"sum_hessian":[1.1279543E4,5.766673E3,5.51287E3,5.36546E3,4.012129E2,1.1358278E2,5.3992876E3,4.8273175E2,4.882728E3,9.1684006E1,3.095289E2,6.407911E1,4.950367E1,5.388237E3,1.1050623E1,3.219612E2,1.6077054E2,3.678673E3,1.2040549E3,7.373423E1,1.7949774E1,1.3814119E2,1.7138771E2,2.7473881E0,6.1331722E1,1.3073991E1,3.642968E1,3.060032E1,5.3576367E3,2.1908142E2,1.0287981E2,9.47823E1,6.598823E1,2.365203E3,1.3134705E3,1.17862E3,2.5434958E1,1.4429004E1,5.9305225E1,1.2275601E1,5.674172E0,1.197314E2,5.165631E1,1.416826E0,1.330562E0,5.4107975E1,7.2237477E0,9.67856E0,3.3954308E0,2.556358E0,3.387332E1,6.3680596E0,2.4232262E1,7.424064E1,2.8639166E1,2.840831E1,6.637399E1,2.150835E1,4.4479877E1,1.1174226E3,1.960478E2,8.057114E2,3.729085E2,3.3928568E0,2.2042099E1,5.379536E0,9.049467E0,5.6816017E1,2.4892097E0,1.1235209E1,1.0403923E0,2.31089E0,3.3632822E0,1.066506E2,1.3080801E1,1.1124274E0,6.1113205E0,3.5137E0,6.16486E0,1.1224064E0,1.4339517E0,3.851162E0,3.002216E1,5.021628E0,1.3464317E0,1.4259341E1,9.97292E0,5.355814E0,6.888483E1,1.7756353E1,1.08828125E1,2.2110432E1,6.2978797E0,5.898501E1,7.3889856E0,9.585955E0,1.1922397E1,4.8094124E1,1.0693285E3,1.7431364E2,2.1734156E1,5.4201736E0,3.6748834E2,1.9475007E0,3.4320357E0,1.1765676E0,7.8728995E0,1.1191635E1,4.5624382E1,1.1637758E0,1.325434E0,8.493646E0,2.7415638E0,1.0969532E0,1.2139368E0,2.2584798E0,1.1048023E0,9.642817E1,1.0222424E1,1.0482669E0,1.2032534E1,1.9278557E0,1.5858443E0,1.8640102E0,4.3008494E0,2.1390724E0,1.7120893E0,1.1271329E0,2.8895027E1,5.8387775E0,8.420564E0,1.3377638E0,8.635157E0,2.7414784E0,2.6143355E0,1.150593E1,6.250423E0,7.987728E0,2.8950846E0,3.7776268E0,2.5202527E0,5.3288067E1,5.69694E0,4.847331E0,4.738623E0,2.4202478E0,9.502149E0,4.9902773E0,4.3103848E1,1.7320222E2,1.1114205E0,1.0992373E1,1.0741782E1,1.9287553E0,3.4914184E0,9.915267E1,2.6833566E2,1.3795577E0,2.0524778E0,6.7027063E0,1.1701931E0,4.6860666E0,6.505569E0,6.6694818E0,3.89549E1,1.1257848E0,1.615779E0,1.4217016E1,8.221116E1,3.02036E0,7.2020636E0,3.2765474E0,2.5618479E1,4.0283437E0,1.8104337E0,1.9587022E0,6.461861E0,7.3043427E0,1.3308138E0],"tree_param":{"num_deleted":"0","num_feature":"14","num_nodes":"179","size_leaf_vector":"1"}},{"base_weights":[2.6145452E-3,9.895343E-1,-1.0691006E0,1.2433414E0,-1.3701995E-1,-1.3233068E0,-5.880324E-1,-1.3575669E-1,1.2730799E0,-1.0515E0,-1.344952E0,-4.5428995E-2,-8.282273E-1,-4.7638324E-1,1.3096256E0,-7.9241914E-1,-1.3676837E-1,-1.3652067E-1,-1.2825426E0,4.3858815E-2,-1.348941E-1,-1.0090468E0,-6.6919994E-1,-1.1376492E0,2.770485E-1,2.6351368E-1,1.3239675E0,-1.272968E0,-5.783072E-2,-1.3107276E0,-9.3886364E-1,-1.2651926E-1,7.528332E-2,-1.28112E-1,-9.515555E-1,-6.155186E-1,-1.3576737E-1,-1.211986E0,-2.5542223E-1,-8.090058E-1,5.946022E-1,-1.0686979E0,5.347668E-1,8.115835E-1,1.3452835E0,-1.322673E0,1.597739E-1,5.437649E-1,-3.1962997E-1,-1.3642819E-1,-1.2610126E0,2.2537348E-1,-1.0280104E0,-2.5886618E-2,3.444889E-1,-1.0373123E0,1.0053595E-1,-7.511686E-1,-3.2419965E-1,-1.2658763E0,-5.240422E-1,-8.6327694E-2,2.213958E-1,-1.2880533E0,2.9804444E-2,1.0762937E0,-3.583054E-2,-7.819232E-2,-1.362621E-1,-9.2683114E-2,1.286083E0,8.69872E-1,4.5091453E-1,7.81462E-1,1.3468808E0,-1.3333834E0,-2.2987006E-2,-9.936675E-2,1.24359034E-1,-1.0822036E0,1.4357373E0,3.2825324E-1,-9.2149305E-1,-1.2858205E-1,-9.0653723E-1,8.107017E-1,-8.894791E-2,-4.4097477E-1,-1.0907652E0,-1.0775828E-1,2.2667593E-1,1.5840521E-1,6.004509E-1,-1.2332141E0,-9.6565604E-1,-9.360619E-1,5.492892E-1,-6.5262574E-1,-8.6433476E-1,-1.182763E-1,-2.6759505E-1,-1.2809221E-1,-4.2336695E-2,2.3466974E-2,-8.331245E-2,-2.822263E-2,5.5404972E-2,-1.8923957E-2,-1.4776218E-1,6.481564E-2,-3.654072E-2,-6.058091E-2,1.2026872E-1,-6.90304E-2,7.910623E-2,-4.2758726E-2,3.925224E-2,-9.580523E-2,1.3306326E-2,1.7228961E-2,1.4316593E-1,-2.642991E-2,8.837754E-2,5.8278233E-2,-5.2662015E-2,-4.151909E-2,9.1019034E-2,1.0700444E-1,1.3495329E-1,-3.52559E-2,-1.3439463E-1,-1.1783149E-1,-2.8739437E-2,-2.328E-2,1.7413284E-1,5.6659043E-2,-6.566341E-2,-3.4891225E-2,-1.0345917E-1,-1.2238184E-1,1.07442915E-1,1.2678211E-2,1.043324E-1,-9.701812E-2,4.7812667E-2,-4.813812E-2,-1.13778725E-1,1.1851705E-2,-2.259821E-2,-1.0620389E-3,6.41131E-2,5.0443865E-2,-6.6850595E-3,7.911078E-2,3.6264043E-2,-4.6423886E-2,-1.2633656E-1,-7.701226E-2,-1.0265978E-1,-3.863577E-2,-1.20015286E-1,-6.333794E-2,6.4726256E-2,5.199745E-2,-6.610942E-2,-1.1590556E-1,-8.154932E-2,5.3190864E-3,-3.666371E-2],"categories":[],"categories_nodes":[],"categories_segments":[],"categories_sizes":[],"default_left":[0,0,1,0,0,0,0,0,0,0,1,0,1,1,1,0,0,0,1,0,0,0,0,0,0,0,0,1,1,0,0,0,0,0,0,0,0,1,0,0,0,0,0,0,0,0,0,0,0,0,1,0,0,0,0,0,0,0,0,0,0,0,0,0,0,0,0,0,0,0,0,0,0,0,0,0,0,0,0,0,0,0,0,0,0,0,0,0,0,0,0,0,0,0,0,0,0,0,0,0,0,0,0,0,0,0,0,0,0,0,0,0,0,0,0,0,0,0,0,0,0,0,0,0,0,0,0,0,0,0,0,0,0,0,0,0,0,0,0,0,0,0,0,0,0,0,0,0,0,0,0,0,0,0,0,0,0,0,0,0,0,0,0,0,0,0,0,0,0],"id":6,"left_children":[1,3,5,7,-1,9,11,-1,13,15,17,19,21,23,25,27,-1,-1,29,31,-1,33,35,37,39,41,43,45,47,49,51,-1,53,-1,55,57,-1,59,61,63,65,67,69,71,73,75,77,79,81,-1,83,85,87,89,91,93,95,97,99,101,103,-1,105,107,109,111,113,115,-1,117,119,121,123,125,127,129,-1,-1,-1,131,133,135,137,-1,139,141,-1,143,145,147,149,151,153,155,157,159,161,163,165,-1,167,-1,-1,-1,-1,-1,-1,-1,-1,-1,-1,-1,-1,-1,-1,-1,-1,-1,-1,-1,-1,-1,-1,-1,-1,-1,-1,-1,-1,-1,-1,-1,-1,-1,-1,-1,-1,-1,-1,-1,-1,-1,-1,-1,-1,-1,-1,-1,-1,-1,-1,-1,-1,-1,-1,-1,-1,-1,-1,-1,-1,-1,-1,-1,-1,-1,-1,-1,-1],"loss_changes":[1.124357E4,3.3161406E3,6.224375E2,3.882417E2,0E0,1.8198242E1,2.298269E2,0E0,3.165415E2,1.9433441E1,2.1469727E0,6.3168713E1,3.447711E1,5.105427E1,7.2271484E1,4.936125E1,0E0,0E0,6.2490234E0,2.1010708E1,0E0,7.697937E0,2.3312714E1,3.2603073E0,1.7175758E1,2.4678371E1,5.1057617E1,6.2368317E0,9.061216E0,1.7297363E-1,6.6718254E0,0E0,1.3557698E1,0E0,4.2916595E1,2.3781708E1,0E0,1.1879501E0,1.7844115E0,4.6093383E0,1.1587872E1,3.2760286E0,2.656153E1,3.6697845E0,3.0742188E0,6.51886E-1,5.8975844E0,2.6906273E1,1.5879825E1,0E0,2.1934814E0,4.13628E0,1.6489487E0,7.5203433E0,6.380499E0,4.969391E0,1.7574244E1,4.0533295E0,9.156002E0,3.57666E-2,1.4463649E0,0E0,8.058107E-1,1.2332535E0,1.4862015E0,5.319092E0,9.984483E0,7.7959025E-1,0E0,6.2807746E0,3.9031067E0,2.8395767E0,4.0397973E0,2.7389574E0,1.9091797E0,3.6412048E-1,0E0,0E0,0E0,1.7795992E-1,6.380266E0,5.0611143E0,9.971485E-1,0E0,1.9149261E1,4.9693656E-1,0E0,3.996296E0,9.2957306E-1,7.3684797E0,8.766476E0,6.2758017E0,2.2917728E0,2.054779E0,3.0930786E0,1.1985073E0,3.4485993E0,2.582077E0,1.7846527E0,0E0,5.870178E0,0E0,0E0,0E0,0E0,0E0,0E0,0E0,0E0,0E0,0E0,0E0,0E0,0E0,0E0,0E0,0E0,0E0,0E0,0E0,0E0,0E0,0E0,0E0,0E0,0E0,0E0,0E0,0E0,0E0,0E0,0E0,0E0,0E0,0E0,0E0,0E0,0E0,0E0,0E0,0E0,0E0,0E0,0E0,0E0,0E0,0E0,0E0,0E0,0E0,0E0,0E0,0E0,0E0,0E0,0E0,0E0,0E0,0E0,0E0,0E0,0E0,0E0,0E0,0E0,0E0,0E0,0E0,0E0],"parents":[2147483647,0,0,1,1,2,2,3,3,5,5,6,6,8,8,9,9,10,10,11,11,12,12,13,13,14,14,15,15,18,18,19,19,21,21,22,22,23,23,24,24,25,25,26,26,27,27,28,28,29,29,30,30,32,32,34,34,35,35,37,37,38,38,39,39,40,40,41,41,42,42,43,43,44,44,45,45,46,46,47,47,48,48,50,50,51,51,52,52,53,53,54,54,55,55,56,56,57,57,58,58,59,59,60,60,62,62,63,63,64,64,65,65,66,66,67,67,69,69,70,70,71,71,72,72,73,73,74,74,75,75,79,79,80,80,81,81,82,82,84,84,85,85,87,87,88,88,89,89,90,90,91,91,92,92,93,93,94,94,95,95,96,96,97,97,98,98,100,100],"right_children":[2,4,6,8,-1,10,12,-1,14,16,18,20,22,24,26,28,-1,-1,30,32,-1,34,36,38,40,42,44,46,48,50,52,-1,54,-1,56,58,-1,60,62,64,66,68,70,72,74,76,78,80,82,-1,84,86,88,90,92,94,96,98,100,102,104,-1,106,108,110,112,114,116,-1,118,120,122,124,126,128,130,-1,-1,-1,132,134,136,138,-1,140,142,-1,144,146,148,150,152,154,156,158,160,162,164,166,-1,168,-1,-1,-1,-1,-1,-1,-1,-1,-1,-1,-1,-1,-1,-1,-1,-1,-1,-1,-1,-1,-1,-1,-1,-1,-1,-1,-1,-1,-1,-1,-1,-1,-1,-1,-1,-1,-1,-1,-1,-1,-1,-1,-1,-1,-1,-1,-1,-1,-1,-1,-1,-1,-1,-1,-1,-1,-1,-1,-1,-1,-1,-1,-1,-1,-1,-1,-1,-1],"split_conditions":[1E0,2E0,7.894594E-1,1E0,-1.3701995E-1,1.12E2,9.936709E1,-1.3575669E-1,3.1925E-1,2E0,3.4585E-1,2E0,3.6E1,5.415008E-1,2.9797333E-1,4.9069E-1,-1.3676837E-1,-1.3652067E-1,4.369642E-1,1E0,-1.348941E-1,4.9069E-1,2E0,2.5032E-1,6.699E-2,3.8803164E-2,0E0,7.1579355E-1,1.2250416E-2,9.000091E-2,5.8761955E1,-1.2651926E-1,1.34E2,-1.28112E-1,2E2,1.41E2,-1.3576737E-1,4.369642E-1,-6E0,8.431574E-1,6.385078E1,9.9737E-1,6.182085E0,9.8382744E1,4.13E-1,1.8734679E2,8.333333E1,8.7785E-1,6.1441855E0,-1.3642819E-1,9.83E1,5.8289456E0,5.3936276E0,3.0765265E2,2.0896257E2,7E0,9.379052E-1,9.9975E-1,1E0,6.3733196E0,4.725E-2,-8.6327694E-2,5.484797E0,5.1817837E0,4.311E-2,-9E0,9.1230917E-1,9.7161E-1,-1.362621E-1,-2E0,1.3885415E-1,4.6062046E-1,9.9994E-1,6.249725E-1,6.22E1,4.53E1,-2.2987006E-2,-9.936675E-2,1.24359034E-1,6.0210233E0,3.4281498E1,9.9651E-1,6.3044486E0,-1.2858205E-1,4.369642E-1,1.41E2,-8.894791E-2,6.574669E-1,9.214448E1,9.87E1,9.975946E-1,9.9598E-1,1E2,8.75E1,9.99E1,9.9571E-1,5.9471E-1,6.5558E-1,1.8734679E2,-1.182763E-1,1E2,-1.2809221E-1,-4.2336695E-2,2.3466974E-2,-8.331245E-2,-2.822263E-2,5.5404972E-2,-1.8923957E-2,-1.4776218E-1,6.481564E-2,-3.654072E-2,-6.058091E-2,1.2026872E-1,-6.90304E-2,7.910623E-2,-4.2758726E-2,3.925224E-2,-9.580523E-2,1.3306326E-2,1.7228961E-2,1.4316593E-1,-2.642991E-2,8.837754E-2,5.8278233E-2,-5.2662015E-2,-4.151909E-2,9.1019034E-2,1.0700444E-1,1.3495329E-1,-3.52559E-2,-1.3439463E-1,-1.1783149E-1,-2.8739437E-2,-2.328E-2,1.7413284E-1,5.6659043E-2,-6.566341E-2,-3.4891225E-2,-1.0345917E-1,-1.2238184E-1,1.07442915E-1,1.2678211E-2,1.043324E-1,-9.701812E-2,4.7812667E-2,-4.813812E-2,-1.13778725E-1,1.1851705E-2,-2.259821E-2,-1.0620389E-3,6.41131E-2,5.0443865E-2,-6.6850595E-3,7.911078E-2,3.6264043E-2,-4.6423886E-2,-1.2633656E-1,-7.701226E-2,-1.0265978E-1,-3.863577E-2,-1.20015286E-1,-6.333794E-2,6.4726256E-2,5.199745E-2,-6.610942E-2,-1.1590556E-1,-8.154932E-2,5.3190864E-3,-3.666371E-2],"split_indices":[6,2,1,12,0,6,7,0,8,2,8,2,6,1,1,8,0,0,1,12,0,8,2,8,8,1,6,1,1,1,5,0,6,0,4,6,0,1,6,1,5,8,11,7,8,5,7,8,11,0,4,11,11,5,5,6,1,8,12,11,8,0,11,11,8,6,1,8,0,6,1,1,8,1,4,4,0,0,0,11,5,8,11,0,1,6,0,1,5,4,1,8,4,4,4,8,8,8,5,0,4,0,0,0,0,0,0,0,0,0,0,0,0,0,0,0,0,0,0,0,0,0,0,0,0,0,0,0,0,0,0,0,0,0,0,0,0,0,0,0,0,0,0,0,0,0,0,0,0,0,0,0,0,0,0,0,0,0,0,0,0,0,0,0,0,0,0,0,0],"split_type":[0,0,0,0,0,0,0,0,0,0,0,0,0,0,0,0,0,0,0,0,0,0,0,0,0,0,0,0,0,0,0,0,0,0,0,0,0,0,0,0,0,0,0,0,0,0,0,0,0,0,0,0,0,0,0,0,0,0,0,0,0,0,0,0,0,0,0,0,0,0,0,0,0,0,0,0,0,0,0,0,0,0,0,0,0,0,0,0,0,0,0,0,0,0,0,0,0,0,0,0,0,0,0,0,0,0,0,0,0,0,0,0,0,0,0,0,0,0,0,0,0,0,0,0,0,0,0,0,0,0,0,0,0,0,0,0,0,0,0,0,0,0,0,0,0,0,0,0,0,0,0,0,0,0,0,0,0,0,0,0,0,0,0,0,0,0,0,0,0],"sum_hessian":[1.0628238E4,5.5330483E3,5.0951904E3,4.996148E3,5.3690015E2,3.332486E3,1.7627042E3,5.5974716E1,4.9401733E3,2.4946294E2,3.083023E3,5.4123535E2,1.2214689E3,1.00840996E2,4.8393325E3,1.3903989E2,1.1042305E2,2.3118489E3,7.7117426E2,5.0744296E2,3.379241E1,5.690708E2,6.523981E2,5.3433743E1,4.7407253E1,6.57103E1,4.773622E3,8.361089E1,5.5429E1,7.1012335E2,6.105093E1,1.0975486E1,4.9646747E2,9.5559425E1,4.7351135E2,6.0696606E2,4.543199E1,4.8936546E1,4.4971957E0,1.0375331E1,3.703192E1,1.061868E1,5.5091618E1,1.9221959E2,4.5814023E3,8.088175E1,2.7291412E0,1.6480646E1,3.8948357E1,3.2913205E2,3.8099127E2,4.23355E0,5.681738E1,3.615118E2,1.3495564E2,4.3783698E2,3.5674397E1,4.1305316E2,1.9391293E2,4.460251E1,4.3340383E0,1.6206594E0,2.8765361E0,6.2629604E0,4.11237E0,2.0591473E1,1.6440449E1,2.719645E0,7.8990345E0,3.0498178E1,2.4593437E1,1.6426118E2,2.7958403E1,1.4327229E1,4.567075E3,7.9878716E1,1.0030316E0,1.3623987E0,1.3667425E0,5.762665E0,1.071798E1,1.8976002E1,1.9972353E1,3.5361627E2,2.7375006E1,2.9549415E0,1.2786086E0,6.262474E0,5.0554905E1,2.7344437E2,8.806746E1,7.908207E1,5.5873577E1,1.1291833E2,3.2491864E2,1.0449847E1,2.5224548E1,2.2440909E2,1.8864407E2,1.0763278E1,1.8314964E2,4.330872E1,1.2937888E0,1.3242134E0,3.009825E0,1.2045288E0,1.6720073E0,1.2155308E0,5.04743E0,1.3539474E0,2.7584229E0,1.1740198E0,1.9417452E1,9.269199E0,7.1712503E0,1.6135702E0,1.1060748E0,5.638768E0,2.4859411E1,3.0952709E0,2.1498167E1,1.7711437E0,1.6249004E2,2.4990984E1,2.9674182E0,1.1754034E0,1.3151825E1,4.7173733E1,4.5199014E3,1.2173551E0,7.866136E1,4.7105365E0,1.0521286E0,1.6959946E0,9.021986E0,1.5620616E1,3.3553855E0,3.9681182E0,1.6004236E1,2.3925236E1,3.44977E0,1.1421075E0,1.8128339E0,3.93892E0,2.3235538E0,4.4265203E0,4.6128384E1,9.383868E1,1.796057E2,5.6622574E1,3.1444885E1,3.0692883E1,4.8389183E1,2.971994E1,2.6153637E1,4.879125E0,1.080392E2,8.044515E1,2.444735E2,4.1904387E0,6.2594085E0,1.5116842E0,2.3712864E1,1.1759608E0,2.2323314E2,2.3586578E1,1.650575E2,4.3316246E1,1.398334E2],"tree_param":{"num_deleted":"0","num_feature":"14","num_nodes":"169","size_leaf_vector":"1"}},{"base_weights":[-4.1028278E-4,-1.2050376E0,1.2799337E0,-8.52044E-1,-1.2751918E0,-3.0369997E-1,1.3157192E0,-5.7583958E-2,-1.3205051E-1,-1.2887014E0,-1.027267E0,-1.1440852E0,7.605934E-1,1.3207358E0,-1.2231257E-1,-1.0033879E0,2.549393E-1,-1.2134964E0,-1.3004667E-1,-3.2865876E-1,-1.1869788E0,-1.198297E0,-5.679662E-1,-2.888265E-1,8.581035E-1,2.8170744E-1,1.3250209E0,-1.179328E0,-3.418881E-1,-7.6739883E-1,4.983974E-1,-1.2986846E-1,-1.0916001E0,3.259041E-1,-8.8233876E-1,-1.2447498E0,-6.3758814E-1,-5.308742E-1,-1.2258871E-1,5.0367694E-2,-8.4751475E-1,2.5101423E-2,-5.6124395E-1,1.084864E0,4.2093378E-1,-5.4371786E-1,5.975867E-1,8.92629E-1,1.326594E-1,-1.2882737E0,-9.4024575E-1,-1.1887646E-1,-4.2912938E-2,-1.1849773E0,-4.0541667E-1,-1.1684646E-1,9.31334E-1,-1.2216876E0,-7.370554E-1,-4.765344E-1,9.0396416E-1,-1.0570532E0,-3.413145E-1,-1.7422697E-2,-1.253354E0,-7.461889E-2,-1.223041E-1,-1.0819236E-1,4.8658106E-2,-1.0143206E-1,-1.2463313E-2,-7.245532E-3,-8.488324E-2,-4.788148E-2,1.1809744E0,-4.5765545E-2,9.184592E-1,-8.7473935E-1,3.4104742E-2,1.1331767E0,-7.563263E-2,1.1125015E0,3.6600086E-1,-1.3091967E-1,-4.6743404E-2,1.2512805E-1,-1.1091759E0,7.158964E-1,-7.4664694E-1,-1.32048E-1,-7.1507597E-1,5.739268E-1,-8.225353E-1,-8.8834226E-1,6.530622E-2,2.4494024E-1,1.1002558E0,-1.2390897E0,-3.4997073E-1,-2.3990628E-1,-1.2983976E-1,2.730623E-1,-1.0861623E0,-3.6992136E-2,1.0985854E0,-4.4000602E-1,-1.1625358E0,8.4849656E-2,-1.050934E-1,-3.4200672E-2,-1.2578398E-1,-6.802977E-1,1.0227953E0,2.8667197E-2,1.2268343E0,5.510528E-1,-3.5695988E-1,-3.509408E-2,1.2060996E-1,-1.5504195E-2,-1.2003113E-1,2.2648621E-2,1.2226663E-1,-3.8425308E-1,9.250789E-2,-2.950997E-4,1.2758487E-1,-5.62751E-2,6.063373E-1,-4.2587467E-2,-1.2849045E-1,1.1940366E-1,-7.796646E-2,-9.752754E-2,1.9818245E-2,-1.2100228E-1,1.0407785E-1,-4.17038E-2,9.792778E-2,-9.429804E-2,-7.165684E-3,4.6574753E-2,-1.22107066E-1,1.032545E-1,-4.1400664E-3,8.719093E-2,-1.1015735E-1,2.4588646E-2,1.2364923E-1,-9.260415E-2,-1.2771697E-1,5.3600844E-2,-9.6430376E-2,-7.6904885E-2,1.280727E-2,-7.6366074E-2,1.1077167E-1,-1.2615584E-1,-2.4203641E-2,4.449761E-2,1.1958863E-1,-1.0002967E-1,6.46458E-2,-2.6165009E-2,-1.2108242E-1,-5.3366225E-2,9.633705E-2,-9.577468E-2,5.4656047E-2,1.4664741E-1,-9.9238455E-3,6.5252155E-2,1.3280986E-1,9.948684E-2,-2.1497121E-2,-9.326899E-2,4.853859E-2,1.7528867E-2,-1.1532135E-1,-8.520604E-3,1.1613277E-1],"categories":[],"categories_nodes":[],"categories_segments":[],"categories_sizes":[],"default_left":[1,0,0,0,1,1,0,0,0,0,0,0,0,0,0,1,0,0,0,0,1,0,0,0,0,0,0,0,0,1,0,0,0,0,0,0,0,0,0,0,0,0,0,0,0,0,0,0,0,0,1,0,0,0,0,0,0,0,0,0,0,0,0,0,0,0,0,0,0,0,0,0,0,0,0,0,0,0,0,0,0,1,0,0,0,0,0,0,0,0,0,0,0,0,0,0,0,0,0,0,0,0,0,0,0,0,0,0,0,0,0,0,0,0,0,0,0,0,0,0,0,0,0,0,0,0,0,0,0,0,0,0,0,0,0,0,0,0,0,0,0,0,0,0,0,0,0,0,0,0,0,0,0,0,0,0,0,0,0,0,0,0,0,0,0,0,0,0,0,0,0,0,0,0,0,0,0,0,0,0,0],"id":7,"left_children":[1,3,5,7,9,11,13,15,-1,17,19,21,23,25,-1,27,29,31,-1,33,35,37,39,41,43,45,47,49,51,53,55,-1,57,59,61,63,65,67,-1,-1,69,-1,71,73,75,77,79,81,-1,83,85,-1,87,89,91,93,95,97,99,101,103,105,107,-1,109,111,-1,-1,-1,-1,-1,-1,-1,-1,113,115,117,119,-1,121,123,125,127,-1,-1,-1,129,131,133,-1,135,137,139,141,143,145,147,149,151,153,-1,155,157,-1,159,161,163,165,-1,-1,-1,167,169,-1,171,173,175,-1,-1,-1,-1,-1,-1,177,-1,-1,-1,-1,179,-1,-1,-1,-1,-1,-1,-1,-1,-1,-1,-1,-1,-1,-1,-1,-1,-1,-1,-1,-1,-1,-1,-1,-1,-1,-1,-1,-1,-1,-1,-1,-1,-1,-1,-1,-1,-1,-1,-1,-1,-1,-1,-1,-1,-1,-1,-1,-1,-1,-1,-1,-1],"loss_changes":[1.5517859E4,1.272876E2,2.768047E2,3.209096E2,1.315332E1,9.799587E1,6.2364258E1,9.512776E1,0E0,2.0454102E0,2.5081726E1,1.2270126E0,5.2121773E0,2.0825195E1,0E0,8.8980255E0,6.062648E1,4.4903564E0,0E0,1.6184032E1,5.0917053E0,3.6058807E-1,2.5700665E0,8.574702E-1,3.9687042E0,5.754418E0,2.0390625E0,4.223709E-1,4.5567517E0,6.6159973E0,5.2341488E1,0E0,1.018335E1,1.009303E1,1.9108295E0,1.3174133E0,6.399581E0,2.737801E0,0E0,0E0,6.0270214E-1,0E0,4.371717E-1,4.887684E0,3.961647E0,2.1396472E0,5.6878095E0,1.9367199E0,0E0,8.161163E-2,1.0026939E1,0E0,8.270897E0,4.1069221E-1,1.1365993E1,1.15651245E1,1.3089119E1,2.210266E0,1.8394009E1,4.5816956E0,3.4938316E0,6.3980293E-1,2.3098502E0,0E0,2.4533081E-1,8.076777E0,0E0,0E0,0E0,0E0,0E0,0E0,0E0,0E0,7.713547E-1,1.9913287E0,3.4239082E0,9.5167446E-1,0E0,4.302492E-1,2.771016E0,2.5163918E0,2.0047014E0,0E0,0E0,0E0,2.1179047E0,6.280897E0,1.9227114E0,0E0,7.2940845E0,3.844697E0,1.6610279E0,7.6461983E0,6.975938E0,2.1256071E1,1.0424492E1,8.4957886E-1,3.1320875E0,7.258691E0,0E0,5.1766396E0,4.9005413E-1,0E0,1.7089653E-1,3.1980941E0,3.1385803E-1,3.5098457E0,0E0,0E0,0E0,3.163514E0,2.3103652E0,0E0,6.305008E-1,1.4733796E0,3.8270898E0,0E0,0E0,0E0,0E0,0E0,0E0,3.0781827E0,0E0,0E0,0E0,0E0,2.5559509E0,0E0,0E0,0E0,0E0,0E0,0E0,0E0,0E0,0E0,0E0,0E0,0E0,0E0,0E0,0E0,0E0,0E0,0E0,0E0,0E0,0E0,0E0,0E0,0E0,0E0,0E0,0E0,0E0,0E0,0E0,0E0,0E0,0E0,0E0,0E0,0E0,0E0,0E0,0E0,0E0,0E0,0E0,0E0,0E0,0E0,0E0,0E0,0E0,0E0,0E0,0E0,0E0],"parents":[2147483647,0,0,1,1,2,2,3,3,4,4,5,5,6,6,7,7,9,9,10,10,11,11,12,12,13,13,15,15,16,16,17,17,19,19,20,20,21,21,22,22,23,23,24,24,25,25,26,26,27,27,28,28,29,29,30,30,32,32,33,33,34,34,35,35,36,36,37,37,40,40,42,42,43,43,44,44,45,45,46,46,47,47,49,49,50,50,52,52,53,53,54,54,55,55,56,56,57,57,58,58,59,59,60,60,61,61,62,62,64,64,65,65,74,74,75,75,76,76,77,77,79,79,80,80,81,81,82,82,86,86,87,87,88,88,90,90,91,91,92,92,93,93,94,94,95,95,96,96,97,97,98,98,99,99,101,101,102,102,104,104,105,105,106,106,107,107,111,111,112,112,114,114,115,115,116,116,123,123,128,128],"right_children":[2,4,6,8,10,12,14,16,-1,18,20,22,24,26,-1,28,30,32,-1,34,36,38,40,42,44,46,48,50,52,54,56,-1,58,60,62,64,66,68,-1,-1,70,-1,72,74,76,78,80,82,-1,84,86,-1,88,90,92,94,96,98,100,102,104,106,108,-1,110,112,-1,-1,-1,-1,-1,-1,-1,-1,114,116,118,120,-1,122,124,126,128,-1,-1,-1,130,132,134,-1,136,138,140,142,144,146,148,150,152,154,-1,156,158,-1,160,162,164,166,-1,-1,-1,168,170,-1,172,174,176,-1,-1,-1,-1,-1,-1,178,-1,-1,-1,-1,180,-1,-1,-1,-1,-1,-1,-1,-1,-1,-1,-1,-1,-1,-1,-1,-1,-1,-1,-1,-1,-1,-1,-1,-1,-1,-1,-1,-1,-1,-1,-1,-1,-1,-1,-1,-1,-1,-1,-1,-1,-1,-1,-1,-1,-1,-1,-1,-1,-1,-1,-1,-1],"split_conditions":[7.6241267E-1,1E0,4.9069E-1,3E0,5.742491E-1,5.7608692E1,2E0,0E0,-1.3205051E-1,9.928571E1,9.938271E1,9.391421E-1,6.22E1,6.3881254E-1,-1.2231257E-1,2.8691104E-1,2.5032E-1,1.0113671E-1,-1.3004667E-1,6.206576E0,1.41E2,9.38E1,9.4586796E-1,2E0,9.910714E1,-9E0,6.966858E-1,6.8394766E0,3.1925E-1,3.3497167E-1,2.707714E-1,-1.2986846E-1,1E2,9.75E1,6.639041E-1,8.7E1,2E0,2.329E-1,-1.2258871E-1,5.0367694E-2,9.892491E-1,2.5101423E-2,1.2664E-1,-2E0,9.526912E-1,7.7151237E0,9E0,9.939672E-1,1.326594E-1,-2E0,1.0283004E-2,-1.1887646E-1,9.9809E-1,2E0,5.4071717E0,9.92E1,5.9471E-1,9.894737E1,3E0,7.2E1,2.707714E-1,7E0,3.9E2,-1.7422697E-2,2.2961727E-1,7.1252832E0,-1.223041E-1,-1.0819236E-1,4.8658106E-2,-1.0143206E-1,-1.2463313E-2,-7.245532E-3,-8.488324E-2,-4.788148E-2,7.661319E-1,8.436143E-1,9.919355E1,-3.3E1,3.4104742E-2,5.518936E-1,8.115732E-1,8.54E1,9.9570227E-1,-1.3091967E-1,-4.6743404E-2,1.2512805E-1,-4.1E1,9.303226E1,6.093835E-1,-1.32048E-1,4.004165E-1,5.728E-2,7.1280605E-1,3.418398E-1,8.7785E-1,9.4913256E-1,4.7492126E-1,2.3E1,5.888878E0,2.2974636E-1,-1.2983976E-1,1.2664E-1,8.272239E-1,-3.6992136E-2,3.8068983E-1,9.9497116E-1,2.1388218E-1,4.1E1,-1.050934E-1,-3.4200672E-2,-1.2578398E-1,9.96922E-1,9.9965E-1,2.8667197E-2,9.59E1,9.9259254E1,9.4366246E-1,-3.509408E-2,1.2060996E-1,-1.5504195E-2,-1.2003113E-1,2.2648621E-2,1.2226663E-1,9.971708E-1,9.250789E-2,-2.950997E-4,1.2758487E-1,-5.62751E-2,7.1252832E0,-4.2587467E-2,-1.2849045E-1,1.1940366E-1,-7.796646E-2,-9.752754E-2,1.9818245E-2,-1.2100228E-1,1.0407785E-1,-4.17038E-2,9.792778E-2,-9.429804E-2,-7.165684E-3,4.6574753E-2,-1.22107066E-1,1.032545E-1,-4.1400664E-3,8.719093E-2,-1.1015735E-1,2.4588646E-2,1.2364923E-1,-9.260415E-2,-1.2771697E-1,5.3600844E-2,-9.6430376E-2,-7.6904885E-2,1.280727E-2,-7.6366074E-2,1.1077167E-1,-1.2615584E-1,-2.4203641E-2,4.449761E-2,1.1958863E-1,-1.0002967E-1,6.46458E-2,-2.6165009E-2,-1.2108242E-1,-5.3366225E-2,9.633705E-2,-9.577468E-2,5.4656047E-2,1.4664741E-1,-9.9238455E-3,6.5252155E-2,1.3280986E-1,9.948684E-2,-2.1497121E-2,-9.326899E-2,4.853859E-2,1.7528867E-2,-1.1532135E-1,-8.520604E-3,1.1613277E-1],"split_indices":[9,6,8,3,9,7,2,6,0,7,7,9,4,0,0,0,8,0,0,11,6,4,9,3,7,6,0,11,8,9,0,0,4,4,9,4,2,8,0,0,1,0,8,6,1,11,6,1,0,6,0,0,8,3,11,4,8,7,3,6,0,6,6,0,1,11,0,0,0,0,0,0,0,0,1,0,7,6,0,0,9,4,1,0,0,0,6,7,0,0,0,8,9,1,8,0,9,6,11,0,0,8,1,0,0,1,1,6,0,0,0,1,8,0,4,7,0,0,0,0,0,0,0,1,0,0,0,0,11,0,0,0,0,0,0,0,0,0,0,0,0,0,0,0,0,0,0,0,0,0,0,0,0,0,0,0,0,0,0,0,0,0,0,0,0,0,0,0,0,0,0,0,0,0,0,0,0,0,0,0,0],"split_type":[0,0,0,0,0,0,0,0,0,0,0,0,0,0,0,0,0,0,0,0,0,0,0,0,0,0,0,0,0,0,0,0,0,0,0,0,0,0,0,0,0,0,0,0,0,0,0,0,0,0,0,0,0,0,0,0,0,0,0,0,0,0,0,0,0,0,0,0,0,0,0,0,0,0,0,0,0,0,0,0,0,0,0,0,0,0,0,0,0,0,0,0,0,0,0,0,0,0,0,0,0,0,0,0,0,0,0,0,0,0,0,0,0,0,0,0,0,0,0,0,0,0,0,0,0,0,0,0,0,0,0,0,0,0,0,0,0,0,0,0,0,0,0,0,0,0,0,0,0,0,0,0,0,0,0,0,0,0,0,0,0,0,0,0,0,0,0,0,0,0,0,0,0,0,0,0,0,0,0,0,0],"sum_hessian":[1.0059263E4,5.1829136E3,4.8763486E3,8.614619E2,4.3214517E3,1.0759114E2,4.768758E3,3.199626E2,5.414993E2,4.0941602E3,2.2729147E2,6.007772E1,4.7513416E1,4.7598325E3,8.925277E0,7.8918175E1,2.4104442E2,5.6794116E2,3.526219E3,4.2862217E1,1.8442926E2,5.392364E1,6.1540804E0,3.872705E0,4.3640713E1,1.9823843E1,4.7400083E3,6.1719692E1,1.7198484E1,4.5947586E1,1.9509683E2,3.286251E2,2.3931604E2,1.9830227E1,2.3031992E1,1.6573567E2,1.8693577E1,2.9441473E0,5.0979492E1,1.107345E0,5.0467353E0,1.325189E0,2.5475159E0,2.7759998E1,1.58807125E1,5.2870216E0,1.453682E1,1.9242466E1,4.720766E3,3.9384457E1,2.2335232E1,3.7108905E0,1.3487594E1,2.0279644E1,2.5667942E1,8.088364E1,1.14213196E2,1.7328827E2,6.602778E1,8.37711E0,1.1453117E1,1.6688826E1,6.3431664E0,1.490864E0,1.6424481E2,1.0104542E1,8.589036E0,1.8687032E0,1.0754441E0,3.7729576E0,1.2737776E0,1.4074087E0,1.1401072E0,1.3768722E0,2.6383127E1,8.662729E0,7.2179832E0,3.8557744E0,1.4312475E0,7.715453E0,6.8213673E0,1.279001E1,6.4524555E0,3.7825356E1,1.559101E0,1.1399256E0,2.1195307E1,6.4815283E0,7.006066E0,1.4335639E1,5.9440045E0,7.5546393E0,1.8113302E1,1.4708755E1,6.617488E1,2.3040579E1,9.117262E1,1.6948341E2,3.8048484E0,3.5773014E1,3.025476E1,4.004846E0,4.3722634E0,1.3985089E0,1.0054608E1,3.1913834E0,1.3497442E1,4.5131874E0,1.8299792E0,1.18284E0,1.6306198E2,6.7559342E0,3.3486078E0,1.6406317E0,2.4742495E1,2.704735E0,5.957994E0,1.2927629E0,5.9252205E0,1.6607642E0,2.19501E0,1.0102882E0,6.705165E0,5.6843333E0,1.1370339E0,1.7591566E0,1.1030853E1,1.0506871E0,5.4017687E0,5.0361757E0,1.6159132E1,5.0641127E0,1.4174156E0,5.6151066E0,1.390959E0,4.879435E0,1.0645695E0,2.1847444E0,5.369895E0,1.5388986E1,2.7243166E0,2.8224745E0,1.188628E1,5.713024E0,6.046186E1,1.5961152E1,7.0794263E0,1.2924569E1,7.8248055E1,2.1126331E1,1.4835709E2,1.6101773E0,2.1946712E0,1.4226219E1,2.1546795E1,1.8241409E0,2.1807053E0,3.2106304E0,1.161633E0,2.0250082E0,8.0296E0,2.1578746E0,1.0335087E0,1.0132048E0,1.2484238E1,2.8788867E0,1.6343005E0,5.6887875E0,1.0671467E0,2.1797173E0,1.1688905E0,4.824492E0,1.9918003E1,1.5233818E0,1.1813532E0,3.4753761E0,2.4826179E0,3.737065E0,1.9472684E0,2.7818854E0,2.619883E0],"tree_param":{"num_deleted":"0","num_feature":"14","num_nodes":"181","size_leaf_vector":"1"}},{"base_weights":[-1.4843034E-4,-1.1599505E0,1.2371498E0,-1.2043662E0,-5.9757364E-1,1.2668592E0,-6.113182E-1,-9.721879E-1,-1.2461053E0,6.0224857E-2,-9.7033376E-1,1.2722887E0,-1.1969077E-1,-9.3636686E-1,8.47633E-1,-4.6554148E-1,-1.2801827E-1,-1.1763451E0,-1.2595776E-1,5.175823E-1,-1.2581114E-1,-2.0847115E-1,-1.1707656E0,5.139032E-1,1.2789451E0,-9.788631E-1,3.9619934E-2,9.3596235E-2,1.0854121E-1,-1.1856111E0,-3.230995E-2,-1.2587528E-1,-1.0437143E0,-4.0270784E-1,6.845035E-1,4.1855764E-1,-8.344111E-1,-1.2173209E0,-7.463458E-1,-6.6464615E-1,8.523837E-1,9.930238E-1,1.2828568E-1,-1.0367295E0,-1.0363975E-1,3.2441568E-2,-2.4122274E-2,-1.2063546E0,3.0621354E-2,-1.1884209E0,5.2848723E-2,-1.1983923E0,-8.33634E-1,9.439983E-3,-7.180606E-1,1.081837E0,4.22556E-1,-6.0222787E-1,7.0547825E-1,-1.005956E0,-2.8015587E-1,-1.235044E0,-3.937897E-1,-9.9927974E-1,5.621934E-2,-7.801099E-2,-1.2238461E-1,1.0192132E0,-1.5820073E-1,1.0362544E0,-1.1426926E-1,-1.8593756E-2,-1.0602019E0,2.9853502E-2,-3.9774817E-1,-1.2140872E-1,-2.3317067E-2,-3.3192225E-2,-1.2936999E0,-7.1872157E-1,1.8420935E-1,-4.425058E-1,-1.2136029E0,-4.0248713E-1,-1.273039E-1,-6.969215E-1,4.732062E-1,-9.1733396E-1,3.1121826E-2,1.1491333E0,-4.3931197E-2,2.734512E-1,7.508271E-1,-9.4073904E-1,3.380413E-2,-3.239159E-1,8.7469435E-1,-3.6115256E-1,-1.0654365E0,9.393117E-2,-9.025552E-2,-2.5095254E-2,-1.239839E0,1.5939597E-2,-8.5028194E-2,-1.1138537E0,-8.326135E-3,-8.232393E-2,4.9763203E-1,-4.7414538E-1,6.760839E-2,1.1419169E0,-6.149574E-2,-7.837061E-1,5.7406124E-2,-7.1283067E-3,1.0584075E0,4.8304178E-2,-7.060238E-2,-1.1047643E-1,-5.820703E-1,-4.827669E-2,-1.0807209E-2,-3.581989E-2,-1.3598774E-1,-9.989413E-2,4.4032115E-2,-2.4902584E-2,3.9515406E-2,-8.733951E-2,1.718354E-2,-1.2300332E-1,-4.7962092E-2,-8.858982E-2,-6.524959E-3,-8.561196E-3,-9.578601E-2,7.327218E-2,-2.52197E-2,-1.6156564E-2,-1.0507285E-1,2.4968921E-3,1.18825965E-1,-2.0425176E-2,3.453026E-2,2.0858495E-2,1.11145794E-1,-2.3636973E-2,-1.0934528E-1,-7.6710455E-2,3.389362E-2,9.926974E-2,-1.7541265E-2,-7.458699E-2,2.0804172E-2,-1.1626784E-1,-4.3030396E-2,-7.0135966E-2,6.295429E-2,-1.2448692E-1,-3.0161927E-2,-2.9305352E-2,-1.2268346E-1,-1.9058444E-3,9.990316E-2,3.16119E-2,-9.579778E-2,1.2029065E-1,2.5624651E-2,4.759998E-2,-6.640986E-2,-9.755466E-2,-2.1223543E-2,9.077932E-2,1.2295127E-1,-7.9351984E-2,-1.1562944E-2],"categories":[],"categories_nodes":[],"categories_segments":[],"categories_sizes":[],"default_left":[1,1,0,0,0,0,0,0,0,0,0,0,0,0,0,0,0,0,0,0,0,0,1,0,0,0,0,0,0,1,0,0,0,0,0,0,0,0,0,0,0,0,0,0,0,0,0,1,0,0,0,0,0,0,0,0,0,0,0,0,0,0,0,0,0,0,0,0,0,0,0,0,0,0,0,0,0,0,0,1,0,0,0,0,0,0,0,0,0,0,0,0,0,0,0,0,0,0,0,0,0,0,1,0,0,0,0,0,0,0,0,0,0,0,0,0,0,0,0,0,0,0,0,0,0,0,0,0,0,0,0,0,0,0,0,0,0,0,0,0,0,0,0,0,0,0,0,0,0,0,0,0,0,0,0,0,0,0,0,0,0,0,0,0,0,0,0,0,0,0,0,0,0,0,0,0,0],"id":8,"left_children":[1,3,5,7,9,11,13,15,17,19,21,23,-1,25,27,29,-1,31,-1,33,-1,35,37,39,41,43,-1,45,-1,47,49,-1,51,53,55,57,59,61,63,65,67,69,-1,71,73,-1,-1,75,-1,77,79,81,83,85,87,89,91,93,95,97,99,101,103,105,107,109,-1,111,113,115,117,-1,119,-1,121,-1,-1,-1,123,125,127,129,131,133,-1,135,137,139,-1,141,-1,143,145,147,-1,149,151,153,155,157,-1,-1,159,-1,-1,161,-1,-1,163,165,-1,167,169,171,-1,-1,173,-1,-1,-1,175,-1,-1,-1,-1,-1,-1,-1,-1,-1,-1,-1,-1,-1,-1,-1,-1,-1,-1,-1,-1,-1,-1,-1,-1,-1,-1,-1,-1,-1,-1,-1,-1,-1,-1,-1,-1,-1,-1,-1,-1,-1,-1,-1,-1,-1,-1,-1,-1,-1,-1,-1,-1,-1,-1,-1,-1],"loss_changes":[1.3512242E4,1.2068115E2,2.5096582E2,4.243164E1,8.777707E1,6.1506348E1,3.528886E1,1.0719714E2,2.1020508E0,7.923928E1,3.4633316E1,2.193164E1,0E0,3.783371E0,2.3687477E0,8.1925064E1,0E0,5.598572E0,0E0,1.5249643E1,0E0,1.9498278E1,2.660202E0,1.6764511E1,3.6860352E0,2.8500862E0,0E0,4.181113E-1,0E0,3.42276E0,1.6314497E1,0E0,7.066681E0,2.033738E0,8.169205E0,7.7585397E0,2.0713978E0,1.8660889E0,4.205016E0,3.060885E0,5.5534744E0,3.1955948E0,0E0,8.94516E-1,6.7852324E-1,0E0,0E0,4.507599E-1,0E0,5.956116E-1,1.581219E1,1.0803375E0,2.0050797E1,2.8676696E0,2.100315E0,3.8102608E0,2.319933E0,2.2383683E0,3.7682037E0,3.252964E-1,1.7694852E0,4.3115234E-1,1.3637223E0,1.5438404E0,2.678488E0,2.042322E0,0E0,3.728304E0,2.9220867E0,1.5958481E0,1.5131589E0,0E0,4.8584747E-1,0E0,2.5706947E-2,0E0,0E0,0E0,1.1824036E-1,7.8159666E0,1.2252427E1,1.3012532E0,1.0661163E0,9.112056E0,0E0,4.7229505E-1,1.177317E0,6.0311747E-1,0E0,1.3425636E0,0E0,1.3422258E0,2.8072872E0,2.4716759E-1,0E0,1.3041015E0,2.336712E0,8.2884336E-1,5.149231E-1,2.7524643E0,0E0,0E0,3.6216736E-1,0E0,0E0,9.182892E-1,0E0,0E0,1.1886173E0,1.9723939E0,0E0,1.0326843E0,1.5344927E0,1.5843034E-1,0E0,0E0,4.511261E-1,0E0,0E0,0E0,5.622232E-1,0E0,0E0,0E0,0E0,0E0,0E0,0E0,0E0,0E0,0E0,0E0,0E0,0E0,0E0,0E0,0E0,0E0,0E0,0E0,0E0,0E0,0E0,0E0,0E0,0E0,0E0,0E0,0E0,0E0,0E0,0E0,0E0,0E0,0E0,0E0,0E0,0E0,0E0,0E0,0E0,0E0,0E0,0E0,0E0,0E0,0E0,0E0,0E0,0E0,0E0,0E0,0E0,0E0,0E0,0E0,0E0],"parents":[2147483647,0,0,1,1,2,2,3,3,4,4,5,5,6,6,7,7,8,8,9,9,10,10,11,11,13,13,14,14,15,15,17,17,19,19,21,21,22,22,23,23,24,24,25,25,27,27,29,29,30,30,32,32,33,33,34,34,35,35,36,36,37,37,38,38,39,39,40,40,41,41,43,43,44,44,47,47,49,49,50,50,51,51,52,52,53,53,54,54,55,55,56,56,57,57,58,58,59,59,60,60,61,61,62,62,63,63,64,64,65,65,67,67,68,68,69,69,70,70,72,72,74,74,78,78,79,79,80,80,81,81,82,82,83,83,85,85,86,86,87,87,89,89,91,91,92,92,93,93,95,95,96,96,97,97,98,98,99,99,102,102,105,105,108,108,109,109,111,111,112,112,113,113,116,116,120,120],"right_children":[2,4,6,8,10,12,14,16,18,20,22,24,-1,26,28,30,-1,32,-1,34,-1,36,38,40,42,44,-1,46,-1,48,50,-1,52,54,56,58,60,62,64,66,68,70,-1,72,74,-1,-1,76,-1,78,80,82,84,86,88,90,92,94,96,98,100,102,104,106,108,110,-1,112,114,116,118,-1,120,-1,122,-1,-1,-1,124,126,128,130,132,134,-1,136,138,140,-1,142,-1,144,146,148,-1,150,152,154,156,158,-1,-1,160,-1,-1,162,-1,-1,164,166,-1,168,170,172,-1,-1,174,-1,-1,-1,176,-1,-1,-1,-1,-1,-1,-1,-1,-1,-1,-1,-1,-1,-1,-1,-1,-1,-1,-1,-1,-1,-1,-1,-1,-1,-1,-1,-1,-1,-1,-1,-1,-1,-1,-1,-1,-1,-1,-1,-1,-1,-1,-1,-1,-1,-1,-1,-1,-1,-1,-1,-1,-1,-1,-1,-1],"split_conditions":[7.6241267E-1,5.742491E-1,2E2,1E0,1E0,2E0,9.5688844E-1,2E0,9.952153E1,2E0,9.9393936E1,6.966858E-1,-1.1969077E-1,6.7129564E0,6.206576E0,0E0,-1.2801827E-1,1.0113671E-1,-1.2595776E-1,-6E0,-1.2581114E-1,6.3044486E0,1.49E2,-9E0,8.509601E-1,9.800817E-1,3.9619934E-2,9.7787976E-1,1.0854121E-1,5.518936E-1,3.8803164E-2,-1.2587528E-1,9.48E1,8.423006E1,9.87013E1,7.7E1,6.639041E-1,9.518391E-1,9.9809525E1,-3.3E1,1.72E2,3.23E2,1.2828568E-1,5.351858E0,5.8289456E0,3.2441568E-2,-2.4122274E-2,5.660659E-1,3.0621354E-2,1.0741896E-1,9.4E1,4E0,2E0,9.31E1,7.329979E-1,9.9257505E-1,7.243513E0,5.872118E0,3.0465326E-1,6.516193E0,2E0,8.7E1,9.7724605E-1,7.329979E-1,9.461585E-1,9.972819E-1,-1.2238461E-1,9.9907255E-1,9.948454E1,5.02E1,8.594792E-1,-1.8593756E-2,6.2245584E0,2.9853502E-2,9.86794E-1,-1.2140872E-1,-2.3317067E-2,-3.3192225E-2,9.52E1,2.707714E-1,8.5498564E-2,5.5683446E0,9.894737E1,1.8918681E-1,-1.273039E-1,6.37E1,7.50769E0,7.0184016E0,3.1121826E-2,5.94E1,-4.3931197E-2,4.6062046E-1,3.2203105E-1,2.6E1,3.380413E-2,9.5815116E-1,6.163315E0,9.8226035E-1,6.44186E-1,9.68E1,-9.025552E-2,-2.5095254E-2,9.993311E1,1.5939597E-2,-8.5028194E-2,1.6755848E-1,-8.326135E-3,-8.232393E-2,9.987146E1,9.907408E-1,6.760839E-2,7.878913E0,1E0,4.46E2,5.7406124E-2,-7.1283067E-3,6.3207684E0,4.8304178E-2,-7.060238E-2,-1.1047643E-1,9.2765737E-1,-4.827669E-2,-1.0807209E-2,-3.581989E-2,-1.3598774E-1,-9.989413E-2,4.4032115E-2,-2.4902584E-2,3.9515406E-2,-8.733951E-2,1.718354E-2,-1.2300332E-1,-4.7962092E-2,-8.858982E-2,-6.524959E-3,-8.561196E-3,-9.578601E-2,7.327218E-2,-2.52197E-2,-1.6156564E-2,-1.0507285E-1,2.4968921E-3,1.18825965E-1,-2.0425176E-2,3.453026E-2,2.0858495E-2,1.11145794E-1,-2.3636973E-2,-1.0934528E-1,-7.6710455E-2,3.389362E-2,9.926974E-2,-1.7541265E-2,-7.458699E-2,2.0804172E-2,-1.1626784E-1,-4.3030396E-2,-7.0135966E-2,6.295429E-2,-1.2448692E-1,-3.0161927E-2,-2.9305352E-2,-1.2268346E-1,-1.9058444E-3,9.990316E-2,3.16119E-2,-9.579778E-2,1.2029065E-1,2.5624651E-2,4.759998E-2,-6.640986E-2,-9.755466E-2,-2.1223543E-2,9.077932E-2,1.2295127E-1,-7.9351984E-2,-1.1562944E-2],"split_indices":[9,9,4,6,6,2,9,2,7,2,7,0,0,11,11,6,0,0,0,6,0,11,6,6,9,1,0,0,0,0,1,0,4,7,7,4,9,0,7,6,6,6,0,11,11,0,0,9,0,0,4,6,2,4,9,1,11,11,0,11,2,4,0,9,1,1,0,1,7,4,0,0,11,0,1,0,0,0,4,0,0,11,7,0,0,4,11,11,0,4,0,1,0,6,0,1,11,1,9,4,0,0,7,0,0,0,0,0,7,1,0,11,6,6,0,0,11,0,0,0,0,0,0,0,0,0,0,0,0,0,0,0,0,0,0,0,0,0,0,0,0,0,0,0,0,0,0,0,0,0,0,0,0,0,0,0,0,0,0,0,0,0,0,0,0,0,0,0,0,0,0,0,0,0,0,0,0],"split_type":[0,0,0,0,0,0,0,0,0,0,0,0,0,0,0,0,0,0,0,0,0,0,0,0,0,0,0,0,0,0,0,0,0,0,0,0,0,0,0,0,0,0,0,0,0,0,0,0,0,0,0,0,0,0,0,0,0,0,0,0,0,0,0,0,0,0,0,0,0,0,0,0,0,0,0,0,0,0,0,0,0,0,0,0,0,0,0,0,0,0,0,0,0,0,0,0,0,0,0,0,0,0,0,0,0,0,0,0,0,0,0,0,0,0,0,0,0,0,0,0,0,0,0,0,0,0,0,0,0,0,0,0,0,0,0,0,0,0,0,0,0,0,0,0,0,0,0,0,0,0,0,0,0,0,0,0,0,0,0,0,0,0,0,0,0,0,0,0,0,0,0,0,0,0,0,0,0],"sum_hessian":[9.414058E3,4.8592354E3,4.5548228E3,4.5024937E3,3.5674158E2,4.4830835E3,7.173929E1,6.89785E2,3.8127087E3,1.2933914E2,2.2740242E2,4.473708E3,9.375262E0,5.8961163E1,1.2778129E1,2.6173944E2,4.2804556E2,6.314291E2,3.1812798E3,9.64768E1,3.286235E1,4.7789524E1,1.796129E2,3.9604984E1,4.434103E3,5.73962E1,1.564965E0,3.3975534E0,9.380575E0,9.766868E1,1.6407077E2,3.8421408E2,2.47215E2,1.4595356E1,8.188145E1,2.4039509E1,2.3750015E1,1.6017487E2,1.9438034E1,8.621682E0,3.0983301E1,6.328363E1,4.3708193E3,5.3663635E1,3.7325613E0,2.0295098E0,1.3680437E0,9.6517975E1,1.1507033E0,1.0367438E1,1.5370332E2,1.3967247E2,1.0754253E2,6.747209E0,7.8481464E0,3.1289766E1,5.059168E1,5.0333357E0,1.9006174E1,1.751428E1,6.2357345E0,1.5631122E2,3.8636422E0,1.4593641E1,4.844393E0,4.7637353E0,3.8579469E0,2.6585903E1,4.397399E0,6.096751E1,2.316118E0,1.680301E0,5.1983334E1,1.5702679E0,2.1622934E0,9.551152E1,1.0064509E0,1.5894259E0,8.778012E0,2.1710638E1,1.3199269E2,3.348757E0,1.3632372E2,5.524841E1,5.2294113E1,2.4749198E0,4.2722893E0,6.6662827E0,1.1818638E0,3.0198341E1,1.091425E0,3.6050224E1,1.4541453E1,3.7005732E0,1.3327622E0,2.554166E0,1.6452007E1,2.0764203E0,1.54378605E1,4.4251337E0,1.810601E0,1.016556E0,1.5529466E2,2.0410655E0,1.8225768E0,1.2779261E1,1.8143804E0,1.3298419E0,3.5145512E0,3.3665097E0,1.3972259E0,2.382426E1,2.7616413E0,2.3336868E0,2.0637124E0,1.1520792E0,5.9815434E1,1.2440743E0,1.0720437E0,4.6352634E1,5.6306987E0,1.1563382E0,1.0059552E0,1.0036E0,7.774412E0,1.7594885E1,4.1157517E0,4.316353E1,8.882916E1,1.7204106E0,1.6283466E0,1.3267787E2,3.645848E0,2.2035227E1,3.3213184E1,1.1376953E0,1.3372245E0,3.1391559E0,1.1331335E0,1.3318212E0,5.3344617E0,1.0707917E0,2.912755E1,4.472455E0,3.1577768E1,6.438683E0,8.10277E0,1.1133251E0,2.587248E0,1.4364587E0,1.1177075E0,1.4839164E1,1.6128433E0,1.053778E0,1.0226424E0,1.2667756E1,2.770104E0,1.6563238E0,2.7688098E0,1.541414E2,1.1532581E0,1.9810281E0,1.0798233E1,2.2046533E0,1.3098978E0,1.4100496E0,1.95646E0,2.1954245E1,1.8700159E0,1.5707207E0,1.1909206E0,1.2177967E0,1.1158901E0,3.516612E1,2.4649313E1,3.3918593E0,2.2388394E0],"tree_param":{"num_deleted":"0","num_feature":"14","num_nodes":"177","size_leaf_vector":"1"}},{"base_weights":[-2.257077E-3,-1.1215019E0,1.2018596E0,-7.738646E-1,-1.1917274E0,-3.938929E-1,1.2395983E0,-2.3517387E-2,-1.2448474E-1,-9.648815E-1,-1.2087064E0,5.332777E-1,-1.1509924E0,1.2449983E0,-1.01496294E-1,-7.8879267E-1,2.6378807E-1,-1.0381805E0,3.055493E-1,-1.2431977E-1,-1.1688564E0,-6.748336E-1,6.3989764E-1,-1.1636789E-1,-2.6142491E-2,8.3185583E-1,1.2510584E-1,-1.1321425E-1,7.8595436E-1,-1.1001606E0,-2.6119462E-1,-6.756908E-1,5.120974E-1,-1.1684289E0,-7.609364E-1,-7.649428E-2,5.054382E-1,-1.210895E0,-9.619022E-1,-1.1523964E-1,3.442472E-2,-2.864738E-1,7.101577E-1,1.166423E0,2.2377013E-1,1.0296293E-1,-5.334566E-2,-1.1420242E0,-3.056299E-1,5.857668E-1,-6.849804E-1,-1.0385969E0,-2.1461217E-1,2.13122E-1,1.0011677E0,-1.24868646E-1,-1.0423489E0,-4.0194413E-1,-1.1836053E0,7.8576005E-1,-6.353638E-1,-9.4595146E-1,-1.2244266E-1,-1.1785407E0,-5.3917694E-1,-8.188495E-2,4.3381643E-2,-6.9983736E-2,8.121847E-1,1.8058749E-2,1.1879646E0,-7.1483797E-1,5.961343E-1,-1.2381916E0,-7.601952E-1,3.5686728E-2,-8.96979E-2,-9.718684E-2,1.1240114E-1,-8.134222E-1,1.08500764E-1,-1.8150681E-1,-1.1429148E0,5.521963E-1,-3.9562985E-1,1.0686156E0,-4.7195833E-2,-4.8314318E-1,1.0853837E0,-8.413921E-1,-1.2311189E0,3.484469E-1,-6.657598E-1,-1.2413486E-1,4.1114073E-2,-7.679344E-2,1.0203928E0,-1.2869333E-2,-8.4697925E-2,-1.1907667E-1,-7.8027475E-1,-1.212775E0,-4.4843367E-1,-9.171378E-1,7.465798E-1,-6.907537E-2,4.38089E-1,-3.6294747E-2,8.6966246E-1,1.2274225E0,5.308919E-1,-1.0985433E-1,-2.0151464E-2,1.1703014E-1,4.533728E-2,-1.2614314E-1,-2.503161E-2,-1.0685112E-1,-4.8659258E-3,-1.0932857E-1,-3.1675573E-2,-6.395376E-2,6.0824633E-2,5.1871516E-2,-6.1414637E-2,-3.131607E-2,-1.21343255E-1,-1.0665812E-3,8.48056E-2,-8.902984E-2,-7.9745585E-3,-3.7558783E-2,1.17163695E-1,-4.87145E-2,2.3292556E-2,-1.19921386E-1,5.1233318E-2,1.15471E-1,3.7481707E-2,-2.611482E-2,-1.08916E-1,-1.2549664E-1,-4.4733346E-2,-6.145003E-2,6.9417916E-2,-8.700059E-2,-4.0929895E-3,1.188697E-1,2.9784871E-2,-4.1103344E-2,-1.1090463E-1,-4.189718E-3,-1.22229435E-1,1.02828465E-1,-7.527964E-2,1.1640581E-3,-1.0311116E-1,-7.9456724E-2,1.6419788E-1,8.802941E-2,-1.0173586E-2,9.069139E-2,2.5825808E-3,3.425413E-2,1.2495374E-1,-2.2149784E-2,8.9924105E-2,5.747312E-2,-5.560243E-2,-3.7841078E-2,5.7601232E-2],"categories":[],"categories_nodes":[],"categories_segments":[],"categories_sizes":[],"default_left":[1,0,0,0,0,0,0,0,0,1,0,0,1,0,0,1,0,0,0,0,0,0,0,0,0,0,0,0,0,1,0,0,0,0,0,0,0,0,0,0,0,0,0,0,0,0,0,0,0,0,0,0,0,0,0,0,0,0,0,0,0,0,0,1,0,0,0,0,0,0,1,0,0,0,0,0,0,0,0,0,0,0,0,0,0,0,0,0,1,0,0,0,1,0,0,0,0,0,0,0,0,0,0,0,0,0,0,0,0,0,0,0,0,0,0,0,0,0,0,0,0,0,0,0,0,0,0,0,0,0,0,0,0,0,0,0,0,0,0,0,0,0,0,0,0,0,0,0,0,0,0,0,0,0,0,0,0,0,0,0,0,0,0,0,0,0,0,0,0,0,0],"id":9,"left_children":[1,3,5,7,9,11,13,15,-1,17,19,21,23,25,27,29,31,33,35,-1,37,39,41,-1,-1,43,-1,-1,45,47,49,51,53,55,57,-1,59,61,63,-1,-1,65,67,69,71,-1,-1,73,75,77,79,81,83,85,87,-1,89,91,93,95,97,99,-1,101,103,-1,-1,105,107,-1,109,111,113,115,117,-1,-1,-1,-1,119,121,123,125,127,129,131,133,135,137,139,141,143,145,-1,-1,-1,147,-1,-1,-1,149,151,153,155,157,-1,159,-1,161,163,165,-1,167,-1,169,-1,-1,-1,-1,-1,-1,-1,-1,-1,-1,-1,-1,-1,-1,-1,-1,-1,-1,-1,-1,-1,-1,-1,-1,-1,-1,-1,-1,-1,-1,-1,-1,-1,-1,-1,-1,-1,-1,-1,-1,-1,-1,-1,-1,-1,-1,-1,-1,-1,-1,-1,-1,-1,-1,-1,-1],"loss_changes":[1.1846604E4,1.102959E2,2.5550146E2,2.715493E2,1.3423828E1,6.982039E1,3.0085938E1,6.558924E1,0E0,2.5343674E1,3.3857422E0,6.228341E0,3.118515E-1,9.275391E0,1.6910553E1,1.30877E1,5.0956017E1,8.294464E0,3.6889112E0,0E0,1.3191162E1,2.4096603E0,2.9282951E0,0E0,0E0,1.24647255E1,0E0,0E0,3.7649603E0,1.3436394E0,1.1717627E1,7.4381523E0,2.4960388E1,4.303894E-1,1.2293671E1,0E0,4.8505096E0,3.744995E0,2.5322601E1,0E0,0E0,1.760217E0,3.1770554E0,6.373253E-1,8.617838E0,0E0,0E0,8.2043076E-1,1.8529129E0,1.035948E1,2.2768707E0,2.059929E0,3.192419E0,2.4128162E1,8.6553955E0,0E0,1.7192383E0,9.540302E0,4.022156E0,4.9283915E0,2.3805308E-1,1.944664E0,0E0,4.119232E0,4.8254093E1,0E0,0E0,2.022922E0,2.6625595E0,0E0,3.6148453E-1,1.8736002E0,5.426303E0,5.275841E-1,2.6338067E0,0E0,0E0,0E0,0E0,2.2391443E0,1.8372642E0,1.512291E0,9.3178177E-1,7.5996196E-1,2.7285237E0,4.1992207E0,1.0447228E1,3.597168E0,2.6145706E0,5.227125E0,9.8236084E-2,4.7170377E0,4.448003E0,0E0,0E0,0E0,8.9940166E-1,0E0,0E0,0E0,5.0260124E0,1.9285889E0,5.242955E0,8.06739E0,3.2752026E1,0E0,9.5164764E-1,0E0,1.0271244E0,2.7843094E-1,1.3010451E0,0E0,1.4509914E0,0E0,2.440452E0,0E0,0E0,0E0,0E0,0E0,0E0,0E0,0E0,0E0,0E0,0E0,0E0,0E0,0E0,0E0,0E0,0E0,0E0,0E0,0E0,0E0,0E0,0E0,0E0,0E0,0E0,0E0,0E0,0E0,0E0,0E0,0E0,0E0,0E0,0E0,0E0,0E0,0E0,0E0,0E0,0E0,0E0,0E0,0E0,0E0,0E0,0E0,0E0,0E0,0E0,0E0,0E0,0E0,0E0,0E0,0E0],"parents":[2147483647,0,0,1,1,2,2,3,3,4,4,5,5,6,6,7,7,9,9,10,10,11,11,12,12,13,13,14,14,15,15,16,16,17,17,18,18,20,20,21,21,22,22,25,25,28,28,29,29,30,30,31,31,32,32,33,33,34,34,36,36,37,37,38,38,41,41,42,42,43,43,44,44,47,47,48,48,49,49,50,50,51,51,52,52,53,53,54,54,56,56,57,57,58,58,59,59,60,60,61,61,63,63,64,64,67,67,68,68,70,70,71,71,72,72,73,73,74,74,79,79,80,80,81,81,82,82,83,83,84,84,85,85,86,86,87,87,88,88,89,89,90,90,91,91,92,92,96,96,100,100,101,101,102,102,103,103,104,104,106,106,108,108,109,109,110,110,112,112,114,114],"right_children":[2,4,6,8,10,12,14,16,-1,18,20,22,24,26,28,30,32,34,36,-1,38,40,42,-1,-1,44,-1,-1,46,48,50,52,54,56,58,-1,60,62,64,-1,-1,66,68,70,72,-1,-1,74,76,78,80,82,84,86,88,-1,90,92,94,96,98,100,-1,102,104,-1,-1,106,108,-1,110,112,114,116,118,-1,-1,-1,-1,120,122,124,126,128,130,132,134,136,138,140,142,144,146,-1,-1,-1,148,-1,-1,-1,150,152,154,156,158,-1,160,-1,162,164,166,-1,168,-1,170,-1,-1,-1,-1,-1,-1,-1,-1,-1,-1,-1,-1,-1,-1,-1,-1,-1,-1,-1,-1,-1,-1,-1,-1,-1,-1,-1,-1,-1,-1,-1,-1,-1,-1,-1,-1,-1,-1,-1,-1,-1,-1,-1,-1,-1,-1,-1,-1,-1,-1,-1,-1,-1,-1,-1,-1],"split_conditions":[7.6241267E-1,1E0,4.9069E-1,3E0,8.378516E1,2.24E2,3E0,4.13E-1,-1.2448474E-1,6.2583876E-1,3.4585E-1,-1E0,5.8761955E1,8.3239627E-1,9.5444095E-1,4.133312E-1,0E0,9.89E1,1.07E-1,-1.2431977E-1,5.742491E-1,8.89133E-1,7.408193E-1,-1.1636789E-1,-2.6142491E-2,9.766153E-1,1.2510584E-1,-1.1321425E-1,7.728416E0,5.531953E-1,5.433722E0,5.660659E-1,6.2583876E-1,2.7186E-1,9.917E-1,-7.649428E-2,9.9451E-1,9.3814E-1,9.3814E-1,-1.1523964E-1,3.442472E-2,2.329E-1,7.809E-2,5.33E1,-9E0,1.0296293E-1,-5.334566E-2,2E0,1.0981815E2,5.728E-2,3.4585E-1,6.163315E0,9.5815116E-1,9.5857E-1,5.09375E0,-1.24868646E-1,6.042633E0,3.8221848E1,9.997244E-1,6.37E1,9.9897E-1,1.0899507E-1,-1.2244266E-1,6.639041E-1,1.9999962E0,-8.188495E-2,4.3381643E-2,8.8341707E-1,5.48E1,1.8058749E-2,6.9E1,9.9738896E-1,3E0,6.3044486E0,4.133312E-1,3.5686728E-2,-8.96979E-2,-9.718684E-2,1.1240114E-1,2E0,5.590987E0,5.8761955E1,-8E1,6.2583876E-1,6.7452364E0,1.1454915E-1,5.0765234E-1,6.5558E-1,9.9680185E-1,8.5691583E-1,9.9990547E-1,1.4183E-1,5.098473E-1,-1.2413486E-1,4.1114073E-2,-7.679344E-2,1.41E2,-1.2869333E-2,-8.4697925E-2,-1.1907667E-1,4.6062046E-1,5.836752E-1,5.379897E0,9.9451E-1,9.8841E-1,-6.907537E-2,9.202875E-1,-3.6294747E-2,9.9454486E-1,5.3816E-1,1.01E2,-1.0985433E-1,-4.1E1,1.1703014E-1,1.8542136E2,-1.2614314E-1,-2.503161E-2,-1.0685112E-1,-4.8659258E-3,-1.0932857E-1,-3.1675573E-2,-6.395376E-2,6.0824633E-2,5.1871516E-2,-6.1414637E-2,-3.131607E-2,-1.21343255E-1,-1.0665812E-3,8.48056E-2,-8.902984E-2,-7.9745585E-3,-3.7558783E-2,1.17163695E-1,-4.87145E-2,2.3292556E-2,-1.19921386E-1,5.1233318E-2,1.15471E-1,3.7481707E-2,-2.611482E-2,-1.08916E-1,-1.2549664E-1,-4.4733346E-2,-6.145003E-2,6.9417916E-2,-8.700059E-2,-4.0929895E-3,1.188697E-1,